{"learner":{"attributes":{"scikit_learn":"{\"_estimator_type\": \"regressor\"}"},"feature_names":[],"feature_types":[],"gradient_booster":{"model":{"cats":{"enc":[],"feature_segments":[],"sorted_idx":[]},"gbtree_model_param":{"num_parallel_tree":"1","num_trees":"150"},"iteration_indptr":[0,1,2,3,4,5,6,7,8,9,10,11,12,13,14,15,16,17,18,19,20,21,22,23,24,25,26,27,28,29,30,31,32,33,34,35,36,37,38,39,40,41,42,43,44,45,46,47,48,49,50,51,52,53,54,55,56,57,58,59,60,61,62,63,64,65,66,67,68,69,70,71,72,73,74,75,76,77,78,79,80,81,82,83,84,85,86,87,88,89,90,91,92,93,94,95,96,97,98,99,100,101,102,103,104,105,106,107,108,109,110,111,112,113,114,115,116,117,118,119,120,121,122,123,124,125,126,127,128,129,130,131,132,133,134,135,136,137,138,139,140,141,142,143,144,145,146,147,148,149,150],"tree_info":[0,0,0,0,0,0,0,0,0,0,0,0,0,0,0,0,0,0,0,0,0,0,0,0,0,0,0,0,0,0,0,0,0,0,0,0,0,0,0,0,0,0,0,0,0,0,0,0,0,0,0,0,0,0,0,0,0,0,0,0,0,0,0,0,0,0,0,0,0,0,0,0,0,0,0,0,0,0,0,0,0,0,0,0,0,0,0,0,0,0,0,0,0,0,0,0,0,0,0,0,0,0,0,0,0,0,0,0,0,0,0,0,0,0,0,0,0,0,0,0,0,0,0,0,0,0,0,0,0,0,0,0,0,0,0,0,0,0,0,0,0,0,0,0,0,0,0,0,0,0],"trees":[{"base_weights":[-3.1984246E-1,-2.1867101E0,4.307946E0,-4.5878143E0,-5.6493574E-1,1.3843465E0,8.250301E0,-1.1637538E-1,-3.626259E-2,1.4541613E-1,-1.3427605E-2,3.6337015E-3,1.822142E-1,4.9813677E-2,1.60077E-1],"categories":[],"categories_nodes":[],"categories_segments":[],"categories_sizes":[],"default_left":[0,0,0,0,0,0,0,0,0,0,0,0,0,0,0],"id":0,"left_children":[1,3,5,7,9,11,13,-1,-1,-1,-1,-1,-1,-1,-1],"loss_changes":[1.1617887E4,3.7277378E3,4.44219E3,3.0171606E3,3.2881487E3,3.1451978E3,2.971248E3,0E0,0E0,0E0,0E0,0E0,0E0,0E0,0E0],"parents":[2147483647,0,0,1,1,2,2,3,3,4,4,5,5,6,6],"right_children":[2,4,6,8,10,12,14,-1,-1,-1,-1,-1,-1,-1,-1],"split_conditions":[8.5E1,7.94E1,8.44E1,7.82E1,-2.9952E1,9.38E1,8.2E1,-1.1637538E-1,-3.626259E-2,1.4541613E-1,-1.3427605E-2,3.6337015E-3,1.822142E-1,4.9813677E-2,1.60077E-1],"split_indices":[12,13,14,14,0,12,13,0,0,0,0,0,0,0,0],"split_type":[0,0,0,0,0,0,0,0,0,0,0,0,0,0,0],"sum_hessian":[1.3423E3,9.569E2,3.854E2,3.849E2,5.72E2,2.222E2,1.632E2,1.075E2,2.774E2,2.12E1,5.508E2,2.057E2,1.65E1,8.12E1,8.2E1],"tree_param":{"num_deleted":"0","num_feature":"19","num_nodes":"15","size_leaf_vector":"1"}},{"base_weights":[3.8719535E-1,-2.1304283E0,3.6820426E0,-3.9236634E0,2.570079E0,-3.8003135E0,5.214764E0,-1.18098356E-1,-4.103955E-2,1.972834E-2,1.2244736E-1,5.9743255E-2,-7.501427E-2,5.4631643E-2,1.2930402E-1],"categories":[],"categories_nodes":[],"categories_segments":[],"categories_sizes":[],"default_left":[0,0,0,0,0,0,0,0,0,0,0,0,0,0,0],"id":1,"left_children":[1,3,5,7,9,11,13,-1,-1,-1,-1,-1,-1,-1,-1],"loss_changes":[1.1230653E4,6.4817324E3,6.747889E3,2.1004248E3,1.5142223E3,1.7627561E3,2.2220635E3,0E0,0E0,0E0,0E0,0E0,0E0,0E0,0E0],"parents":[2147483647,0,0,1,1,2,2,3,3,4,4,5,5,6,6],"right_children":[2,4,6,8,10,12,14,-1,-1,-1,-1,-1,-1,-1,-1],"split_conditions":[8.26E1,8.151E1,7.9564E1,-1E0,2.8736E2,-1.184E0,8.706E0,-1.18098356E-1,-4.103955E-2,1.972834E-2,1.2244736E-1,5.9743255E-2,-7.501427E-2,5.4631643E-2,1.2930402E-1],"split_indices":[14,16,16,8,1,5,0,0,0,0,0,0,0,0,0],"split_type":[0,0,0,0,0,0,0,0,0,0,0,0,0,0,0],"sum_hessian":[1.3516E3,7.664E2,5.852E2,5.549E2,2.115E2,9.92E1,4.86E2,6.57E1,4.892E2,1.854E2,2.61E1,1.9E1,8.02E1,4.075E2,7.85E1],"tree_param":{"num_deleted":"0","num_feature":"19","num_nodes":"15","size_leaf_vector":"1"}},{"base_weights":[-4.957972E-2,-2.028568E0,4.8296466E0,-8.988066E-1,-5.5860734E0,-2.4315903E0,5.7285385E0,-1.5849477E-2,1.6424717E-1,-8.118507E-2,1.04494065E-1,-9.910914E-2,9.26206E-2,-4.5355096E-2,8.496845E-2],"categories":[],"categories_nodes":[],"categories_segments":[],"categories_sizes":[],"default_left":[0,0,0,0,0,0,0,0,0,0,0,0,0,0,0],"id":2,"left_children":[1,3,5,7,9,11,13,-1,-1,-1,-1,-1,-1,-1,-1],"loss_changes":[1.2590919E4,3.7225532E3,2.4722344E3,3.2557983E3,2.3135107E3,2.2194592E3,2.781128E3,0E0,0E0,0E0,0E0,0E0,0E0,0E0,0E0],"parents":[2147483647,0,0,1,1,2,2,3,3,4,4,5,5,6,6],"right_children":[2,4,6,8,10,12,14,-1,-1,-1,-1,-1,-1,-1,-1],"split_conditions":[8.52E1,2.052E-1,-7.7E-2,1.1E1,9.04E1,3.2E0,-5E0,-1.5849477E-2,1.6424717E-1,-8.118507E-2,1.04494065E-1,-9.910914E-2,9.26206E-2,-4.5355096E-2,8.496845E-2],"split_indices":[12,11,11,2,15,7,17,0,0,0,0,0,0,0,0],"split_type":[0,0,0,0,0,0,0,0,0,0,0,0,0,0,0],"sum_hessian":[1.3016E3,9.265E2,3.751E2,7.043E2,2.222E2,4.11E1,3.34E2,6.885E2,1.58E1,2.115E2,1.07E1,2.67E1,1.44E1,2.89E1,3.051E2],"tree_param":{"num_deleted":"0","num_feature":"19","num_nodes":"15","size_leaf_vector":"1"}},{"base_weights":[-1.0082296E-1,-1.8442882E0,4.0503664E0,-6.034038E0,-1.09457545E-1,4.825183E0,-7.597449E0,-1.0138653E-1,-1.8679213E-2,-5.9381844E-3,1.4580987E-1,-9.7910045E-3,7.881221E-2,-1.6161685E-1,-3.2704324E-2],"categories":[],"categories_nodes":[],"categories_segments":[],"categories_sizes":[],"default_left":[0,0,0,0,0,0,0,0,0,0,0,0,0,0,0],"id":3,"left_children":[1,3,5,7,9,11,13,-1,-1,-1,-1,-1,-1,-1,-1],"loss_changes":[9.774742E3,6.912085E3,3.648067E3,2.3587578E3,2.7316262E3,2.7550303E3,6.014822E2,0E0,0E0,0E0,0E0,0E0,0E0,0E0,0E0],"parents":[2147483647,0,0,1,1,2,2,3,3,4,4,5,5,6,6],"right_children":[2,4,6,8,10,12,14,-1,-1,-1,-1,-1,-1,-1,-1],"split_conditions":[8.52E1,7.86E1,9.84E-2,8.42E1,9.34E1,-4.44E-2,1.053E-1,-1.0138653E-1,-1.8679213E-2,-5.9381844E-3,1.4580987E-1,-9.7910045E-3,7.881221E-2,-1.6161685E-1,-3.2704324E-2],"split_indices":[12,14,3,13,14,11,11,0,0,0,0,0,0,0,0],"split_type":[0,0,0,0,0,0,0,0,0,0,0,0,0,0,0],"sum_hessian":[1.3482E3,9.499E2,3.983E2,2.773E2,6.726E2,3.741E2,2.42E1,1.966E2,8.07E1,6.536E2,1.9E1,7.12E1,3.029E2,1.13E1,1.29E1],"tree_param":{"num_deleted":"0","num_feature":"19","num_nodes":"15","size_leaf_vector":"1"}},{"base_weights":[-1.2847295E-1,-3.177752E0,3.2435687E0,-4.176272E0,6.301579E-1,6.0912876E0,4.7174555E-1,-1.1186999E-2,-7.4327424E-2,3.1529203E-2,-1.7123108E-1,6.697396E-2,3.0633938E-1,-3.9302442E-2,5.3456157E-2],"categories":[],"categories_nodes":[],"categories_segments":[],"categories_sizes":[],"default_left":[0,0,0,0,0,0,0,0,0,0,0,0,0,0,0],"id":4,"left_children":[1,3,5,7,9,11,13,-1,-1,-1,-1,-1,-1,-1,-1],"loss_changes":[1.400184E4,2.7219712E3,5.101044E3,3.0114775E3,3.8490898E3,4.818827E3,4.302813E3,0E0,0E0,0E0,0E0,0E0,0E0,0E0,0E0],"parents":[2147483647,0,0,1,1,2,2,3,3,4,4,5,5,6,6],"right_children":[2,4,6,8,10,12,14,-1,-1,-1,-1,-1,-1,-1,-1],"split_conditions":[8.0862E1,8.52E1,1.459E1,-5.8E0,9.39E-2,9E0,8.5E1,-1.1186999E-2,-7.4327424E-2,3.1529203E-2,-1.7123108E-1,6.697396E-2,3.0633938E-1,-3.9302442E-2,5.3456157E-2],"split_indices":[16,12,1,2,3,2,12,0,0,0,0,0,0,0,0],"split_type":[0,0,0,0,0,0,0,0,0,0,0,0,0,0,0],"sum_hessian":[1.3594E3,7.139E2,6.455E2,5.655E2,1.484E2,3.177E2,3.278E2,1.859E2,3.796E2,1.321E2,1.63E1,3.042E2,1.35E1,1.676E2,1.602E2],"tree_param":{"num_deleted":"0","num_feature":"19","num_nodes":"15","size_leaf_vector":"1"}},{"base_weights":[-9.249319E-2,-3.0997095E0,3.2283814E0,-6.25333E0,-7.815104E-2,2.706775E0,1.618783E1,-1.555096E-1,-6.412937E-2,-1.817665E-2,9.831019E-2,2.5395682E-2,1.259717E-1,2.6279545E-1,1.2737466E-1],"categories":[],"categories_nodes":[],"categories_segments":[],"categories_sizes":[],"default_left":[0,0,0,0,0,0,0,0,0,0,0,0,0,0,0],"id":5,"left_children":[1,3,5,7,9,11,13,-1,-1,-1,-1,-1,-1,-1,-1],"loss_changes":[1.3526256E4,6.7722466E3,4.299773E3,2.495038E3,3.7780579E3,3.1898203E3,4.2370752E2,0E0,0E0,0E0,0E0,0E0,0E0,0E0,0E0],"parents":[2147483647,0,0,1,1,2,2,3,3,4,4,5,5,6,6],"right_children":[2,4,6,8,10,12,14,-1,-1,-1,-1,-1,-1,-1,-1],"split_conditions":[8.0954E1,8.04E1,9.34E1,7.6E1,3E0,1.14E1,1E0,-1.555096E-1,-6.412937E-2,-1.817665E-2,9.831019E-2,2.5395682E-2,1.259717E-1,2.6279545E-1,1.2737466E-1],"split_indices":[16,13,14,14,2,2,2,0,0,0,0,0,0,0,0],"split_type":[0,0,0,0,0,0,0,0,0,0,0,0,0,0,0],"sum_hessian":[1.3521E3,7.096E2,6.425E2,3.466E2,3.63E2,6.19E2,2.35E1,5.96E1,2.87E2,3.103E2,5.27E1,5.627E2,5.63E1,1.24E1,1.11E1],"tree_param":{"num_deleted":"0","num_feature":"19","num_nodes":"15","size_leaf_vector":"1"}},{"base_weights":[1.6035058E-1,-2.6014667E0,3.1940517E0,-6.0380774E0,5.9546286E-1,1.3825147E0,5.8335433E0,-9.162556E-2,2.1443274E-2,-1.3554309E-2,7.079191E-2,7.178277E-2,-6.2958198E-3,5.125155E-2,1.5969835E-1],"categories":[],"categories_nodes":[],"categories_segments":[],"categories_sizes":[],"default_left":[0,0,0,0,0,0,0,0,0,0,0,0,0,0,0],"id":6,"left_children":[1,3,5,7,9,11,13,-1,-1,-1,-1,-1,-1,-1,-1],"loss_changes":[1.1579378E4,7.9526826E3,3.13954E3,2.9604004E3,3.0574988E3,3.0918713E3,3.1982637E3,0E0,0E0,0E0,0E0,0E0,0E0,0E0,0E0],"parents":[2147483647,0,0,1,1,2,2,3,3,4,4,5,5,6,6],"right_children":[2,4,6,8,10,12,14,-1,-1,-1,-1,-1,-1,-1,-1],"split_conditions":[8.0862E1,8.06E1,6.6E-1,8.72E1,8.5E1,-2.952E0,8.2944E1,-9.162556E-2,2.1443274E-2,-1.3554309E-2,7.079191E-2,7.178277E-2,-6.2958198E-3,5.125155E-2,1.5969835E-1],"split_indices":[16,13,5,12,12,5,16,0,0,0,0,0,0,0,0],"split_type":[0,0,0,0,0,0,0,0,0,0,0,0,0,0,0],"sum_hessian":[1.3797E3,7.223E2,6.574E2,3.476E2,3.747E2,3.909E2,2.665E2,3.044E2,4.32E1,2.812E2,9.35E1,1.197E2,2.712E2,2.098E2,5.67E1],"tree_param":{"num_deleted":"0","num_feature":"19","num_nodes":"15","size_leaf_vector":"1"}},{"base_weights":[-9.480325E-2,-2.7019825E0,2.1331432E0,-3.9955163E0,3.1092448E0,-8.3282137E-1,3.791219E0,-8.924983E-2,-1.5865803E-2,1.23175494E-1,-4.5596706E-3,-2.5866432E-2,9.508572E-2,4.295877E-2,1.6693114E-1],"categories":[],"categories_nodes":[],"categories_segments":[],"categories_sizes":[],"default_left":[0,0,0,0,0,0,0,0,0,0,0,0,0,0,0],"id":7,"left_children":[1,3,5,7,9,11,13,-1,-1,-1,-1,-1,-1,-1,-1],"loss_changes":[7.831989E3,4.68463E3,3.5792742E3,4.136934E3,2.5585117E3,2.5631587E3,1.8664575E3,0E0,0E0,0E0,0E0,0E0,0E0,0E0,0E0],"parents":[2147483647,0,0,1,1,2,2,3,3,4,4,5,5,6,6],"right_children":[2,4,6,8,10,12,14,-1,-1,-1,-1,-1,-1,-1,-1],"split_conditions":[8.14E1,5.06E-2,7.9E1,8.18E1,1.0303E2,9.02E1,2.051E2,-8.924983E-2,-1.5865803E-2,1.23175494E-1,-4.5596706E-3,-2.5866432E-2,9.508572E-2,4.295877E-2,1.6693114E-1],"split_indices":[14,3,13,13,1,14,1,0,0,0,0,0,0,0,0],"split_type":[0,0,0,0,0,0,0,0,0,0,0,0,0,0,0],"sum_hessian":[1.346E3,6.201E2,7.259E2,5.075E2,1.126E2,2.605E2,4.654E2,2.443E2,2.632E2,3.85E1,7.41E1,2.286E2,3.19E1,4.454E2,2E1],"tree_param":{"num_deleted":"0","num_feature":"19","num_nodes":"15","size_leaf_vector":"1"}},{"base_weights":[1.8484987E-1,-2.7807798E0,3.5954058E0,-6.8385997E0,-1.2386392E0,2.9018753E0,1.3403454E1,-9.888922E-2,4.8034392E-2,3.460561E-2,-2.4335628E-2,5.696682E-2,-1.8528853E-2,2.2115216E-1,5.551568E-2],"categories":[],"categories_nodes":[],"categories_segments":[],"categories_sizes":[],"default_left":[0,0,0,0,0,0,0,0,0,0,0,0,0,0,0],"id":8,"left_children":[1,3,5,7,9,11,13,-1,-1,-1,-1,-1,-1,-1,-1],"loss_changes":[1.3136907E4,4.337771E3,4.0634893E3,1.7742168E3,1.3089534E3,3.776629E3,1.2840845E3,0E0,0E0,0E0,0E0,0E0,0E0,0E0,0E0],"parents":[2147483647,0,0,1,1,2,2,3,3,4,4,5,5,6,6],"right_children":[2,4,6,8,10,12,14,-1,-1,-1,-1,-1,-1,-1,-1],"split_conditions":[8.0862E1,7.72E1,9.12E1,3.61E-2,-8.6E0,7E-1,-9.13E0,-9.888922E-2,4.8034392E-2,3.460561E-2,-2.4335628E-2,5.696682E-2,-1.8528853E-2,2.2115216E-1,5.551568E-2],"split_indices":[16,14,14,4,2,10,1,0,0,0,0,0,0,0,0],"split_type":[0,0,0,0,0,0,0,0,0,0,0,0,0,0,0],"sum_hessian":[1.2965E3,6.936E2,6.029E2,1.899E2,5.037E2,5.645E2,3.84E1,1.759E2,1.4E1,7.15E1,4.322E2,4.172E2,1.473E2,2.63E1,1.21E1],"tree_param":{"num_deleted":"0","num_feature":"19","num_nodes":"15","size_leaf_vector":"1"}},{"base_weights":[6.303643E-1,-1.841078E0,3.4299362E0,-2.6648984E0,7.6186395E0,2.912421E-1,5.813928E0,-8.321046E-2,-2.0142661E-2,2.1161802E-2,1.8481177E-1,-1.1978284E-2,7.938042E-2,5.8434606E-2,1.7089838E-1],"categories":[],"categories_nodes":[],"categories_segments":[],"categories_sizes":[],"default_left":[0,0,0,0,0,0,0,0,0,0,0,0,0,0,0],"id":9,"left_children":[1,3,5,7,9,11,13,-1,-1,-1,-1,-1,-1,-1,-1],"loss_changes":[9.082113E3,5.458428E3,4.602599E3,2.674683E3,2.2432207E3,1.9303682E3,3.240998E3,0E0,0E0,0E0,0E0,0E0,0E0,0E0,0E0],"parents":[2147483647,0,0,1,1,2,2,3,3,4,4,5,5,6,6],"right_children":[2,4,6,8,10,12,14,-1,-1,-1,-1,-1,-1,-1,-1],"split_conditions":[8.22E1,8.98E1,8.04E1,7.66E1,-2.95E-2,9.4E0,9.06E1,-8.321046E-2,-2.0142661E-2,2.1161802E-2,1.8481177E-1,-1.1978284E-2,7.938042E-2,5.8434606E-2,1.7089838E-1],"split_indices":[14,12,15,15,4,2,14,0,0,0,0,0,0,0,0],"split_type":[0,0,0,0,0,0,0,0,0,0,0,0,0,0,0],"sum_hessian":[1.3104E3,6.962E2,6.142E2,6.412E2,5.5E1,2.657E2,3.485E2,1.419E2,4.993E2,3E1,2.5E1,2.208E2,4.49E1,2.998E2,4.87E1],"tree_param":{"num_deleted":"0","num_feature":"19","num_nodes":"15","size_leaf_vector":"1"}},{"base_weights":[-5.646203E-1,-3.746819E0,1.4832212E0,1.6138741E-1,-4.1053295E0,-2.711633E0,2.5854104E0,-5.9646763E-2,8.635322E-2,-1.2750559E-1,-1.2486851E-3,-1.645994E-2,4.990219E-2],"categories":[],"categories_nodes":[],"categories_segments":[],"categories_sizes":[],"default_left":[0,0,0,0,0,0,0,0,0,0,0,0,0],"id":10,"left_children":[1,3,5,-1,7,9,11,-1,-1,-1,-1,-1,-1],"loss_changes":[8.809633E3,3.1556748E3,3.8122961E3,0E0,3.0638447E3,3.2394966E3,3.284544E3,0E0,0E0,0E0,0E0,0E0,0E0],"parents":[2147483647,0,0,1,1,2,2,4,4,5,5,6,6],"right_children":[2,4,6,-1,8,10,12,-1,-1,-1,-1,-1,-1],"split_conditions":[8.0356E1,-2.6376E1,-4.44E-2,1.6138741E-1,9.08E1,-2.2E0,7.84E1,-5.9646763E-2,8.635322E-2,-1.2750559E-1,-1.2486851E-3,-1.645994E-2,4.990219E-2],"split_indices":[16,0,11,0,12,7,12,0,0,0,0,0,0],"split_type":[0,0,0,0,0,0,0,0,0,0,0,0,0],"sum_hessian":[1.3497E3,5.281E2,8.216E2,1.05E1,5.176E2,1.706E2,6.51E2,4.937E2,2.39E1,4.45E1,1.261E2,1.638E2,4.872E2],"tree_param":{"num_deleted":"0","num_feature":"19","num_nodes":"13","size_leaf_vector":"1"}},{"base_weights":[-4.7153747E-1,-2.3615918E0,4.064845E0,-1.1086044E0,-6.953518E0,-6.651658E0,5.1274524E0,-6.721463E-2,4.066489E-3,-1.0021126E-1,3.489341E-3,-1.6924591E-1,-3.561321E-2,3.0533811E-2,9.684367E-2],"categories":[],"categories_nodes":[],"categories_segments":[],"categories_sizes":[],"default_left":[0,0,0,0,0,0,0,0,0,0,0,0,0,0,0],"id":11,"left_children":[1,3,5,7,9,11,13,-1,-1,-1,-1,-1,-1,-1,-1],"loss_changes":[1.1781371E4,5.5706724E3,4.6423564E3,4.489104E3,1.2765625E3,8.930797E2,2.4234492E3,0E0,0E0,0E0,0E0,0E0,0E0,0E0,0E0],"parents":[2147483647,0,0,1,1,2,2,3,3,4,4,5,5,6,6],"right_children":[2,4,6,8,10,12,14,-1,-1,-1,-1,-1,-1,-1,-1],"split_conditions":[8.52E1,2.53E-2,7.9256E1,7.84E1,8.22E1,7.6E0,8.26E1,-6.721463E-2,4.066489E-3,-1.0021126E-1,3.489341E-3,-1.6924591E-1,-3.561321E-2,3.0533811E-2,9.684367E-2],"split_indices":[12,6,16,14,16,2,14,0,0,0,0,0,0,0,0],"split_type":[0,0,0,0,0,0,0,0,0,0,0,0,0,0,0],"sum_hessian":[1.3716E3,9.686E2,4.03E2,7.621E2,2.065E2,3.58E1,3.672E2,1.949E2,5.672E2,1.847E2,2.18E1,1.23E1,2.35E1,1.727E2,1.945E2],"tree_param":{"num_deleted":"0","num_feature":"19","num_nodes":"15","size_leaf_vector":"1"}},{"base_weights":[-2.92622E-1,-3.5161657E0,3.2983093E0,-6.4353848E0,-7.8927314E-1,2.4645452E0,1.2892879E1,-2.03755E-1,-6.966073E-2,-2.7212584E-2,7.590314E-2,4.9243603E-2,-1.77196E-2,8.8433705E-2,2.7775082E-1],"categories":[],"categories_nodes":[],"categories_segments":[],"categories_sizes":[],"default_left":[0,0,0,0,0,0,0,0,0,0,0,0,0,0,0],"id":12,"left_children":[1,3,5,7,9,11,13,-1,-1,-1,-1,-1,-1,-1,-1],"loss_changes":[1.5867057E4,5.7436104E3,5.15033E3,3.2247607E3,3.352721E3,3.1551946E3,2.5313252E3,0E0,0E0,0E0,0E0,0E0,0E0,0E0,0E0],"parents":[2147483647,0,0,1,1,2,2,3,3,4,4,5,5,6,6],"right_children":[2,4,6,8,10,12,14,-1,-1,-1,-1,-1,-1,-1,-1],"split_conditions":[8.0862E1,8.04E1,9.06E1,7.766E1,2.2E0,7E-1,8.2856E1,-2.03755E-1,-6.966073E-2,-2.7212584E-2,7.590314E-2,4.9243603E-2,-1.77196E-2,8.8433705E-2,2.7775082E-1],"split_indices":[16,13,14,16,2,10,16,0,0,0,0,0,0,0,0],"split_type":[0,0,0,0,0,0,0,0,0,0,0,0,0,0,0],"sum_hessian":[1.3684E3,7.211E2,6.473E2,3.475E2,3.736E2,5.969E2,5.04E1,3.2E1,3.155E2,3.124E2,6.12E1,4.401E2,1.568E2,3.11E1,1.93E1],"tree_param":{"num_deleted":"0","num_feature":"19","num_nodes":"15","size_leaf_vector":"1"}},{"base_weights":[-6.6353986E-3,-3.1143627E0,3.255124E0,-6.5645714E0,-2.002124E0,5.7323203E0,1.5614026E0,-1.04610294E-1,-2.8856384E-2,-6.5404266E-2,-4.807707E-3,3.340192E-2,1.8738535E-1,3.143893E-3,7.672982E-2],"categories":[],"categories_nodes":[],"categories_segments":[],"categories_sizes":[],"default_left":[0,0,0,0,0,0,0,0,0,0,0,0,0,0,0],"id":13,"left_children":[1,3,5,7,9,11,13,-1,-1,-1,-1,-1,-1,-1,-1],"loss_changes":[1.3875461E4,2.674564E3,2.7916963E3,1.1412979E3,2.672827E3,7.4665303E3,2.3122854E3,0E0,0E0,0E0,0E0,0E0,0E0,0E0,0E0],"parents":[2147483647,0,0,1,1,2,2,3,3,4,4,5,5,6,6],"right_children":[2,4,6,8,10,12,14,-1,-1,-1,-1,-1,-1,-1,-1],"split_conditions":[8.0882E1,7.6E1,4.286E-1,1.19E-2,7.84E1,2E0,8.66E1,-1.04610294E-1,-2.8856384E-2,-6.5404266E-2,-4.807707E-3,3.340192E-2,1.8738535E-1,3.143893E-3,7.672982E-2],"split_indices":[16,15,10,4,14,18,14,0,0,0,0,0,0,0,0],"split_type":[0,0,0,0,0,0,0,0,0,0,0,0,0,0,0],"sum_hessian":[1.3665E3,6.998E2,6.667E2,1.692E2,5.306E2,2.696E2,3.971E2,1.231E2,4.61E1,1.822E2,3.484E2,2.003E2,6.93E1,3.068E2,9.03E1],"tree_param":{"num_deleted":"0","num_feature":"19","num_nodes":"15","size_leaf_vector":"1"}},{"base_weights":[4.848437E-1,-1.9909222E0,5.945907E0,-4.002945E-1,-4.315832E0,6.556405E0,-8.262526E-2,2.2599343E-2,-3.0215975E-2,-8.118142E-2,1.1895153E-2,1.349512E-1,6.8174414E-2],"categories":[],"categories_nodes":[],"categories_segments":[],"categories_sizes":[],"default_left":[0,0,0,0,0,0,0,0,0,0,0,0,0],"id":14,"left_children":[1,3,5,7,9,11,-1,-1,-1,-1,-1,-1,-1],"loss_changes":[1.7965717E4,3.3797483E3,3.181707E3,2.3000261E3,3.910254E3,1.8856523E3,0E0,0E0,0E0,0E0,0E0,0E0,0E0],"parents":[2147483647,0,0,1,1,2,2,3,3,4,4,5,5],"right_children":[2,4,6,8,10,12,-1,-1,-1,-1,-1,-1,-1],"split_conditions":[8.48E1,8.48E-1,1.171E-1,-5E-1,8.24E1,1.4E0,-8.262526E-2,2.2599343E-2,-3.0215975E-2,-8.118142E-2,1.1895153E-2,1.349512E-1,6.8174414E-2],"split_indices":[12,0,3,5,12,2,0,0,0,0,0,0,0],"split_type":[0,0,0,0,0,0,0,0,0,0,0,0,0],"sum_hessian":[1.3266E3,9.133E2,4.133E2,5.431E2,3.702E2,3.944E2,1.89E1,2.579E2,2.852E2,2.676E2,1.026E2,9.26E1,3.018E2],"tree_param":{"num_deleted":"0","num_feature":"19","num_nodes":"13","size_leaf_vector":"1"}},{"base_weights":[-1.9372682E-1,-2.504495E0,2.3676112E0,-5.8363967E0,7.132448E-1,-1.7909422E0,3.4967613E0,-8.245728E-2,8.2844436E-2,-1.292157E-3,1.14642985E-1,-9.93572E-2,6.1196843E-3,-1.1934405E-2,6.783332E-2],"categories":[],"categories_nodes":[],"categories_segments":[],"categories_sizes":[],"default_left":[0,0,0,0,0,0,0,0,0,0,0,0,0,0,0],"id":15,"left_children":[1,3,5,7,9,11,13,-1,-1,-1,-1,-1,-1,-1,-1],"loss_changes":[7.87088E3,7.4997334E3,2.9691895E3,2.5132705E3,2.3851248E3,1.830495E3,3.9277798E3,0E0,0E0,0E0,0E0,0E0,0E0,0E0,0E0],"parents":[2147483647,0,0,1,1,2,2,3,3,4,4,5,5,6,6],"right_children":[2,4,6,8,10,12,14,-1,-1,-1,-1,-1,-1,-1,-1],"split_conditions":[8.0898E1,8.06E1,-4.44E-2,8.6E0,1E0,7.92E1,-3.2E0,-8.245728E-2,8.2844436E-2,-1.292157E-3,1.14642985E-1,-9.93572E-2,6.1196843E-3,-1.1934405E-2,6.783332E-2],"split_indices":[16,13,11,7,9,13,2,0,0,0,0,0,0,0,0],"split_type":[0,0,0,0,0,0,0,0,0,0,0,0,0,0,0],"sum_hessian":[1.3275E3,6.979E2,6.296E2,3.424E2,3.555E2,1.343E2,4.953E2,3.274E2,1.5E1,3.245E2,3.1E1,3.63E1,9.8E1,1.425E2,3.528E2],"tree_param":{"num_deleted":"0","num_feature":"19","num_nodes":"15","size_leaf_vector":"1"}},{"base_weights":[-4.5156717E-2,-2.4301827E0,3.0387592E0,-6.2566185E0,-6.7743134E-1,8.615984E-1,6.9234824E0,-8.892778E-2,7.968665E-2,-2.30079E-2,4.503024E-2,-9.77782E-3,5.381959E-2,2.0099658E-1,7.0914656E-2],"categories":[],"categories_nodes":[],"categories_segments":[],"categories_sizes":[],"default_left":[0,0,0,0,0,0,0,0,0,0,0,0,0,0,0],"id":16,"left_children":[1,3,5,7,9,11,13,-1,-1,-1,-1,-1,-1,-1,-1],"loss_changes":[9.848965E3,5.0591357E3,4.932043E3,2.0220908E3,2.4269595E3,2.0327622E3,2.4627705E3,0E0,0E0,0E0,0E0,0E0,0E0,0E0,0E0],"parents":[2147483647,0,0,1,1,2,2,3,3,4,4,5,5,6,6],"right_children":[2,4,6,8,10,12,14,-1,-1,-1,-1,-1,-1,-1,-1],"split_conditions":[8.24E1,7.9626E1,8.48E1,8.8E1,8.76E1,8.1709E1,-4.4E0,-8.892778E-2,7.968665E-2,-2.30079E-2,4.503024E-2,-9.77782E-3,5.381959E-2,2.0099658E-1,7.0914656E-2],"split_indices":[13,16,12,15,12,16,7,0,0,0,0,0,0,0,0],"split_type":[0,0,0,0,0,0,0,0,0,0,0,0,0,0,0],"sum_hessian":[1.3367E3,7.539E2,5.828E2,2.359E2,5.18E2,3.744E2,2.084E2,2.244E2,1.15E1,4.096E2,1.084E2,2.523E2,1.221E2,2.72E1,1.812E2],"tree_param":{"num_deleted":"0","num_feature":"19","num_nodes":"15","size_leaf_vector":"1"}},{"base_weights":[4.3443803E-2,-3.0558374E0,1.7210672E0,-5.1770234E0,2.267914E0,1.3534832E0,9.378301E0,4.4612832E-2,-7.612298E-2,-6.8798508E-3,1.5143828E-1,2.915825E-2,-1.99733E-2,5.831289E-2,2.5178954E-1],"categories":[],"categories_nodes":[],"categories_segments":[],"categories_sizes":[],"default_left":[0,0,0,0,0,0,0,0,0,0,0,0,0,0,0],"id":17,"left_children":[1,3,5,7,9,11,13,-1,-1,-1,-1,-1,-1,-1,-1],"loss_changes":[6.7475723E3,5.160593E3,2.3550217E3,2.1410977E3,3.4962305E3,2.150249E3,1.7942278E3,0E0,0E0,0E0,0E0,0E0,0E0,0E0,0E0],"parents":[2147483647,0,0,1,1,2,2,3,3,4,4,5,5,6,6],"right_children":[2,4,6,8,10,12,14,-1,-1,-1,-1,-1,-1,-1,-1],"split_conditions":[7.96E1,8.44E1,9.3E1,-8.08E-2,1.52E-2,2.5E-1,6.25E-1,4.4612832E-2,-7.612298E-2,-6.8798508E-3,1.5143828E-1,2.915825E-2,-1.99733E-2,5.831289E-2,2.5178954E-1],"split_indices":[14,12,14,6,4,11,10,0,0,0,0,0,0,0,0],"split_type":[0,0,0,0,0,0,0,0,0,0,0,0,0,0,0],"sum_hessian":[1.2954E3,4.546E2,8.408E2,3.251E2,1.295E2,8.036E2,3.72E1,2.56E1,2.995E2,1.009E2,2.86E1,6.112E2,1.924E2,2.64E1,1.08E1],"tree_param":{"num_deleted":"0","num_feature":"19","num_nodes":"15","size_leaf_vector":"1"}},{"base_weights":[-6.754381E-2,-1.6320146E0,3.6588728E0,-1.2593136E0,-1.3257115E1,6.8142843E-1,6.2993336E0,-8.9506924E-2,-6.890072E-3,-1.006809E-1,-2.0015767E-1,-8.147648E-2,3.6568955E-2,3.665442E-2,1.2192445E-1],"categories":[],"categories_nodes":[],"categories_segments":[],"categories_sizes":[],"default_left":[0,0,0,0,0,0,0,0,0,0,0,0,0,0,0],"id":18,"left_children":[1,3,5,7,9,11,13,-1,-1,-1,-1,-1,-1,-1,-1],"loss_changes":[7.9389307E3,4.1358174E3,3.1606978E3,3.8363823E3,2.3122461E2,2.9208835E3,2.3151787E3,0E0,0E0,0E0,0E0,0E0,0E0,0E0,0E0],"parents":[2147483647,0,0,1,1,2,2,3,3,4,4,5,5,6,6],"right_children":[2,4,6,8,10,12,14,-1,-1,-1,-1,-1,-1,-1,-1],"split_conditions":[8.52E1,5.84E0,8.18E1,7.3E1,-4.07E-2,-6.2E-1,-5E-3,-8.9506924E-2,-6.890072E-3,-1.006809E-1,-2.0015767E-1,-8.147648E-2,3.6568955E-2,3.665442E-2,1.2192445E-1],"split_indices":[12,5,13,12,3,5,4,0,0,0,0,0,0,0,0],"split_type":[0,0,0,0,0,0,0,0,0,0,0,0,0,0,0],"sum_hessian":[1.3594E3,9.579E2,4.015E2,9.294E2,2.85E1,1.894E2,2.121E2,1.033E2,8.261E2,1.01E1,1.84E1,4.41E1,1.453E2,1.031E2,1.09E2],"tree_param":{"num_deleted":"0","num_feature":"19","num_nodes":"15","size_leaf_vector":"1"}},{"base_weights":[1.5816796E-1,-2.4918997E0,3.2605124E0,-3.6684046E0,2.0948317E0,1.9711928E0,7.434128E0,-7.766916E-2,-1.882202E-2,-2.37757E-2,8.119118E-2,5.5716705E-2,-4.01127E-2,2.520079E-2,1.1891966E-1],"categories":[],"categories_nodes":[],"categories_segments":[],"categories_sizes":[],"default_left":[0,0,0,0,0,0,0,0,0,0,0,0,0,0,0],"id":19,"left_children":[1,3,5,7,9,11,13,-1,-1,-1,-1,-1,-1,-1,-1],"loss_changes":[1.0941283E4,3.8822993E3,3.2818608E3,2.9856475E3,2.470075E3,5.6830557E3,1.4196177E3,0E0,0E0,0E0,0E0,0E0,0E0,0E0,0E0],"parents":[2147483647,0,0,1,1,2,2,3,3,4,4,5,5,6,6],"right_children":[2,4,6,8,10,12,14,-1,-1,-1,-1,-1,-1,-1,-1],"split_conditions":[8.098E1,8.5E1,8.76E1,7.9605E1,1.053E-1,6.473E1,8.02E1,-7.766916E-2,-1.882202E-2,-2.37757E-2,8.119118E-2,5.5716705E-2,-4.01127E-2,2.520079E-2,1.1891966E-1],"split_indices":[16,12,12,16,11,1,15,0,0,0,0,0,0,0,0],"split_type":[0,0,0,0,0,0,0,0,0,0,0,0,0,0,0],"sum_hessian":[1.3285E3,7.166E2,6.119E2,5.705E2,1.461E2,4.688E2,1.431E2,2.733E2,2.972E2,7.59E1,7.02E1,3.202E2,1.486E2,3.64E1,1.067E2],"tree_param":{"num_deleted":"0","num_feature":"19","num_nodes":"15","size_leaf_vector":"1"}},{"base_weights":[3.9559126E-1,-2.5053139E0,3.0325952E0,-5.5608435E0,1.2667248E-1,1.8053517E0,9.368493E0,-1.0429817E-1,-2.6778765E-2,-1.0605411E-2,1.15487956E-1,9.047965E-2,1.5575561E-2,5.1367883E-2,1.6119249E-1],"categories":[],"categories_nodes":[],"categories_segments":[],"categories_sizes":[],"default_left":[0,0,0,0,0,0,0,0,0,0,0,0,0,0,0],"id":20,"left_children":[1,3,5,7,9,11,13,-1,-1,-1,-1,-1,-1,-1,-1],"loss_changes":[1.022024E4,5.1177783E3,5.4214053E3,2.6004111E3,2.9046304E3,1.8147253E3,1.8765186E3,0E0,0E0,0E0,0E0,0E0,0E0,0E0,0E0],"parents":[2147483647,0,0,1,1,2,2,3,3,4,4,5,5,6,6],"right_children":[2,4,6,8,10,12,14,-1,-1,-1,-1,-1,-1,-1,-1],"split_conditions":[8.14E1,8.02E1,8.7E1,8.22E1,9.02E1,-3.036E0,8E1,-1.0429817E-1,-2.6778765E-2,-1.0605411E-2,1.15487956E-1,9.047965E-2,1.5575561E-2,5.1367883E-2,1.6119249E-1],"split_indices":[14,12,13,13,15,5,12,0,0,0,0,0,0,0,0],"split_type":[0,0,0,0,0,0,0,0,0,0,0,0,0,0,0],"sum_hessian":[1.3337E3,6.351E2,6.986E2,2.933E2,3.418E2,5.865E2,1.121E2,1.68E2,1.253E2,3.096E2,3.22E1,5.83E1,5.282E2,4.27E1,6.94E1],"tree_param":{"num_deleted":"0","num_feature":"19","num_nodes":"15","size_leaf_vector":"1"}},{"base_weights":[2.8676757E-1,-2.270637E0,3.0820777E0,-5.158331E0,3.8767654E-1,2.2372167E0,9.880599E0,-9.041265E-2,-3.3612275E-3,-1.2113448E-2,9.046349E-2,1.120173E-2,7.455744E-2,3.1694037E-1,8.833783E-2],"categories":[],"categories_nodes":[],"categories_segments":[],"categories_sizes":[],"default_left":[0,0,0,0,0,0,0,0,0,0,0,0,0,0,0],"id":21,"left_children":[1,3,5,7,9,11,13,-1,-1,-1,-1,-1,-1,-1,-1],"loss_changes":[9.694513E3,5.4393E3,3.6953784E3,3.1260918E3,3.284134E3,2.808036E3,2.9677441E3,0E0,0E0,0E0,0E0,0E0,0E0,0E0,0E0],"parents":[2147483647,0,0,1,1,2,2,3,3,4,4,5,5,6,6],"right_children":[2,4,6,8,10,12,14,-1,-1,-1,-1,-1,-1,-1,-1],"split_conditions":[8.0882E1,8.04E1,1.1E1,2.2E0,2.2E0,8.2506E1,8.54E1,-9.041265E-2,-3.3612275E-3,-1.2113448E-2,9.046349E-2,1.120173E-2,7.455744E-2,3.1694037E-1,8.833783E-2],"split_indices":[16,13,2,7,2,16,12,0,0,0,0,0,0,0,0],"split_type":[0,0,0,0,0,0,0,0,0,0,0,0,0,0,0],"sum_hessian":[1.3538E3,7.071E2,6.467E2,3.384E2,3.687E2,5.766E2,7.01E1,2.441E2,9.43E1,3.081E2,6.06E1,4.181E2,1.585E2,1.04E1,5.97E1],"tree_param":{"num_deleted":"0","num_feature":"19","num_nodes":"15","size_leaf_vector":"1"}},{"base_weights":[-3.2339212E-1,-2.0246987E0,1.8728455E0,-3.0834136E0,4.6102076E0,1.2416002E0,1.2047294E1,-1.6975784E-1,-3.3688553E-2,1.02561414E-1,-7.157777E-2,6.0826093E-2,5.1305303E-3,6.939513E-2,1.9649838E-1],"categories":[],"categories_nodes":[],"categories_segments":[],"categories_sizes":[],"default_left":[0,0,0,0,0,0,0,0,0,0,0,0,0,0,0],"id":22,"left_children":[1,3,5,7,9,11,13,-1,-1,-1,-1,-1,-1,-1,-1],"loss_changes":[5.084433E3,5.402083E3,3.7979565E3,3.047309E3,3.694598E3,1.6477036E3,6.503247E2,0E0,0E0,0E0,0E0,0E0,0E0,0E0,0E0],"parents":[2147483647,0,0,1,1,2,2,3,3,4,4,5,5,6,6],"right_children":[2,4,6,8,10,12,14,-1,-1,-1,-1,-1,-1,-1,-1],"split_conditions":[8.24E1,1.14E1,6E0,-3E0,7.143E-1,-2.1627E2,5E-1,-1.6975784E-1,-3.3688553E-2,1.02561414E-1,-7.157777E-2,6.0826093E-2,5.1305303E-3,6.939513E-2,1.9649838E-1],"split_indices":[13,2,2,8,10,1,10,0,0,0,0,0,0,0,0],"split_type":[0,0,0,0,0,0,0,0,0,0,0,0,0,0,0],"sum_hessian":[1.3584E3,7.655E2,5.929E2,6.607E2,1.048E2,5.595E2,3.34E1,2.73E1,6.334E2,7.89E1,2.59E1,1.076E2,4.519E2,1.2E1,2.14E1],"tree_param":{"num_deleted":"0","num_feature":"19","num_nodes":"15","size_leaf_vector":"1"}},{"base_weights":[9.107089E-2,-2.7494245E0,3.0863705E0,-5.887974E0,-6.7101365E-1,1.4856615E0,7.7149963E0,-6.308732E-2,-1.8444122E-1,-7.2423406E-2,1.44465035E-2,-8.7720394E-2,2.4684707E-2,-3.2645535E-2,1.197373E-1],"categories":[],"categories_nodes":[],"categories_segments":[],"categories_sizes":[],"default_left":[0,0,0,0,0,0,0,0,0,0,0,0,0,0,0],"id":23,"left_children":[1,3,5,7,9,11,13,-1,-1,-1,-1,-1,-1,-1,-1],"loss_changes":[1.1438646E4,4.4968374E3,4.83487E3,2.189417E3,3.72308E3,1.784856E3,2.796377E3,0E0,0E0,0E0,0E0,0E0,0E0,0E0,0E0],"parents":[2147483647,0,0,1,1,2,2,3,3,4,4,5,5,6,6],"right_children":[2,4,6,8,10,12,14,-1,-1,-1,-1,-1,-1,-1,-1],"split_conditions":[8.0852E1,7.94E1,8.66E1,3E0,7.64E1,7.24E1,-3.15E-2,-6.308732E-2,-1.8444122E-1,-7.2423406E-2,1.44465035E-2,-8.7720394E-2,2.4684707E-2,-3.2645535E-2,1.197373E-1],"split_indices":[16,14,14,8,15,14,4,0,0,0,0,0,0,0,0],"split_type":[0,0,0,0,0,0,0,0,0,0,0,0,0,0,0],"sum_hessian":[1.3421E3,6.889E2,6.532E2,2.736E2,4.153E2,4.865E2,1.667E2,2.47E2,2.66E1,1.096E2,3.057E2,2.34E1,4.631E2,2.25E1,1.442E2],"tree_param":{"num_deleted":"0","num_feature":"19","num_nodes":"15","size_leaf_vector":"1"}},{"base_weights":[3.4238225E-1,-6.243795E-1,4.7414136E0,1.0292834E0,-2.9276788E0,2.696932E-1,7.104198E0,7.3226746E-3,2.799437E-1,-7.436776E-2,-2.2262583E-2,-4.30914E-2,1.3812354E-1,1.10081345E-1,1.2790497E-2],"categories":[],"categories_nodes":[],"categories_segments":[],"categories_sizes":[],"default_left":[0,0,0,0,0,0,0,0,0,0,0,0,0,0,0],"id":24,"left_children":[1,3,5,7,9,11,13,-1,-1,-1,-1,-1,-1,-1,-1],"loss_changes":[5.8416E3,4.294115E3,2.6124521E3,6.245835E3,1.5987917E3,3.3400208E3,1.4404634E3,0E0,0E0,0E0,0E0,0E0,0E0,0E0,0E0],"parents":[2147483647,0,0,1,1,2,2,3,3,4,4,5,5,6,6],"right_children":[2,4,6,8,10,12,14,-1,-1,-1,-1,-1,-1,-1,-1],"split_conditions":[8.76E1,2.547E1,6.43E-2,1.1E1,7.86E1,2.2506E2,3.816E0,7.3226746E-3,2.799437E-1,-7.436776E-2,-2.2262583E-2,-4.30914E-2,1.3812354E-1,1.10081345E-1,1.2790497E-2],"split_indices":[12,1,11,2,12,1,5,0,0,0,0,0,0,0,0],"split_type":[0,0,0,0,0,0,0,0,0,0,0,0,0,0,0],"sum_hessian":[1.3716E3,1.1253E3,2.463E2,6.554E2,4.699E2,8.56E1,1.607E2,6.424E2,1.3E1,1.37E2,3.329E2,6.42E1,2.14E1,1.292E2,3.15E1],"tree_param":{"num_deleted":"0","num_feature":"19","num_nodes":"15","size_leaf_vector":"1"}},{"base_weights":[-9.260474E-1,-3.1953826E0,1.5153899E0,-5.551553E0,-6.844276E-2,-1.3727275E0,3.0910373E0,-8.0478385E-2,1.0185488E-1,-5.715865E-2,1.5837697E-2,-3.4710124E-2,1.1764486E-1,4.5519877E-2,-1.5678866E-1],"categories":[],"categories_nodes":[],"categories_segments":[],"categories_sizes":[],"default_left":[0,0,0,0,0,0,0,0,0,0,0,0,0,0,0],"id":25,"left_children":[1,3,5,7,9,11,13,-1,-1,-1,-1,-1,-1,-1,-1],"loss_changes":[7.469577E3,5.1463394E3,2.9618423E3,3.896461E3,1.72533E3,3.2530078E3,2.9682031E3,0E0,0E0,0E0,0E0,0E0,0E0,0E0,0E0],"parents":[2147483647,0,0,1,1,2,2,3,3,4,4,5,5,6,6],"right_children":[2,4,6,8,10,12,14,-1,-1,-1,-1,-1,-1,-1,-1],"split_conditions":[8.18E1,8.28E1,8E1,9.1E1,-4.44E-2,1E0,5.84E0,-8.0478385E-2,1.0185488E-1,-5.715865E-2,1.5837697E-2,-3.4710124E-2,1.1764486E-1,4.5519877E-2,-1.5678866E-1],"split_indices":[13,14,14,12,11,9,5,0,0,0,0,0,0,0,0],"split_type":[0,0,0,0,0,0,0,0,0,0,0,0,0,0,0],"sum_hessian":[1.346E3,6.974E2,6.486E2,3.972E2,3.002E2,2.29E2,4.196E2,3.778E2,1.94E1,6.81E1,2.321E2,2.041E2,2.49E1,4.084E2,1.12E1],"tree_param":{"num_deleted":"0","num_feature":"19","num_nodes":"15","size_leaf_vector":"1"}},{"base_weights":[8.396365E-1,-2.2285548E-1,5.895677E0,6.336838E-3,-1.8436447E-1,-1.9889833E0,6.9780083E0,-3.0677533E-2,2.1717623E-2,-9.310052E-2,3.3881936E-2,5.1098834E-3,1.1107762E-1],"categories":[],"categories_nodes":[],"categories_segments":[],"categories_sizes":[],"default_left":[0,0,0,0,0,0,0,0,0,0,0,0,0],"id":26,"left_children":[1,3,5,7,-1,9,11,-1,-1,-1,-1,-1,-1],"loss_changes":[7.191802E3,3.5862034E3,2.0000923E3,4.405174E3,0E0,7.2745715E2,2.2460205E3,0E0,0E0,0E0,0E0,0E0,0E0],"parents":[2147483647,0,0,1,1,2,2,3,3,5,5,6,6],"right_children":[2,4,6,8,-1,10,12,-1,-1,-1,-1,-1,-1],"split_conditions":[8.227E1,8.22E1,-8.6E0,8.0146E1,-1.8436447E-1,1.053E-1,-2.92E-2,-3.0677533E-2,2.1717623E-2,-9.310052E-2,3.3881936E-2,5.1098834E-3,1.1107762E-1],"split_indices":[16,16,2,16,0,11,4,0,0,0,0,0,0],"split_type":[0,0,0,0,0,0,0,0,0,0,0,0,0],"sum_hessian":[1.3373E3,1.106E3,2.313E2,1.0895E3,1.65E1,2.78E1,2.035E2,4.497E2,6.398E2,1.27E1,1.51E1,4.15E1,1.62E2],"tree_param":{"num_deleted":"0","num_feature":"19","num_nodes":"13","size_leaf_vector":"1"}},{"base_weights":[1.0012202E-1,-2.8993793E0,3.3156161E0,-4.287977E0,2.450298E0,1.7859571E0,7.4376135E0,-3.760215E-2,-9.674869E-2,-3.5810336E-2,1.22639716E-1,-1.19659334E-1,3.0546548E-2,7.79938E-2,1.8677017E-1],"categories":[],"categories_nodes":[],"categories_segments":[],"categories_sizes":[],"default_left":[0,0,0,0,0,0,0,0,0,0,0,0,0,0,0],"id":27,"left_children":[1,3,5,7,9,11,13,-1,-1,-1,-1,-1,-1,-1,-1],"loss_changes":[1.3227332E4,5.283368E3,4.1577144E3,2.4626416E3,5.4964907E3,3.211438E3,1.6302002E3,0E0,0E0,0E0,0E0,0E0,0E0,0E0,0E0],"parents":[2147483647,0,0,1,1,2,2,3,3,4,4,5,5,6,6],"right_children":[2,4,6,8,10,12,14,-1,-1,-1,-1,-1,-1,-1,-1],"split_conditions":[8.0862E1,8.56E1,8.66E1,1.84E0,-6.9E-3,7.28E1,7.866E0,-3.760215E-2,-9.674869E-2,-3.5810336E-2,1.22639716E-1,-1.19659334E-1,3.0546548E-2,7.79938E-2,1.8677017E-1],"split_indices":[16,12,14,17,4,14,0,0,0,0,0,0,0,0,0],"split_type":[0,0,0,0,0,0,0,0,0,0,0,0,0,0,0],"sum_hessian":[1.3691E3,7.084E2,6.607E2,5.626E2,1.458E2,4.831E2,1.776E2,3.98E2,1.646E2,8.43E1,6.15E1,2.36E1,4.595E2,1.508E2,2.68E1],"tree_param":{"num_deleted":"0","num_feature":"19","num_nodes":"15","size_leaf_vector":"1"}},{"base_weights":[1.7611782E-1,-1.6408703E0,4.399007E0,6.9125503E-1,-3.1120896E0,-2.0241232E0,5.678938E0,-7.856133E-2,2.8113931E-2,-1.08534575E-1,-2.5564095E-2,-6.338318E-2,1.3285953E-1,-3.1066716E-2,8.933348E-2],"categories":[],"categories_nodes":[],"categories_segments":[],"categories_sizes":[],"default_left":[0,0,0,0,0,0,0,0,0,0,0,0,0,0,0],"id":28,"left_children":[1,3,5,7,9,11,13,-1,-1,-1,-1,-1,-1,-1,-1],"loss_changes":[1.0255425E4,3.2090898E3,3.3189297E3,3.7117617E3,3.4130054E3,2.4962344E3,3.4890996E3,0E0,0E0,0E0,0E0,0E0,0E0,0E0,0E0],"parents":[2147483647,0,0,1,1,2,2,3,3,4,4,5,5,6,6],"right_children":[2,4,6,8,10,12,14,-1,-1,-1,-1,-1,-1,-1,-1],"split_conditions":[8.48E1,-4.8E0,7.72E1,7.22E1,7.68E1,9E1,-3E0,-7.856133E-2,2.8113931E-2,-1.08534575E-1,-2.5564095E-2,-6.338318E-2,1.3285953E-1,-3.1066716E-2,8.933348E-2],"split_indices":[12,2,14,12,12,12,18,0,0,0,0,0,0,0,0],"split_type":[0,0,0,0,0,0,0,0,0,0,0,0,0,0,0],"sum_hessian":[1.3343E3,9.334E2,4.009E2,3.613E2,5.721E2,6.65E1,3.344E2,6.45E1,2.968E2,9.8E1,4.741E2,5.44E1,1.21E1,4.54E1,2.89E2],"tree_param":{"num_deleted":"0","num_feature":"19","num_nodes":"15","size_leaf_vector":"1"}},{"base_weights":[-1.7884314E-2,-4.297593E0,7.291437E-1,5.206521E0,-5.456795E0,2.644441E-1,5.5159817E0,-2.4546743E-3,1.2416664E-1,-8.8566616E-2,2.309499E-2,5.324181E-2,-4.3720054E-3,1.8271327E-1,4.2647604E-2],"categories":[],"categories_nodes":[],"categories_segments":[],"categories_sizes":[],"default_left":[0,0,0,0,0,0,0,0,0,0,0,0,0,0,0],"id":29,"left_children":[1,3,5,7,9,11,13,-1,-1,-1,-1,-1,-1,-1,-1],"loss_changes":[4.308414E3,2.2396482E3,2.55055E3,5.4084515E2,1.8842197E3,2.4596392E3,1.8850896E3,0E0,0E0,0E0,0E0,0E0,0E0,0E0,0E0],"parents":[2147483647,0,0,1,1,2,2,3,3,4,4,5,5,6,6],"right_children":[2,4,6,8,10,12,14,-1,-1,-1,-1,-1,-1,-1,-1],"split_conditions":[7.5E1,-2.7372E1,1.1E1,-1.24E1,3.8E0,-1.9657E2,9.164E0,-2.4546743E-3,1.2416664E-1,-8.8566616E-2,2.309499E-2,5.324181E-2,-4.3720054E-3,1.8271327E-1,4.2647604E-2],"split_indices":[15,0,2,2,7,1,0,0,0,0,0,0,0,0,0],"split_type":[0,0,0,0,0,0,0,0,0,0,0,0,0,0,0],"sum_hessian":[1.3453E3,1.991E2,1.1462E3,2.12E1,1.779E2,1.0459E3,1.003E2,1.01E1,1.11E1,1.485E2,2.94E1,1.401E2,9.058E2,1.89E1,8.14E1],"tree_param":{"num_deleted":"0","num_feature":"19","num_nodes":"15","size_leaf_vector":"1"}},{"base_weights":[1.1324408E-1,-2.140595E0,1.311444E0,-9.541153E0,-1.3020335E0,2.2050096E-1,6.1766458E0,-8.484335E-2,-1.8223827E-1,-3.1421855E-2,3.921776E-2,-1.2957495E-2,5.385849E-2,-3.0795723E-2,9.676594E-2],"categories":[],"categories_nodes":[],"categories_segments":[],"categories_sizes":[],"default_left":[0,0,0,0,0,0,0,0,0,0,0,0,0,0,0],"id":30,"left_children":[1,3,5,7,9,11,13,-1,-1,-1,-1,-1,-1,-1,-1],"loss_changes":[3.665688E3,2.909462E3,4.7018926E3,5.420669E2,2.1252795E3,3.5465012E3,1.9102642E3,0E0,0E0,0E0,0E0,0E0,0E0,0E0,0E0],"parents":[2147483647,0,0,1,1,2,2,3,3,4,4,5,5,6,6],"right_children":[2,4,6,8,10,12,14,-1,-1,-1,-1,-1,-1,-1,-1],"split_conditions":[7.92E1,7.3E1,4E0,7.7E1,1.14E1,8.84E1,-4E-3,-8.484335E-2,-1.8223827E-1,-3.1421855E-2,3.921776E-2,-1.2957495E-2,5.385849E-2,-3.0795723E-2,9.676594E-2],"split_indices":[13,15,2,13,2,13,6,0,0,0,0,0,0,0,0],"split_type":[0,0,0,0,0,0,0,0,0,0,0,0,0,0,0],"sum_hessian":[1.355E3,4.7E2,8.85E2,4.66E1,4.234E2,7.239E2,1.611E2,3.0300001E1,1.63E1,3.357E2,8.77E1,5.535E2,1.704E2,2.19E1,1.392E2],"tree_param":{"num_deleted":"0","num_feature":"19","num_nodes":"15","size_leaf_vector":"1"}},{"base_weights":[4.0973714E-1,-1.9606481E0,2.854515E0,-4.275069E0,4.84949E-1,2.0892444E0,1.1182446E1,-1.4270931E-1,-4.617585E-2,-4.6758853E-2,2.3089036E-2,5.9680967E-3,6.667633E-2,3.6432117E-2,2.1429223E-1],"categories":[],"categories_nodes":[],"categories_segments":[],"categories_sizes":[],"default_left":[0,0,0,0,0,0,0,0,0,0,0,0,0,0,0],"id":31,"left_children":[1,3,5,7,9,11,13,-1,-1,-1,-1,-1,-1,-1,-1],"loss_changes":[7.839563E3,3.8907727E3,4.216337E3,1.5939746E3,1.8224742E3,3.0778992E3,2.505849E3,0E0,0E0,0E0,0E0,0E0,0E0,0E0,0E0],"parents":[2147483647,0,0,1,1,2,2,3,3,4,4,5,5,6,6],"right_children":[2,4,6,8,10,12,14,-1,-1,-1,-1,-1,-1,-1,-1],"split_conditions":[8.0852E1,8.06E1,9.02E1,7.18E1,7.68E1,2.92E-2,-4.4E-1,-1.4270931E-1,-4.617585E-2,-4.6758853E-2,2.3089036E-2,5.9680967E-3,6.667633E-2,3.6432117E-2,2.1429223E-1],"split_indices":[16,13,14,15,14,3,17,0,0,0,0,0,0,0,0],"split_type":[0,0,0,0,0,0,0,0,0,0,0,0,0,0,0],"sum_hessian":[1.3505E3,6.858E2,6.647E2,3.519E2,3.339E2,6.101E2,5.46E1,3.02E1,3.217E2,8.01E1,2.538E2,4.013E2,2.088E2,2.24E1,3.22E1],"tree_param":{"num_deleted":"0","num_feature":"19","num_nodes":"15","size_leaf_vector":"1"}},{"base_weights":[1.7923543E-1,-1.4911381E0,2.2105706E0,4.732053E0,-1.989646E0,-1.8309481E-1,3.7188396E0,-6.576656E-2,1.0982053E-1,5.3242616E-2,-3.3993334E-2,4.6877388E-2,-4.6489023E-2,5.425916E-2,-1.6288707E-1],"categories":[],"categories_nodes":[],"categories_segments":[],"categories_sizes":[],"default_left":[0,0,0,0,0,0,0,0,0,0,0,0,0,0,0],"id":32,"left_children":[1,3,5,7,9,11,13,-1,-1,-1,-1,-1,-1,-1,-1],"loss_changes":[4.5786553E3,2.3084907E3,2.1989944E3,2.1307886E3,2.7804836E3,3.1304307E3,3.1623042E3,0E0,0E0,0E0,0E0,0E0,0E0,0E0,0E0],"parents":[2147483647,0,0,1,1,2,2,3,3,4,4,5,5,6,6],"right_children":[2,4,6,8,10,12,14,-1,-1,-1,-1,-1,-1,-1,-1],"split_conditions":[8.26E1,1.25E-1,-9.204E0,-3E0,-6.58E-2,-4E0,5E0,-6.576656E-2,1.0982053E-1,5.3242616E-2,-3.3993334E-2,4.6877388E-2,-4.6489023E-2,5.425916E-2,-1.6288707E-1],"split_indices":[14,10,0,18,3,18,8,0,0,0,0,0,0,0,0],"split_type":[0,0,0,0,0,0,0,0,0,0,0,0,0,0,0],"sum_hessian":[1.3471E3,7.394E2,6.077E2,5.41E1,6.853E2,2.353E2,3.724E2,1.5E1,3.91E1,6.57E1,6.196E2,1.112E2,1.241E2,3.621E2,1.03E1],"tree_param":{"num_deleted":"0","num_feature":"19","num_nodes":"15","size_leaf_vector":"1"}},{"base_weights":[-7.906443E-2,-1.4179794E0,3.184989E0,7.177502E-2,-3.7751617E0,7.77952E0,1.8809907E0,-7.298719E-2,1.2609634E-2,-8.672934E-3,-7.414613E-2,-6.603832E-2,1.2346204E-1,-1.2659019E-1,3.3744324E-2],"categories":[],"categories_nodes":[],"categories_segments":[],"categories_sizes":[],"default_left":[0,0,0,0,0,0,0,0,0,0,0,0,0,0,0],"id":33,"left_children":[1,3,5,7,9,11,13,-1,-1,-1,-1,-1,-1,-1,-1],"loss_changes":[5.8814434E3,3.3513533E3,2.3282776E3,3.0747183E3,2.2843857E3,2.0992837E3,2.7152812E3,0E0,0E0,0E0,0E0,0E0,0E0,0E0,0E0],"parents":[2147483647,0,0,1,1,2,2,3,3,4,4,5,5,6,6],"right_children":[2,4,6,8,10,12,14,-1,-1,-1,-1,-1,-1,-1,-1],"split_conditions":[8.52E1,9.84E-1,-2.8E0,7.4E1,1.43E-2,-4.44E-2,-4E0,-7.298719E-2,1.2609634E-2,-8.672934E-3,-7.414613E-2,-6.603832E-2,1.2346204E-1,-1.2659019E-1,3.3744324E-2],"split_indices":[12,0,7,15,11,11,18,0,0,0,0,0,0,0,0],"split_type":[0,0,0,0,0,0,0,0,0,0,0,0,0,0,0],"sum_hessian":[1.3434E3,9.531E2,3.903E2,5.847E2,3.684E2,8.5E1,3.053E2,7.9E1,5.057E2,1.45E2,2.234E2,1.03E1,7.47E1,1.74E1,2.879E2],"tree_param":{"num_deleted":"0","num_feature":"19","num_nodes":"15","size_leaf_vector":"1"}},{"base_weights":[4.8391674E-2,-1.8456998E0,3.993874E0,-4.753448E0,1.233068E-2,3.003139E0,1.4425433E1,-8.173411E-2,2.5797224E-2,1.4753593E-2,-6.990604E-2,-1.526874E-2,5.7151835E-2,2.9413965E-2,2.4220431E-1],"categories":[],"categories_nodes":[],"categories_segments":[],"categories_sizes":[],"default_left":[0,0,0,0,0,0,0,0,0,0,0,0,0,0,0],"id":34,"left_children":[1,3,5,7,9,11,13,-1,-1,-1,-1,-1,-1,-1,-1],"loss_changes":[9.848982E3,4.8109966E3,4.3671816E3,3.7958179E3,3.382774E3,2.3828962E3,1.9275498E3,0E0,0E0,0E0,0E0,0E0,0E0,0E0,0E0],"parents":[2147483647,0,0,1,1,2,2,3,3,4,4,5,5,6,6],"right_children":[2,4,6,8,10,12,14,-1,-1,-1,-1,-1,-1,-1,-1],"split_conditions":[8.144E1,7.94E1,9.08E1,4.88E-2,2.789E-1,-2E0,-9.6E-1,-8.173411E-2,2.5797224E-2,1.4753593E-2,-6.990604E-2,-1.526874E-2,5.7151835E-2,2.9413965E-2,2.4220431E-1],"split_indices":[16,14,14,3,11,18,17,0,0,0,0,0,0,0,0],"split_type":[0,0,0,0,0,0,0,0,0,0,0,0,0,0,0],"sum_hessian":[1.3156E3,8.893E2,4.263E2,3.46E2,5.433E2,3.907E2,3.56E1,2.795E2,6.65E1,4.504E2,9.29E1,1.003E2,2.904E2,1E1,2.56E1],"tree_param":{"num_deleted":"0","num_feature":"19","num_nodes":"15","size_leaf_vector":"1"}},{"base_weights":[-2.754745E-1,-2.0818186E0,3.7885435E0,-3.270318E0,6.0143596E-1,4.309329E0,-1.1836656E-1,-3.776921E-2,-1.7286149E-1,1.6228513E-1,-1.2879214E-3,4.7589686E-2,1.6233785E-1],"categories":[],"categories_nodes":[],"categories_segments":[],"categories_sizes":[],"default_left":[0,0,0,0,0,0,0,0,0,0,0,0,0],"id":35,"left_children":[1,3,5,7,9,11,-1,-1,-1,-1,-1,-1,-1],"loss_changes":[9.911301E3,2.9826877E3,2.8603174E3,2.1289917E3,2.4324685E3,1.958915E3,0E0,0E0,0E0,0E0,0E0,0E0,0E0],"parents":[2147483647,0,0,1,1,2,2,3,3,4,4,5,5],"right_children":[2,4,6,8,10,12,-1,-1,-1,-1,-1,-1,-1],"split_conditions":[8.48E1,8.42E1,1.171E-1,6.016E0,-2.9952E1,3.52E-2,-1.1836656E-1,-3.776921E-2,-1.7286149E-1,1.6228513E-1,-1.2879214E-3,4.7589686E-2,1.6233785E-1],"split_indices":[12,13,3,5,0,4,0,0,0,0,0,0,0],"split_type":[0,0,0,0,0,0,0,0,0,0,0,0,0],"sum_hessian":[1.3477E3,9.334E2,4.143E2,6.467E2,2.867E2,3.991E2,1.52E1,6.279E2,1.88E1,1.47E1,2.72E2,3.737E2,2.54E1],"tree_param":{"num_deleted":"0","num_feature":"19","num_nodes":"13","size_leaf_vector":"1"}},{"base_weights":[3.8991722E-1,-7.102954E-1,6.6789017E0,-3.6506393E0,8.7134206E-1,5.1757717E0,2.5327396E-1,-7.6868735E-2,-1.3056258E-2,-8.7773865E-3,3.8646773E-2,8.9716226E-2,-6.536282E-3],"categories":[],"categories_nodes":[],"categories_segments":[],"categories_sizes":[],"default_left":[0,0,0,0,0,0,0,0,0,0,0,0,0],"id":36,"left_children":[1,3,5,7,9,11,-1,-1,-1,-1,-1,-1,-1],"loss_changes":[9.571856E3,5.4810083E3,3.9182373E3,2.5274082E3,2.5509468E3,1.9204409E3,0E0,0E0,0E0,0E0,0E0,0E0,0E0],"parents":[2147483647,0,0,1,1,2,2,3,3,4,4,5,5],"right_children":[2,4,6,8,10,12,-1,-1,-1,-1,-1,-1,-1],"split_conditions":[8.2506E1,7.94E1,9.12E1,8.0348E1,4E-1,8.3862E1,2.5327396E-1,-7.6868735E-2,-1.3056258E-2,-8.7773865E-3,3.8646773E-2,8.9716226E-2,-6.536282E-3],"split_indices":[16,14,14,16,7,16,0,0,0,0,0,0,0],"split_type":[0,0,0,0,0,0,0,0,0,0,0,0,0],"sum_hessian":[1.3814E3,1.1766E3,2.048E2,4.11E2,7.656E2,1.851E2,1.97E1,2.171E2,1.939E2,4.437E2,3.219E2,1.402E2,4.49E1],"tree_param":{"num_deleted":"0","num_feature":"19","num_nodes":"13","size_leaf_vector":"1"}},{"base_weights":[-1.6726783E-1,-1.037542E0,7.079296E0,-3.0664167E0,1.3953538E0,4.167352E0,1.4727188E1,-7.047237E-2,1.1635674E-2,8.952919E-3,1.543687E-1,2.4448916E-2,1.3024779E-1,8.941869E-2,2.2388E-1],"categories":[],"categories_nodes":[],"categories_segments":[],"categories_sizes":[],"default_left":[0,0,0,0,0,0,0,0,0,0,0,0,0,0,0],"id":37,"left_children":[1,3,5,7,9,11,13,-1,-1,-1,-1,-1,-1,-1,-1],"loss_changes":[8.538569E3,5.970555E3,3.161167E3,6.3463E3,4.073061E3,1.4213058E3,6.8900195E2,0E0,0E0,0E0,0E0,0E0,0E0,0E0,0E0],"parents":[2147483647,0,0,1,1,2,2,3,3,4,4,5,5,6,6],"right_children":[2,4,6,8,10,12,14,-1,-1,-1,-1,-1,-1,-1,-1],"split_conditions":[8.96E1,8.0862E1,2.2506E2,8.24E1,9.12E1,9.36E1,7.74E1,-7.047237E-2,1.1635674E-2,8.952919E-3,1.543687E-1,2.4448916E-2,1.3024779E-1,8.941869E-2,2.2388E-1],"split_indices":[12,16,1,13,14,12,14,0,0,0,0,0,0,0,0],"split_type":[0,0,0,0,0,0,0,0,0,0,0,0,0,0,0],"sum_hessian":[1.3514E3,1.2074E3,1.44E2,6.582E2,5.492E2,1.056E2,3.84E1,4.087E2,2.495E2,5.165E2,3.27E1,7.77E1,2.79E1,1.1E1,2.74E1],"tree_param":{"num_deleted":"0","num_feature":"19","num_nodes":"15","size_leaf_vector":"1"}},{"base_weights":[-1.8894604E-1,-9.095379E-1,5.555116E0,-1.3333834E0,9.276122E0,-1.6365538E0,7.701082E0,-5.1020294E-2,-1.5608114E-3,2.2995599E-1,-1.4942419E-2,-1.263219E-1,2.8958725E-2,3.0083263E-2,1.1721168E-1],"categories":[],"categories_nodes":[],"categories_segments":[],"categories_sizes":[],"default_left":[0,0,0,0,0,0,0,0,0,0,0,0,0,0,0],"id":38,"left_children":[1,3,5,7,9,11,13,-1,-1,-1,-1,-1,-1,-1,-1],"loss_changes":[5.5426924E3,5.1500146E3,2.318438E3,3.6552896E3,4.31847E3,1.1512489E3,8.5460547E2,0E0,0E0,0E0,0E0,0E0,0E0,0E0,0E0],"parents":[2147483647,0,0,1,1,2,2,3,3,4,4,5,5,6,6],"right_children":[2,4,6,8,10,12,14,-1,-1,-1,-1,-1,-1,-1,-1],"split_conditions":[8.98E1,9.24E1,-1E0,7.86E1,1.876E0,-1.8E0,-4.1E-2,-5.1020294E-2,-1.5608114E-3,2.2995599E-1,-1.4942419E-2,-1.263219E-1,2.8958725E-2,3.0083263E-2,1.1721168E-1],"split_indices":[12,14,18,14,5,17,4,0,0,0,0,0,0,0,0],"split_type":[0,0,0,0,0,0,0,0,0,0,0,0,0,0,0],"sum_hessian":[1.3365E3,1.1884E3,1.481E2,1.1419E3,4.65E1,3.41E1,1.14E2,3.585E2,7.834E2,2.5E1,2.15E1,1.04E1,2.37E1,2.46E1,8.94E1],"tree_param":{"num_deleted":"0","num_feature":"19","num_nodes":"15","size_leaf_vector":"1"}},{"base_weights":[-2.9077423E-1,-1.559271E0,2.529866E0,-1.1122732E1,-1.0997832E0,1.1123139E1,1.5767344E0,-2.2138089E-1,-2.6406823E-2,-8.201381E-3,-8.458547E-2,7.698485E-2,3.037862E-1,-5.4772533E-2,3.59488E-2],"categories":[],"categories_nodes":[],"categories_segments":[],"categories_sizes":[],"default_left":[0,0,0,0,0,0,0,0,0,0,0,0,0,0,0],"id":39,"left_children":[1,3,5,7,9,11,13,-1,-1,-1,-1,-1,-1,-1,-1],"loss_changes":[4.662312E3,3.9347073E3,3.2906616E3,2.2353374E3,2.1680068E3,2.415727E3,2.6220063E3,0E0,0E0,0E0,0E0,0E0,0E0,0E0,0E0],"parents":[2147483647,0,0,1,1,2,2,3,3,4,4,5,5,6,6],"right_children":[2,4,6,8,10,12,14,-1,-1,-1,-1,-1,-1,-1,-1],"split_conditions":[8.48E1,7.16E1,-1.7566E2,9.5E-3,1.4368E1,-5.744E0,-2E0,-2.2138089E-1,-2.6406823E-2,-8.201381E-3,-8.458547E-2,7.698485E-2,3.037862E-1,-5.4772533E-2,3.59488E-2],"split_indices":[12,15,1,4,0,0,18,0,0,0,0,0,0,0,0],"split_type":[0,0,0,0,0,0,0,0,0,0,0,0,0,0,0],"sum_hessian":[1.3006E3,8.975E2,4.031E2,3.99E1,8.576E2,3.9E1,3.641E2,2.32E1,1.67E1,7.923E2,6.53E1,2.89E1,1.01E1,6.25E1,3.016E2],"tree_param":{"num_deleted":"0","num_feature":"19","num_nodes":"15","size_leaf_vector":"1"}},{"base_weights":[1.1738068E-1,-2.0954723E0,3.382792E0,3.6414668E-1,-3.9460669E0,6.6453023E0,1.2298841E0,-5.899108E-2,2.0363133E-2,-1.0802E-1,-3.186238E-2,-6.133161E-2,9.379192E-2,6.43606E-3,2.0015652E-1],"categories":[],"categories_nodes":[],"categories_segments":[],"categories_sizes":[],"default_left":[0,0,0,0,0,0,0,0,0,0,0,0,0,0,0],"id":40,"left_children":[1,3,5,7,9,11,13,-1,-1,-1,-1,-1,-1,-1,-1],"loss_changes":[9.734824E3,3.6570615E3,3.8126235E3,2.1026548E3,2.974017E3,1.6633438E3,3.435395E3,0E0,0E0,0E0,0E0,0E0,0E0,0E0,0E0],"parents":[2147483647,0,0,1,1,2,2,3,3,4,4,5,5,6,6],"right_children":[2,4,6,8,10,12,14,-1,-1,-1,-1,-1,-1,-1,-1],"split_conditions":[8.34E1,-5E0,1.273E1,7.24E1,7.7E1,-6.8E0,9E0,-5.899108E-2,2.0363133E-2,-1.0802E-1,-3.186238E-2,-6.133161E-2,9.379192E-2,6.43606E-3,2.0015652E-1],"split_indices":[12,2,1,12,12,7,7,0,0,0,0,0,0,0,0],"split_type":[0,0,0,0,0,0,0,0,0,0,0,0,0,0,0],"sum_hessian":[1.3449E3,8.019E2,5.43E2,3.447E2,4.572E2,2.149E2,3.281E2,6.75E1,2.772E2,1.116E2,3.456E2,1.13E1,2.036E2,3.134E2,1.47E1],"tree_param":{"num_deleted":"0","num_feature":"19","num_nodes":"15","size_leaf_vector":"1"}},{"base_weights":[2.3222952E-1,-2.4538789E0,3.1142046E0,-3.6334326E0,1.930265E0,7.3098093E-1,4.9415636E0,-1.3032214E-2,-6.452755E-2,6.383628E-2,-4.9967427E-2,-3.0334075E-3,1.06315166E-1,3.067032E-1,5.1866345E-2],"categories":[],"categories_nodes":[],"categories_segments":[],"categories_sizes":[],"default_left":[0,0,0,0,0,0,0,0,0,0,0,0,0,0,0],"id":41,"left_children":[1,3,5,7,9,11,13,-1,-1,-1,-1,-1,-1,-1,-1],"loss_changes":[1.0475715E4,3.6305679E3,2.8385884E3,2.0058433E3,2.6641328E3,2.0801353E3,6.203416E3,0E0,0E0,0E0,0E0,0E0,0E0,0E0,0E0],"parents":[2147483647,0,0,1,1,2,2,3,3,4,4,5,5,6,6],"right_children":[2,4,6,8,10,12,14,-1,-1,-1,-1,-1,-1,-1,-1],"split_conditions":[8.0852E1,8.52E1,0E0,-5.4E0,1.02E1,8.78E1,-2.2608E2,-1.3032214E-2,-6.452755E-2,6.383628E-2,-4.9967427E-2,-3.0334075E-3,1.06315166E-1,3.067032E-1,5.1866345E-2],"split_indices":[16,12,18,2,2,15,1,0,0,0,0,0,0,0,0],"split_type":[0,0,0,0,0,0,0,0,0,0,0,0,0,0,0],"sum_hessian":[1.3509E3,6.993E2,6.516E2,5.512E2,1.481E2,2.835E2,3.681E2,1.919E2,3.593E2,9.74E1,5.07E1,2.523E2,3.12E1,1.54E1,3.527E2],"tree_param":{"num_deleted":"0","num_feature":"19","num_nodes":"15","size_leaf_vector":"1"}},{"base_weights":[1.3834271E-1,-2.5037627E0,2.6606803E0,-5.0588207E0,-7.9882845E-2,1.4317336E0,6.170597E0,-1.0832405E-1,-4.4178553E-2,-2.487798E-2,8.0231264E-2,6.2556215E-2,5.522076E-3,-3.6487048E-3,1.05657496E-1],"categories":[],"categories_nodes":[],"categories_segments":[],"categories_sizes":[],"default_left":[0,0,0,0,0,0,0,0,0,0,0,0,0,0,0],"id":42,"left_children":[1,3,5,7,9,11,13,-1,-1,-1,-1,-1,-1,-1,-1],"loss_changes":[8.696483E3,3.9468555E3,2.8692275E3,1.6616553E3,3.8713276E3,1.7062234E3,2.2956523E3,0E0,0E0,0E0,0E0,0E0,0E0,0E0,0E0],"parents":[2147483647,0,0,1,1,2,2,3,3,4,4,5,5,6,6],"right_children":[2,4,6,8,10,12,14,-1,-1,-1,-1,-1,-1,-1,-1],"split_conditions":[8.0732E1,8.04E1,2.012E0,-1E0,8.56E1,-3.036E0,-8E-1,-1.0832405E-1,-4.4178553E-2,-2.487798E-2,8.0231264E-2,6.2556215E-2,5.522076E-3,-3.6487048E-3,1.05657496E-1],"split_indices":[16,13,5,18,12,5,2,0,0,0,0,0,0,0,0],"split_type":[0,0,0,0,0,0,0,0,0,0,0,0,0,0,0],"sum_hessian":[1.3026E3,6.362E2,6.664E2,3.091E2,3.271E2,4.948E2,1.716E2,9.86E1,2.105E2,2.535E2,7.36E1,1.106E2,3.842E2,4.17E1,1.299E2],"tree_param":{"num_deleted":"0","num_feature":"19","num_nodes":"15","size_leaf_vector":"1"}},{"base_weights":[4.172405E-1,-1.3021303E0,3.7006342E0,-2.509773E0,2.2877657E0,9.5372665E-1,9.23751E0,-7.063065E-2,-1.05591E-2,4.7733862E-2,-9.313739E-2,-5.0163484E-4,1.32977E-1,5.8578603E-2,1.5907069E-1],"categories":[],"categories_nodes":[],"categories_segments":[],"categories_sizes":[],"default_left":[0,0,0,0,0,0,0,0,0,0,0,0,0,0,0],"id":43,"left_children":[1,3,5,7,9,11,13,-1,-1,-1,-1,-1,-1,-1,-1],"loss_changes":[7.446067E3,3.760533E3,6.8836025E3,3.2665166E3,3.0108657E3,2.8400127E3,2.144671E3,0E0,0E0,0E0,0E0,0E0,0E0,0E0,0E0],"parents":[2147483647,0,0,1,1,2,2,3,3,4,4,5,5,6,6],"right_children":[2,4,6,8,10,12,14,-1,-1,-1,-1,-1,-1,-1,-1],"split_conditions":[8.1476E1,8.52E1,1.088E0,7.9E1,7.74E-2,8.98E1,-1E0,-7.063065E-2,-1.05591E-2,4.7733862E-2,-9.313739E-2,-5.0163484E-4,1.32977E-1,5.8578603E-2,1.5907069E-1],"split_indices":[16,12,5,14,6,14,18,0,0,0,0,0,0,0,0],"split_type":[0,0,0,0,0,0,0,0,0,0,0,0,0,0,0],"sum_hessian":[1.3168E3,8.647E2,4.521E2,6.473E2,2.174E2,3.031E2,1.49E2,2.326E2,4.147E2,1.897E2,2.77E1,2.752E2,2.79E1,6.11E1,8.79E1],"tree_param":{"num_deleted":"0","num_feature":"19","num_nodes":"15","size_leaf_vector":"1"}},{"base_weights":[-3.050799E-1,-3.692369E0,7.963501E-1,-6.3560996E0,-2.723766E-2,1.2711751E1,5.1684725E-1,-1.07309125E-1,-7.3401458E-3,-1.247207E-1,1.8368615E-2,8.455485E-2,2.2704081E-1,-7.290259E-2,1.174872E-2],"categories":[],"categories_nodes":[],"categories_segments":[],"categories_sizes":[],"default_left":[0,0,0,0,0,0,0,0,0,0,0,0,0,0,0],"id":44,"left_children":[1,3,5,7,9,11,13,-1,-1,-1,-1,-1,-1,-1,-1],"loss_changes":[5.0720767E3,3.2564136E3,3.4098564E3,2.2283315E3,2.014315E3,5.781006E2,2.4800737E3,0E0,0E0,0E0,0E0,0E0,0E0,0E0,0E0],"parents":[2147483647,0,0,1,1,2,2,3,3,4,4,5,5,6,6],"right_children":[2,4,6,8,10,12,14,-1,-1,-1,-1,-1,-1,-1,-1],"split_conditions":[7.953E1,8.04E1,-2.9952E1,8E0,-1.3E1,-9.03E-2,-7E0,-1.07309125E-1,-7.3401458E-3,-1.247207E-1,1.8368615E-2,8.455485E-2,2.2704081E-1,-7.290259E-2,1.174872E-2],"split_indices":[16,13,0,2,2,6,7,0,0,0,0,0,0,0,0],"split_type":[0,0,0,0,0,0,0,0,0,0,0,0,0,0,0],"sum_hessian":[1.3574E3,3.324E2,1.025E3,1.92E2,1.404E2,2.23E1,1.0027E3,1.423E2,4.97E1,1.75E1,1.229E2,1.12E1,1.11E1,5.96E1,9.431E2],"tree_param":{"num_deleted":"0","num_feature":"19","num_nodes":"15","size_leaf_vector":"1"}},{"base_weights":[2.4353042E-2,-7.446092E-1,5.5353994E0,-2.852725E0,1.4290982E0,-9.568886E-2,6.772787E0,-5.3645406E-2,-4.9316618E-3,8.58044E-2,-7.362156E-3,1.5918486E-1,5.905652E-2],"categories":[],"categories_nodes":[],"categories_segments":[],"categories_sizes":[],"default_left":[0,0,0,0,0,0,0,0,0,0,0,0,0],"id":45,"left_children":[1,3,5,7,9,-1,11,-1,-1,-1,-1,-1,-1],"loss_changes":[5.733758E3,5.445805E3,2.7211177E3,1.9699639E3,6.160138E3,0E0,1.789853E3,0E0,0E0,0E0,0E0,0E0,0E0],"parents":[2147483647,0,0,1,1,2,2,3,3,4,4,6,6],"right_children":[2,4,6,8,10,-1,12,-1,-1,-1,-1,-1,-1],"split_conditions":[8.96E1,8.16E1,-3E0,2E0,-9.76E-1,-9.568886E-2,9.06E1,-5.3645406E-2,-4.9316618E-3,8.58044E-2,-7.362156E-3,1.5918486E-1,5.905652E-2],"split_indices":[12,14,18,7,5,0,12,0,0,0,0,0,0],"split_type":[0,0,0,0,0,0,0,0,0,0,0,0,0],"sum_hessian":[1.3507E3,1.1862E3,1.645E2,6.02E2,5.842E2,1.38E1,1.507E2,3.913E2,2.107E2,1.605E2,4.237E2,4.05E1,1.102E2],"tree_param":{"num_deleted":"0","num_feature":"19","num_nodes":"13","size_leaf_vector":"1"}},{"base_weights":[2.1866442E-1,-1.3109509E0,3.2957819E0,-5.559246E0,-4.388971E-1,1.8516065E-1,5.8557267E0,-8.7068655E-2,5.4180797E-2,-2.0126097E-2,4.1410573E-2,-1.9465612E-2,1.383272E-1,2.545592E-2,1.1747198E-1],"categories":[],"categories_nodes":[],"categories_segments":[],"categories_sizes":[],"default_left":[0,0,0,0,0,0,0,0,0,0,0,0,0,0,0],"id":46,"left_children":[1,3,5,7,9,11,13,-1,-1,-1,-1,-1,-1,-1,-1],"loss_changes":[6.1378813E3,3.2246042E3,3.446478E3,1.8023008E3,2.9982632E3,3.559811E3,3.0060034E3,0E0,0E0,0E0,0E0,0E0,0E0,0E0,0E0],"parents":[2147483647,0,0,1,1,2,2,3,3,4,4,5,5,6,6],"right_children":[2,4,6,8,10,12,14,-1,-1,-1,-1,-1,-1,-1,-1],"split_conditions":[8.1476E1,7.52E1,-4.68E-1,8E0,8.56E1,9.06E1,8.36E1,-8.7068655E-2,5.4180797E-2,-2.0126097E-2,4.1410573E-2,-1.9465612E-2,1.383272E-1,2.545592E-2,1.1747198E-1],"split_indices":[16,13,5,18,12,15,12,0,0,0,0,0,0,0,0],"split_type":[0,0,0,0,0,0,0,0,0,0,0,0,0,0,0],"sum_hessian":[1.3018E3,8.7E2,4.318E2,1.471E2,7.229E2,1.955E2,2.363E2,1.311E2,1.6E1,5.532E2,1.697E2,1.693E2,2.62E1,1.094E2,1.269E2],"tree_param":{"num_deleted":"0","num_feature":"19","num_nodes":"15","size_leaf_vector":"1"}},{"base_weights":[7.140706E-2,-3.1152403E0,1.7053427E0,-5.2223325E0,-1.6486114E-1,1.6573082E-1,4.45154E0,-8.486067E-2,-7.3884707E-3,-1.1970157E-2,1.4320421E-1,9.815348E-3,-8.932475E-2,-5.9958346E-2,7.092728E-2],"categories":[],"categories_nodes":[],"categories_segments":[],"categories_sizes":[],"default_left":[0,0,0,0,0,0,0,0,0,0,0,0,0,0,0],"id":47,"left_children":[1,3,5,7,9,11,13,-1,-1,-1,-1,-1,-1,-1,-1],"loss_changes":[7.1440273E3,2.8902012E3,3.8338755E3,1.7415991E3,1.7045764E3,2.4881848E3,3.212123E3,0E0,0E0,0E0,0E0,0E0,0E0,0E0,0E0],"parents":[2147483647,0,0,1,1,2,2,3,3,4,4,5,5,6,6],"right_children":[2,4,6,8,10,12,14,-1,-1,-1,-1,-1,-1,-1,-1],"split_conditions":[8.0146E1,8.1E1,8.52E1,9.2E0,5.99E-2,4.72E0,7.5E1,-8.486067E-2,-7.3884707E-3,-1.1970157E-2,1.4320421E-1,9.815348E-3,-8.932475E-2,-5.9958346E-2,7.092728E-2],"split_indices":[16,13,12,2,3,17,15,0,0,0,0,0,0,0,0],"split_type":[0,0,0,0,0,0,0,0,0,0,0,0,0,0,0],"sum_hessian":[1.3697E3,4.639E2,9.058E2,2.701E2,1.938E2,5.812E2,3.246E2,2.077E2,6.24E1,1.825E2,1.13E1,5.371E2,4.41E1,3.37E1,2.909E2],"tree_param":{"num_deleted":"0","num_feature":"19","num_nodes":"15","size_leaf_vector":"1"}},{"base_weights":[-2.8468685E-2,-2.0615613E0,2.102004E0,-4.660869E0,3.927233E-1,8.5975355E-1,7.2598147E0,-1.08519435E-1,-2.7684249E-2,-3.4016313E-3,1.1316449E-1,-2.401614E-2,3.5149027E-2,-2.5424385E-2,1.2499088E-1],"categories":[],"categories_nodes":[],"categories_segments":[],"categories_sizes":[],"default_left":[0,0,0,0,0,0,0,0,0,0,0,0,0,0,0],"id":48,"left_children":[1,3,5,7,9,11,13,-1,-1,-1,-1,-1,-1,-1,-1],"loss_changes":[5.873618E3,4.4286445E3,4.235413E3,3.1780977E3,1.9843942E3,2.7470088E3,2.9547466E3,0E0,0E0,0E0,0E0,0E0,0E0,0E0,0E0],"parents":[2147483647,0,0,1,1,2,2,3,3,4,4,5,5,6,6],"right_children":[2,4,6,8,10,12,14,-1,-1,-1,-1,-1,-1,-1,-1],"split_conditions":[8.0862E1,8.04E1,8.78E1,7.96E1,3.22E-2,-1.06E-2,-2.74E-2,-1.08519435E-1,-2.7684249E-2,-3.4016313E-3,1.1316449E-1,-2.401614E-2,3.5149027E-2,-2.5424385E-2,1.2499088E-1],"split_indices":[16,13,14,14,6,6,4,0,0,0,0,0,0,0,0],"split_type":[0,0,0,0,0,0,0,0,0,0,0,0,0,0,0],"sum_hessian":[1.3537E3,6.927E2,6.61E2,3.359E2,3.568E2,5.338E2,1.272E2,1.326E2,2.033E2,3.32E2,2.48E1,2.175E2,3.163E2,2.69E1,1.003E2],"tree_param":{"num_deleted":"0","num_feature":"19","num_nodes":"15","size_leaf_vector":"1"}},{"base_weights":[6.648827E-2,-1.1574012E0,2.9509165E0,1.6719992E-1,-3.595715E0,2.0170546E0,1.229397E1,-1.6929722E-1,6.356379E-3,-1.9798718E-2,-9.239201E-2,-4.323247E-2,4.1086923E-2,7.011401E-2,2.2378622E-1],"categories":[],"categories_nodes":[],"categories_segments":[],"categories_sizes":[],"default_left":[0,0,0,0,0,0,0,0,0,0,0,0,0,0,0],"id":49,"left_children":[1,3,5,7,9,11,13,-1,-1,-1,-1,-1,-1,-1,-1],"loss_changes":[4.825113E3,3.1002393E3,3.5235967E3,2.7329636E3,2.4842368E3,2.3769927E3,1.1780684E3,0E0,0E0,0E0,0E0,0E0,0E0,0E0,0E0],"parents":[2147483647,0,0,1,1,2,2,3,3,4,4,5,5,6,6],"right_children":[2,4,6,8,10,12,14,-1,-1,-1,-1,-1,-1,-1,-1],"split_conditions":[8.48E1,5.8E-3,8.92E1,-6E0,1.36E0,7.6E1,-1.48E0,-1.6929722E-1,6.356379E-3,-1.9798718E-2,-9.239201E-2,-4.323247E-2,4.1086923E-2,7.011401E-2,2.2378622E-1],"split_indices":[12,6,13,8,17,15,17,0,0,0,0,0,0,0,0],"split_type":[0,0,0,0,0,0,0,0,0,0,0,0,0,0,0],"sum_hessian":[1.3645E3,9.585E2,4.06E2,6.218E2,3.367E2,3.704E2,3.56E1,1.38E1,6.08E2,2.154E2,1.213E2,6.63E1,3.041E2,1.63E1,1.93E1],"tree_param":{"num_deleted":"0","num_feature":"19","num_nodes":"15","size_leaf_vector":"1"}},{"base_weights":[-3.5415735E-2,-2.125599E0,2.3891175E0,-4.2991047E0,9.5175654E-1,2.9860806E0,-4.0553427E0,9.8640524E-2,-6.3719735E-2,-3.313995E-4,7.7885084E-2,7.0320755E-2,1.7561033E-2,-9.603656E-2,3.7304744E-2],"categories":[],"categories_nodes":[],"categories_segments":[],"categories_sizes":[],"default_left":[0,0,0,0,0,0,0,0,0,0,0,0,0,0,0],"id":50,"left_children":[1,3,5,7,9,11,13,-1,-1,-1,-1,-1,-1,-1,-1],"loss_changes":[6.76207E3,4.797673E3,2.3907917E3,3.377895E3,1.4873799E3,2.2721797E3,1.2847036E3,0E0,0E0,0E0,0E0,0E0,0E0,0E0,0E0],"parents":[2147483647,0,0,1,1,2,2,3,3,4,4,5,5,6,6],"right_children":[2,4,6,8,10,12,14,-1,-1,-1,-1,-1,-1,-1,-1],"split_conditions":[8.0898E1,8.18E1,6.2E0,0E0,3E0,8.12E1,8.8E0,9.8640524E-2,-6.3719735E-2,-3.313995E-4,7.7885084E-2,7.0320755E-2,1.7561033E-2,-9.603656E-2,3.7304744E-2],"split_indices":[16,13,7,9,18,13,7,0,0,0,0,0,0,0,0],"split_type":[0,0,0,0,0,0,0,0,0,0,0,0,0,0,0],"sum_hessian":[1.332E3,7.154E2,6.166E2,4.19E2,2.964E2,5.649E2,5.17E1,2.13E1,3.977E2,2.498E2,4.66E1,2.215E2,3.434E2,3.46E1,1.71E1],"tree_param":{"num_deleted":"0","num_feature":"19","num_nodes":"15","size_leaf_vector":"1"}},{"base_weights":[1.0657066E-1,-1.3113772E0,3.4212604E0,-3.7979712E0,1.0108801E0,9.373794E-1,6.522328E0,-6.434313E-2,-7.4955584E-3,6.2162723E-2,-2.6918703E-3,1.4923197E-4,1.1431294E-1,2.086069E-1,6.713368E-2],"categories":[],"categories_nodes":[],"categories_segments":[],"categories_sizes":[],"default_left":[0,0,0,0,0,0,0,0,0,0,0,0,0,0,0],"id":51,"left_children":[1,3,5,7,9,11,13,-1,-1,-1,-1,-1,-1,-1,-1],"loss_changes":[6.4643955E3,5.5674824E3,3.1668896E3,1.8098218E3,2.33358E3,1.6967035E3,2.2053975E3,0E0,0E0,0E0,0E0,0E0,0E0,0E0,0E0],"parents":[2147483647,0,0,1,1,2,2,3,3,4,4,5,5,6,6],"right_children":[2,4,6,8,10,12,14,-1,-1,-1,-1,-1,-1,-1,-1],"split_conditions":[8.48E1,8.14E1,8.32E1,8.42E1,-1.604E0,8.94E1,8.4E1,-6.434313E-2,-7.4955584E-3,6.2162723E-2,-2.6918703E-3,1.4923197E-4,1.1431294E-1,2.086069E-1,6.713368E-2],"split_indices":[12,14,13,13,5,15,13,0,0,0,0,0,0,0,0],"split_type":[0,0,0,0,0,0,0,0,0,0,0,0,0,0,0],"sum_hessian":[1.3731E3,9.622E2,4.109E2,4.643E2,4.979E2,2.29E2,1.819E2,3.367E2,1.276E2,1.195E2,3.784E2,2.062E2,2.28E1,1.98E1,1.621E2],"tree_param":{"num_deleted":"0","num_feature":"19","num_nodes":"15","size_leaf_vector":"1"}},{"base_weights":[9.134533E-2,-1.7015009E0,2.467698E0,-3.9928539E0,3.9326766E-1,1.8859186E0,1.0704848E1,-8.0363855E-2,-5.694042E-3,-7.7128517E-3,1.0960911E-1,1.0268131E-2,8.227919E-2,4.6075373E-3,2.0324488E-1],"categories":[],"categories_nodes":[],"categories_segments":[],"categories_sizes":[],"default_left":[0,0,0,0,0,0,0,0,0,0,0,0,0,0,0],"id":52,"left_children":[1,3,5,7,9,11,13,-1,-1,-1,-1,-1,-1,-1,-1],"loss_changes":[5.5599653E3,3.5723047E3,2.6656213E3,2.853081E3,3.1586929E3,2.57517E3,1.9412056E3,0E0,0E0,0E0,0E0,0E0,0E0,0E0,0E0],"parents":[2147483647,0,0,1,1,2,2,3,3,4,4,5,5,6,6],"right_children":[2,4,6,8,10,12,14,-1,-1,-1,-1,-1,-1,-1,-1],"split_conditions":[8.1024E1,8.06E1,9.08E1,1E0,1E0,5.5E-2,-9.6E-1,-8.0363855E-2,-5.694042E-3,-7.7128517E-3,1.0960911E-1,1.0268131E-2,8.227919E-2,4.6075373E-3,2.0324488E-1],"split_indices":[16,13,14,7,9,3,17,0,0,0,0,0,0,0,0],"split_type":[0,0,0,0,0,0,0,0,0,0,0,0,0,0,0],"sum_hessian":[1.3027E3,7.427E2,5.6E2,3.542E2,3.885E2,5.244E2,3.56E1,2.157E2,1.385E2,3.472E2,4.13E1,4.239E2,1.005E2,1.22E1,2.34E1],"tree_param":{"num_deleted":"0","num_feature":"19","num_nodes":"15","size_leaf_vector":"1"}},{"base_weights":[-2.491131E-1,-2.195931E0,1.9798174E0,-3.885692E0,7.02906E-2,4.3722157E0,7.970003E-1,-5.557127E-2,1.4896649E-1,-1.37153E-2,1.7635621E-1,2.7000854E-2,1.03892446E-1,-1.6633743E-2,5.3436574E-2],"categories":[],"categories_nodes":[],"categories_segments":[],"categories_sizes":[],"default_left":[0,0,0,0,0,0,0,0,0,0,0,0,0,0,0],"id":53,"left_children":[1,3,5,7,9,11,13,-1,-1,-1,-1,-1,-1,-1,-1],"loss_changes":[5.8153076E3,2.739354E3,1.7641609E3,2.8581416E3,4.785565E3,1.7221414E3,2.9589307E3,0E0,0E0,0E0,0E0,0E0,0E0,0E0,0E0],"parents":[2147483647,0,0,1,1,2,2,3,3,4,4,5,5,6,6],"right_children":[2,4,6,8,10,12,14,-1,-1,-1,-1,-1,-1,-1,-1],"split_conditions":[8.22E1,4.3E-3,-5.28E-1,9.38E1,8.76E1,1.52E-2,8.5E1,-5.557127E-2,1.4896649E-1,-1.37153E-2,1.7635621E-1,2.7000854E-2,1.03892446E-1,-1.6633743E-2,5.3436574E-2],"split_indices":[14,4,5,12,12,4,12,0,0,0,0,0,0,0,0],"split_type":[0,0,0,0,0,0,0,0,0,0,0,0,0,0,0],"sum_hessian":[1.3378E3,7.141E2,6.237E2,4.086E2,3.055E2,2.053E2,4.184E2,3.981E2,1.05E1,2.83E2,2.25E1,1.286E2,7.67E1,2.584E2,1.6E2],"tree_param":{"num_deleted":"0","num_feature":"19","num_nodes":"15","size_leaf_vector":"1"}},{"base_weights":[-8.023914E-2,-2.4070811E0,2.9379876E0,-4.6901073E0,-5.192597E-1,4.002903E0,-6.0441117E0,-4.3031294E-2,-1.6169749E-1,-1.8514883E-2,5.174606E-2,2.6646478E-2,1.11835554E-1,-1.5965992E-1,-3.1347357E-2],"categories":[],"categories_nodes":[],"categories_segments":[],"categories_sizes":[],"default_left":[0,0,0,0,0,0,0,0,0,0,0,0,0,0,0],"id":54,"left_children":[1,3,5,7,9,11,13,-1,-1,-1,-1,-1,-1,-1,-1],"loss_changes":[9.574004E3,3.314817E3,5.7049473E3,3.6363403E3,1.7799426E3,4.7983584E3,1.4230051E3,0E0,0E0,0E0,0E0,0E0,0E0,0E0,0E0],"parents":[2147483647,0,0,1,1,2,2,3,3,4,4,5,5,6,6],"right_children":[2,4,6,8,10,12,14,-1,-1,-1,-1,-1,-1,-1,-1],"split_conditions":[8.26E1,8.0371E1,4.644E0,2.816E-1,1.896E0,8.56E1,8.56E1,-4.3031294E-2,-1.6169749E-1,-1.8514883E-2,5.174606E-2,2.6646478E-2,1.11835554E-1,-1.5965992E-1,-3.1347357E-2],"split_indices":[14,16,5,11,5,12,14,0,0,0,0,0,0,0,0],"split_type":[0,0,0,0,0,0,0,0,0,0,0,0,0,0,0],"sum_hessian":[1.3609E3,7.686E2,5.923E2,3.471E2,4.215E2,5.301E2,6.22E1,2.982E2,4.89E1,3.511E2,7.04E1,3.772E2,1.529E2,2.14E1,4.08E1],"tree_param":{"num_deleted":"0","num_feature":"19","num_nodes":"15","size_leaf_vector":"1"}},{"base_weights":[-2.5895998E-2,-2.3225443E0,2.2240102E0,-5.4430633E0,-9.269506E-1,2.4859407E0,-1.2257943E-1,1.5064234E-2,-8.262148E-2,-3.654049E-2,2.0652087E-2,4.7115706E-2,3.662009E-3],"categories":[],"categories_nodes":[],"categories_segments":[],"categories_sizes":[],"default_left":[0,0,0,0,0,0,0,0,0,0,0,0,0],"id":55,"left_children":[1,3,5,7,9,11,-1,-1,-1,-1,-1,-1,-1],"loss_changes":[6.778593E3,2.821216E3,2.0704182E3,1.321228E3,2.193319E3,1.6883281E3,0E0,0E0,0E0,0E0,0E0,0E0,0E0],"parents":[2147483647,0,0,1,1,2,2,3,3,4,4,5,5],"right_children":[2,4,6,8,10,12,-1,-1,-1,-1,-1,-1,-1],"split_conditions":[8.16E1,7.9E1,7E0,-1.9657E2,8.28E1,1.273E1,-1.2257943E-1,1.5064234E-2,-8.262148E-2,-3.654049E-2,2.0652087E-2,4.7115706E-2,3.662009E-3],"split_indices":[14,15,8,1,13,1,0,0,0,0,0,0,0],"split_type":[0,0,0,0,0,0,0,0,0,0,0,0,0],"sum_hessian":[1.3095E3,6.48E2,6.615E2,1.992E2,4.488E2,6.48E2,1.35E1,2.59E1,1.733E2,2.554E2,1.934E2,4.21E2,2.27E2],"tree_param":{"num_deleted":"0","num_feature":"19","num_nodes":"13","size_leaf_vector":"1"}},{"base_weights":[-5.9330042E-2,-2.9070482E0,1.3600242E0,-4.1360493E0,2.6161654E0,9.718888E-1,1.1414058E1,-8.167153E-2,-1.7782373E-2,1.18285336E-1,-3.1660967E-2,1.7302016E-2,-9.717662E-2,1.9873995E-1,2.5872761E-2],"categories":[],"categories_nodes":[],"categories_segments":[],"categories_sizes":[],"default_left":[0,0,0,0,0,0,0,0,0,0,0,0,0,0,0],"id":56,"left_children":[1,3,5,7,9,11,13,-1,-1,-1,-1,-1,-1,-1,-1],"loss_changes":[5.32448E3,2.9869717E3,3.4178296E3,2.1847944E3,2.7227224E3,2.7283792E3,1.2065352E3,0E0,0E0,0E0,0E0,0E0,0E0,0E0,0E0],"parents":[2147483647,0,0,1,1,2,2,3,3,4,4,5,5,6,6],"right_children":[2,4,6,8,10,12,14,-1,-1,-1,-1,-1,-1,-1,-1],"split_conditions":[7.96E1,5.14E-2,9.3E1,1.053E-1,1.3194E1,5.604E0,8.2E0,-8.167153E-2,-1.7782373E-2,1.18285336E-1,-3.1660967E-2,1.7302016E-2,-9.717662E-2,1.9873995E-1,2.5872761E-2],"split_indices":[14,3,14,11,0,5,2,0,0,0,0,0,0,0,0],"split_type":[0,0,0,0,0,0,0,0,0,0,0,0,0,0,0],"sum_hessian":[1.315E3,4.37E2,8.78E2,3.577E2,7.93E1,8.466E2,3.14E1,1.97E2,1.607E2,3.41E1,4.52E1,8.119E2,3.47E1,2.14E1,1E1],"tree_param":{"num_deleted":"0","num_feature":"19","num_nodes":"15","size_leaf_vector":"1"}},{"base_weights":[-7.054685E-2,-2.1994972E0,2.2092583E0,-4.7890115E0,2.3025225E-1,-3.04816E-2,3.7657642E0,-5.4363303E-2,-2.4856596E-1,-1.672043E-2,6.712058E-2,1.2914911E-2,-2.9876623E-1,1.1549909E-1,2.222958E-2],"categories":[],"categories_nodes":[],"categories_segments":[],"categories_sizes":[],"default_left":[0,0,0,0,0,0,0,0,0,0,0,0,0,0,0],"id":57,"left_children":[1,3,5,7,9,11,13,-1,-1,-1,-1,-1,-1,-1,-1],"loss_changes":[6.587009E3,4.4167354E3,2.2848647E3,2.6565088E3,2.7878035E3,6.5230938E3,4.0947998E3,0E0,0E0,0E0,0E0,0E0,0E0,0E0,0E0],"parents":[2147483647,0,0,1,1,2,2,3,3,4,4,5,5,6,6],"right_children":[2,4,6,8,10,12,14,-1,-1,-1,-1,-1,-1,-1,-1],"split_conditions":[8.0862E1,8.04E1,-1.2E0,8.0828E1,8.56E1,1.9511E2,1.8E0,-5.4363303E-2,-2.4856596E-1,-1.672043E-2,6.712058E-2,1.2914911E-2,-2.9876623E-1,1.1549909E-1,2.222958E-2],"split_indices":[16,13,2,16,12,1,2,0,0,0,0,0,0,0,0],"split_type":[0,0,0,0,0,0,0,0,0,0,0,0,0,0,0],"sum_hessian":[1.3548E3,7.006E2,6.542E2,3.386E2,3.62E2,2.687E2,3.855E2,3.276E2,1.1E1,2.777E2,8.43E1,2.583E2,1.04E1,1.069E2,2.786E2],"tree_param":{"num_deleted":"0","num_feature":"19","num_nodes":"15","size_leaf_vector":"1"}},{"base_weights":[3.5180986E-1,-1.2279613E0,2.5921223E0,-5.705649E0,-5.0664103E-1,1.9898763E0,1.1136692E1,-1.8067051E-1,-5.9940703E-2,1.0801185E-2,-4.9080417E-2,1.111285E-3,5.3715E-2,1.8933544E-1,2.0393854E-2],"categories":[],"categories_nodes":[],"categories_segments":[],"categories_sizes":[],"default_left":[0,0,0,0,0,0,0,0,0,0,0,0,0,0,0],"id":58,"left_children":[1,3,5,7,9,11,13,-1,-1,-1,-1,-1,-1,-1,-1],"loss_changes":[4.7089585E3,2.5174155E3,2.8052112E3,8.6254297E2,3.0123135E3,2.150243E3,1.2109321E3,0E0,0E0,0E0,0E0,0E0,0E0,0E0,0E0],"parents":[2147483647,0,0,1,1,2,2,3,3,4,4,5,5,6,6],"right_children":[2,4,6,8,10,12,14,-1,-1,-1,-1,-1,-1,-1,-1],"split_conditions":[8.28E1,7.32E1,9.06E1,-8.2E0,6.248E1,-4.4E-3,9.38E1,-1.8067051E-1,-5.9940703E-2,1.0801185E-2,-4.9080417E-2,1.111285E-3,5.3715E-2,1.8933544E-1,2.0393854E-2],"split_indices":[12,12,15,7,1,4,15,0,0,0,0,0,0,0,0],"split_type":[0,0,0,0,0,0,0,0,0,0,0,0,0,0,0],"sum_hessian":[1.3283E3,7.793E2,5.49E2,1.07E2,6.723E2,5.142E2,3.48E1,1.02E1,9.68E1,4.786E2,1.937E2,2.759E2,2.383E2,2.48E1,1E1],"tree_param":{"num_deleted":"0","num_feature":"19","num_nodes":"15","size_leaf_vector":"1"}},{"base_weights":[5.2656007E-1,-1.0034232E0,4.1537747E0,2.2463315E0,-2.0136418E0,1.0002357E1,2.8758183E0,-1.04920395E-1,4.097151E-2,-3.497383E-2,2.782654E-2,9.2387415E-2,2.6744235E-1,-8.44154E-2,5.0434235E-2],"categories":[],"categories_nodes":[],"categories_segments":[],"categories_sizes":[],"default_left":[0,0,0,0,0,0,0,0,0,0,0,0,0,0,0],"id":59,"left_children":[1,3,5,7,9,11,13,-1,-1,-1,-1,-1,-1,-1,-1],"loss_changes":[7.4844297E3,3.1203958E3,2.9565625E3,2.2478813E3,2.1555774E3,1.9910532E3,3.3072244E3,0E0,0E0,0E0,0E0,0E0,0E0,0E0,0E0],"parents":[2147483647,0,0,1,1,2,2,3,3,4,4,5,5,6,6],"right_children":[2,4,6,8,10,12,14,-1,-1,-1,-1,-1,-1,-1,-1],"split_conditions":[8.48E1,-4.75E-2,-2.8E0,7.04E1,8.2249E1,1.9E-3,-2.2E0,-1.04920395E-1,4.097151E-2,-3.497383E-2,2.782654E-2,9.2387415E-2,2.6744235E-1,-8.44154E-2,5.0434235E-2],"split_indices":[12,6,7,12,16,4,7,0,0,0,0,0,0,0,0],"split_type":[0,0,0,0,0,0,0,0,0,0,0,0,0,0,0],"sum_hessian":[1.3466E3,9.477E2,3.989E2,2.244E2,7.233E2,7.01E1,3.288E2,1.79E1,2.065E2,6.187E2,1.046E2,5.72E1,1.29E1,3.23E1,2.965E2],"tree_param":{"num_deleted":"0","num_feature":"19","num_nodes":"15","size_leaf_vector":"1"}},{"base_weights":[-1.6769134E-1,-3.3926013E0,1.1514896E0,-4.677209E0,1.2231477E0,1.3702503E0,-1.3647433E-1,-5.3040806E-2,-2.0594914E-1,-1.137612E-1,4.6714194E-2,1.20081315E-2,8.440798E-2],"categories":[],"categories_nodes":[],"categories_segments":[],"categories_sizes":[],"default_left":[0,0,0,0,0,0,0,0,0,0,0,0,0],"id":60,"left_children":[1,3,5,7,9,11,-1,-1,-1,-1,-1,-1,-1],"loss_changes":[5.7310747E3,2.3255127E3,2.4805908E3,1.8259785E3,2.132304E3,2.120692E3,0E0,0E0,0E0,0E0,0E0,0E0,0E0],"parents":[2147483647,0,0,1,1,2,2,3,3,4,4,5,5],"right_children":[2,4,6,8,10,12,-1,-1,-1,-1,-1,-1,-1],"split_conditions":[7.86E1,4.97E-2,1.12E-1,4.46E-2,-1E0,9.06E1,-1.3647433E-1,-5.3040806E-2,-2.0594914E-1,-1.137612E-1,4.6714194E-2,1.20081315E-2,8.440798E-2],"split_indices":[14,3,3,3,8,14,0,0,0,0,0,0,0],"split_type":[0,0,0,0,0,0,0,0,0,0,0,0,0],"sum_hessian":[1.3449E3,3.899E2,9.55E2,3.05E2,8.49E1,9.386E2,1.64E1,2.925E2,1.25E1,1.58E1,6.91E1,8.674E2,7.12E1],"tree_param":{"num_deleted":"0","num_feature":"19","num_nodes":"13","size_leaf_vector":"1"}},{"base_weights":[-9.79686E-2,-3.2587547E0,7.688882E-1,-3.8258793E0,1.2160763E-1,-1.7625098E-1,2.9357986E0,1.1987673E-2,-6.6926666E-2,3.594763E-2,-2.3009181E-2,-5.3329866E-2,5.237641E-2],"categories":[],"categories_nodes":[],"categories_segments":[],"categories_sizes":[],"default_left":[0,0,0,0,0,0,0,0,0,0,0,0,0],"id":61,"left_children":[1,3,5,7,-1,9,11,-1,-1,-1,-1,-1,-1],"loss_changes":[3.6508167E3,2.112283E3,2.1423755E3,1.8210259E3,0E0,3.5106025E3,2.5919966E3,0E0,0E0,0E0,0E0,0E0,0E0],"parents":[2147483647,0,0,1,1,2,2,3,3,5,5,6,6],"right_children":[2,4,6,8,-1,10,12,-1,-1,-1,-1,-1,-1],"split_conditions":[7.72E1,9.16E1,8.5E1,-3.842E0,1.2160763E-1,-1.092E0,7.48E1,1.1987673E-2,-6.6926666E-2,3.594763E-2,-2.3009181E-2,-5.3329866E-2,5.237641E-2],"split_indices":[14,12,12,5,0,5,15,0,0,0,0,0,0],"split_type":[0,0,0,0,0,0,0,0,0,0,0,0,0],"sum_hessian":[1.3302E3,2.856E2,1.0446E3,2.742E2,1.14E1,7.281E2,3.165E2,6.19E1,2.123E2,2.559E2,4.722E2,4.35E1,2.73E2],"tree_param":{"num_deleted":"0","num_feature":"19","num_nodes":"13","size_leaf_vector":"1"}},{"base_weights":[4.163834E-2,-1.9448205E0,2.1303654E0,-2.899533E0,3.3686218E0,1.5173534E0,9.074554E0,-7.1201295E-2,-1.8093465E-2,-7.9623625E-2,7.55539E-2,2.5193831E-2,-1.4306097E-1,-1.6584095E-2,1.9409557E-1],"categories":[],"categories_nodes":[],"categories_segments":[],"categories_sizes":[],"default_left":[0,0,0,0,0,0,0,0,0,0,0,0,0,0,0],"id":62,"left_children":[1,3,5,7,9,11,13,-1,-1,-1,-1,-1,-1,-1,-1],"loss_changes":[5.667094E3,3.5627476E3,2.8179863E3,2.3327002E3,2.620756E3,3.4734575E3,3.3882852E3,0E0,0E0,0E0,0E0,0E0,0E0,0E0,0E0],"parents":[2147483647,0,0,1,1,2,2,3,3,4,4,5,5,6,6],"right_children":[2,4,6,8,10,12,14,-1,-1,-1,-1,-1,-1,-1,-1],"split_conditions":[8.0852E1,8.66E1,9.08E1,7.9E1,-6.57E-2,9E1,-1.33E-2,-7.1201295E-2,-1.8093465E-2,-7.9623625E-2,7.55539E-2,2.5193831E-2,-1.4306097E-1,-1.6584095E-2,1.9409557E-1],"split_indices":[16,13,15,14,6,15,6,0,0,0,0,0,0,0,0],"split_type":[0,0,0,0,0,0,0,0,0,0,0,0,0,0,0],"sum_hessian":[1.3635E3,6.989E2,6.646E2,5.929E2,1.06E2,6.12E2,5.26E1,2.126E2,3.803E2,2.17E1,8.43E1,5.922E2,1.98E1,1.97E1,3.29E1],"tree_param":{"num_deleted":"0","num_feature":"19","num_nodes":"15","size_leaf_vector":"1"}},{"base_weights":[1.4068145E-1,-3.1016138E0,1.0811459E0,-6.2766557E0,-1.3309067E0,-8.3865076E-1,2.4852965E0,-9.8043166E-2,5.5769496E-2,-3.2383446E-2,6.662496E-2,-4.881773E-2,6.2982775E-3,4.7586556E-3,5.6773767E-2],"categories":[],"categories_nodes":[],"categories_segments":[],"categories_sizes":[],"default_left":[0,0,0,0,0,0,0,0,0,0,0,0,0,0,0],"id":63,"left_children":[1,3,5,7,9,11,13,-1,-1,-1,-1,-1,-1,-1,-1],"loss_changes":[4.097772E3,1.6890464E3,2.8101812E3,1.5933838E3,1.5322322E3,1.7379567E3,2.4612732E3,0E0,0E0,0E0,0E0,0E0,0E0,0E0,0E0],"parents":[2147483647,0,0,1,1,2,2,3,3,4,4,5,5,6,6],"right_children":[2,4,6,8,10,12,14,-1,-1,-1,-1,-1,-1,-1,-1],"split_conditions":[7.9452E1,7.74E1,8.16E1,5.86E-2,8.5E1,-5.54E-1,-1E0,-9.8043166E-2,5.5769496E-2,-3.2383446E-2,6.662496E-2,-4.881773E-2,6.2982775E-3,4.7586556E-3,5.6773767E-2],"split_indices":[16,14,14,3,13,0,18,0,0,0,0,0,0,0,0],"split_type":[0,0,0,0,0,0,0,0,0,0,0,0,0,0,0],"sum_hessian":[1.3414E3,3.01E2,1.0404E3,1.067E2,1.943E2,4.397E2,6.007E2,9.49E1,1.18E1,1.649E2,2.94E1,1.355E2,3.042E2,2.877E2,3.13E2],"tree_param":{"num_deleted":"0","num_feature":"19","num_nodes":"15","size_leaf_vector":"1"}},{"base_weights":[-4.6545804E-1,-1.6665771E0,1.9932619E0,-3.8948774E0,-4.9136543E-1,-3.843809E-1,4.878156E0,-5.869224E-2,9.830485E-2,2.8003559E-2,-2.3827154E-2,3.563858E-2,-9.073469E-2,4.7435332E-2,2.24331E-1],"categories":[],"categories_nodes":[],"categories_segments":[],"categories_sizes":[],"default_left":[0,0,0,0,0,0,0,0,0,0,0,0,0,0,0],"id":64,"left_children":[1,3,5,7,9,11,13,-1,-1,-1,-1,-1,-1,-1,-1],"loss_changes":[3.9761672E3,2.365794E3,3.0337754E3,2.4737593E3,2.1669368E3,5.1593027E3,2.903981E3,0E0,0E0,0E0,0E0,0E0,0E0,0E0,0E0],"parents":[2147483647,0,0,1,1,2,2,3,3,4,4,5,5,6,6],"right_children":[2,4,6,8,10,12,14,-1,-1,-1,-1,-1,-1,-1,-1],"split_conditions":[8.151E1,7.88E1,1.52E-1,8.94E1,-7.14E-1,-1.092E0,2.7817E2,-5.869224E-2,9.830485E-2,2.8003559E-2,-2.3827154E-2,3.563858E-2,-9.073469E-2,4.7435332E-2,2.24331E-1],"split_indices":[16,14,5,12,5,5,1,0,0,0,0,0,0,0,0],"split_type":[0,0,0,0,0,0,0,0,0,0,0,0,0,0,0],"sum_hessian":[1.3439E3,9.031E2,4.408E2,3.109E2,5.922E2,2.422E2,1.986E2,2.944E2,1.65E1,1.999E2,3.923E2,1.649E2,7.73E1,1.829E2,1.57E1],"tree_param":{"num_deleted":"0","num_feature":"19","num_nodes":"15","size_leaf_vector":"1"}},{"base_weights":[7.188449E-2,-3.5430744E0,1.2971246E0,-5.176605E0,2.0493133E0,2.4094613E0,-1.8965923E0,-4.76692E-2,-1.5213974E-1,-1.2827931E-1,5.1215086E-2,1.6334808E-1,2.614259E-2,-4.647945E-2,6.1581954E-2],"categories":[],"categories_nodes":[],"categories_segments":[],"categories_sizes":[],"default_left":[0,0,0,0,0,0,0,0,0,0,0,0,0,0,0],"id":65,"left_children":[1,3,5,7,9,11,13,-1,-1,-1,-1,-1,-1,-1,-1],"loss_changes":[6.0936104E3,3.193974E3,3.655421E3,2.585308E3,1.9032145E3,2.9094795E3,3.0868457E3,0E0,0E0,0E0,0E0,0E0,0E0,0E0,0E0],"parents":[2147483647,0,0,1,1,2,2,3,3,4,4,5,5,6,6],"right_children":[2,4,6,8,10,12,14,-1,-1,-1,-1,-1,-1,-1,-1],"split_conditions":[7.9586E1,8.42E1,6.667E-1,7.9282E1,7.5E1,-2.7838E1,2.7817E2,-4.76692E-2,-1.5213974E-1,-1.2827931E-1,5.1215086E-2,1.6334808E-1,2.614259E-2,-4.647945E-2,6.1581954E-2],"split_indices":[16,12,10,16,14,0,1,0,0,0,0,0,0,0,0],"split_type":[0,0,0,0,0,0,0,0,0,0,0,0,0,0,0],"sum_hessian":[1.3734E3,3.471E2,1.0263E3,2.687E2,7.84E1,7.614E2,2.649E2,2.218E2,4.69E1,1.02E1,6.82E1,2.53E1,7.361E2,2.111E2,5.38E1],"tree_param":{"num_deleted":"0","num_feature":"19","num_nodes":"15","size_leaf_vector":"1"}},{"base_weights":[-1.14192635E-1,-3.741806E-1,8.089246E0,-8.929402E-1,3.8577535E0,1.0982559E1,-2.6327218E-3,-6.3134626E-2,-3.717823E-3,-1.4101201E-1,6.700919E-2,2.0785764E-1,8.033934E-2],"categories":[],"categories_nodes":[],"categories_segments":[],"categories_sizes":[],"default_left":[0,0,0,0,0,0,0,0,0,0,0,0,0],"id":66,"left_children":[1,3,5,7,9,11,-1,-1,-1,-1,-1,-1,-1],"loss_changes":[2.8513972E3,2.8478284E3,9.8822217E2,2.8019426E3,2.9251174E3,6.3078955E2,0E0,0E0,0E0,0E0,0E0,0E0,0E0],"parents":[2147483647,0,0,1,1,2,2,3,3,4,4,5,5],"right_children":[2,4,6,8,10,12,-1,-1,-1,-1,-1,-1,-1],"split_conditions":[9.3E1,2.2323E2,3.35E-2,7.58E1,-2.02E-2,9.42E1,-2.6327218E-3,-6.3134626E-2,-3.717823E-3,-1.4101201E-1,6.700919E-2,2.0785764E-1,8.033934E-2],"split_indices":[14,1,6,13,6,14,0,0,0,0,0,0,0],"split_type":[0,0,0,0,0,0,0,0,0,0,0,0,0],"sum_hessian":[1.3341E3,1.2942E3,3.99E1,1.1537E3,1.405E2,2.93E1,1.06E1,1.494E2,1.0043E3,1.11E1,1.294E2,1.26E1,1.67E1],"tree_param":{"num_deleted":"0","num_feature":"19","num_nodes":"13","size_leaf_vector":"1"}},{"base_weights":[-2.8276968E-1,-2.6013517E0,8.924773E-1,-3.2655144E0,5.5078974E0,3.855473E-1,5.6735005E0,-2.9174343E-2,-1.1781381E-1,-3.3204224E-2,1.2156393E-1,-3.9119767E-3,3.8984325E-2,3.12202E-3,1.1624743E-1],"categories":[],"categories_nodes":[],"categories_segments":[],"categories_sizes":[],"default_left":[0,0,0,0,0,0,0,0,0,0,0,0,0,0,0],"id":67,"left_children":[1,3,5,7,9,11,13,-1,-1,-1,-1,-1,-1,-1,-1],"loss_changes":[3.6850728E3,2.4709055E3,2.173072E3,2.4486958E3,1.1454218E3,1.4876345E3,1.5743357E3,0E0,0E0,0E0,0E0,0E0,0E0,0E0,0E0],"parents":[2147483647,0,0,1,1,2,2,3,3,4,4,5,5,6,6],"right_children":[2,4,6,8,10,12,14,-1,-1,-1,-1,-1,-1,-1,-1],"split_conditions":[7.94E1,8.92E1,8.94E1,6E0,8.162E1,8E0,-1.24E1,-2.9174343E-2,-1.1781381E-1,-3.3204224E-2,1.2156393E-1,-3.9119767E-3,3.8984325E-2,3.12202E-3,1.1624743E-1],"split_indices":[14,12,13,18,1,2,2,0,0,0,0,0,0,0,0],"split_type":[0,0,0,0,0,0,0,0,0,0,0,0,0,0,0],"sum_hessian":[1.3502E3,4.537E2,8.965E2,4.2E2,3.37E1,8.117E2,8.48E1,3.609E2,5.91E1,1.12E1,2.25E1,6.448E2,1.669E2,3.3E1,5.18E1],"tree_param":{"num_deleted":"0","num_feature":"19","num_nodes":"15","size_leaf_vector":"1"}},{"base_weights":[-4.5054308E-1,-4.667515E0,7.176952E-1,-7.068631E0,-5.2299964E-1,2.9644275E-2,5.0043464E0,-1.0368052E-1,5.8266494E-2,-4.304917E-2,1.0251042E-1,1.7524028E-2,-2.7994936E-2,-1.2717952E-1,8.572335E-2],"categories":[],"categories_nodes":[],"categories_segments":[],"categories_sizes":[],"default_left":[0,0,0,0,0,0,0,0,0,0,0,0,0,0,0],"id":68,"left_children":[1,3,5,7,9,11,13,-1,-1,-1,-1,-1,-1,-1,-1],"loss_changes":[6.723911E3,2.9420024E3,3.1532717E3,2.2263438E3,2.6746328E3,2.723946E3,3.7589773E3,0E0,0E0,0E0,0E0,0E0,0E0,0E0,0E0],"parents":[2147483647,0,0,1,1,2,2,3,3,4,4,5,5,6,6],"right_children":[2,4,6,8,10,12,14,-1,-1,-1,-1,-1,-1,-1,-1],"split_conditions":[7.9402E1,8.18E1,8.9E1,7.15E-2,1.764E0,4.127E1,-2.49E-2,-1.0368052E-1,5.8266494E-2,-4.304917E-2,1.0251042E-1,1.7524028E-2,-2.7994936E-2,-1.2717952E-1,8.572335E-2],"split_indices":[16,15,12,3,5,1,3,0,0,0,0,0,0,0,0],"split_type":[0,0,0,0,0,0,0,0,0,0,0,0,0,0,0],"sum_hessian":[1.3629E3,2.949E2,1.068E3,1.862E2,1.087E2,9.213E2,1.467E2,1.717E2,1.45E1,8.21E1,2.66E1,5.746E2,3.467E2,1.42E1,1.325E2],"tree_param":{"num_deleted":"0","num_feature":"19","num_nodes":"15","size_leaf_vector":"1"}},{"base_weights":[-1.6720049E-1,-2.5777125E0,2.7672694E0,-1.6137228E0,-8.732299E0,1.326477E0,6.8956017E0,-5.2654196E-2,-3.3509454E-3,-1.3558309E-1,-2.7002223E-2,-1.40846325E-2,6.0137182E-2,1.2631305E-1,3.530389E-2],"categories":[],"categories_nodes":[],"categories_segments":[],"categories_sizes":[],"default_left":[0,0,0,0,0,0,0,0,0,0,0,0,0,0,0],"id":69,"left_children":[1,3,5,7,9,11,13,-1,-1,-1,-1,-1,-1,-1,-1],"loss_changes":[9.50865E3,4.3618574E3,3.595433E3,2.1493745E3,1.1796357E3,3.6724146E3,1.8767935E3,0E0,0E0,0E0,0E0,0E0,0E0,0E0,0E0],"parents":[2147483647,0,0,1,1,2,2,3,3,4,4,5,5,6,6],"right_children":[2,4,6,8,10,12,14,-1,-1,-1,-1,-1,-1,-1,-1],"split_conditions":[8.0928E1,2.816E-1,8.66E1,7.84E1,8.44E1,2E0,1.876E0,-5.2654196E-2,-3.3509454E-3,-1.3558309E-1,-2.7002223E-2,-1.40846325E-2,6.0137182E-2,1.2631305E-1,3.530389E-2],"split_indices":[16,11,14,14,12,18,5,0,0,0,0,0,0,0,0],"split_type":[0,0,0,0,0,0,0,0,0,0,0,0,0,0,0],"sum_hessian":[1.3419E3,7.368E2,6.051E2,6.383E2,9.85E1,4.497E2,1.554E2,2.241E2,4.142E2,7.67E1,2.18E1,2.616E2,1.881E2,9E1,6.54E1],"tree_param":{"num_deleted":"0","num_feature":"19","num_nodes":"15","size_leaf_vector":"1"}},{"base_weights":[1.0883063E-1,-1.9560026E0,1.2271138E0,-2.647464E0,5.4044414E0,-9.4118994E-1,3.113015E0,-1.4366406E-2,-5.8313772E-2,1.2171691E-1,-2.4462111E-2,-4.3386962E-2,2.4672564E-2,2.1916455E-2,7.9157785E-2],"categories":[],"categories_nodes":[],"categories_segments":[],"categories_sizes":[],"default_left":[0,0,0,0,0,0,0,0,0,0,0,0,0,0,0],"id":70,"left_children":[1,3,5,7,9,11,13,-1,-1,-1,-1,-1,-1,-1,-1],"loss_changes":[3.1137458E3,2.427972E3,3.5801338E3,1.2497151E3,1.2436702E3,2.8519102E3,1.9959541E3,0E0,0E0,0E0,0E0,0E0,0E0,0E0,0E0],"parents":[2147483647,0,0,1,1,2,2,3,3,4,4,5,5,6,6],"right_children":[2,4,6,8,10,12,14,-1,-1,-1,-1,-1,-1,-1,-1],"split_conditions":[7.92E1,2.8397E2,8.14E1,6.473E1,7.72E1,5.09E1,8.7E1,-1.4366406E-2,-5.8313772E-2,1.2171691E-1,-2.4462111E-2,-4.3386962E-2,2.4672564E-2,2.1916455E-2,7.9157785E-2],"split_indices":[13,1,14,1,13,1,13,0,0,0,0,0,0,0,0],"split_type":[0,0,0,0,0,0,0,0,0,0,0,0,0,0,0],"sum_hessian":[1.3461E3,4.726E2,8.735E2,4.327E2,3.99E1,4.066E2,4.669E2,2.404E2,1.923E2,2.54E1,1.45E1,2.195E2,1.871E2,3.208E2,1.461E2],"tree_param":{"num_deleted":"0","num_feature":"19","num_nodes":"15","size_leaf_vector":"1"}},{"base_weights":[7.522988E-2,-2.8918552E0,1.411469E0,-3.4075687E0,1.5426318E-1,2.574427E0,-3.9435422E-1,-8.292372E-2,-2.1843314E-2,1.94298E-2,8.886322E-2,-1.0016061E-2,1.5180583E-1],"categories":[],"categories_nodes":[],"categories_segments":[],"categories_sizes":[],"default_left":[0,0,0,0,0,0,0,0,0,0,0,0,0],"id":71,"left_children":[1,3,5,7,-1,9,11,-1,-1,-1,-1,-1,-1],"loss_changes":[5.501364E3,3.359427E3,2.0102872E3,2.1591904E3,0E0,2.6723765E3,1.780204E3,0E0,0E0,0E0,0E0,0E0,0E0],"parents":[2147483647,0,0,1,1,2,2,3,3,5,5,6,6],"right_children":[2,4,6,8,-1,10,12,-1,-1,-1,-1,-1,-1],"split_conditions":[7.94E1,9E0,1.963E1,-1.06E-2,1.5426318E-1,-3.718E1,9.2E0,-8.292372E-2,-2.1843314E-2,1.94298E-2,8.886322E-2,-1.0016061E-2,1.5180583E-1],"split_indices":[14,7,1,6,0,1,7,0,0,0,0,0,0],"split_type":[0,0,0,0,0,0,0,0,0,0,0,0,0],"sum_hessian":[1.3852E3,4.297E2,9.555E2,4.162E2,1.35E1,5.809E2,3.746E2,1.482E2,2.68E2,4.681E2,1.128E2,3.642E2,1.04E1],"tree_param":{"num_deleted":"0","num_feature":"19","num_nodes":"13","size_leaf_vector":"1"}},{"base_weights":[-2.510129E-1,-1.8295795E0,3.5408494E0,-1.0382233E1,-1.419392E0,2.9454427E0,2.1888429E-1,-1.8769778E-1,-5.1410135E-2,-1.5084042E-1,-1.5527499E-2,4.4232755E-4,6.393427E-2],"categories":[],"categories_nodes":[],"categories_segments":[],"categories_sizes":[],"default_left":[0,0,0,0,0,0,0,0,0,0,0,0,0],"id":72,"left_children":[1,3,5,7,9,11,-1,-1,-1,-1,-1,-1,-1],"loss_changes":[7.865434E3,3.2372024E3,3.0465464E3,1.0728125E3,1.9093292E3,2.1971638E3,0E0,0E0,0E0,0E0,0E0,0E0,0E0],"parents":[2147483647,0,0,1,1,2,2,3,3,4,4,5,5],"right_children":[2,4,6,8,10,12,-1,-1,-1,-1,-1,-1,-1],"split_conditions":[8.52E1,7.16E1,9E0,8.0128E1,-9E0,8.08E1,2.1888429E-1,-1.8769778E-1,-5.1410135E-2,-1.5084042E-1,-1.5527499E-2,4.4232755E-4,6.393427E-2],"split_indices":[12,15,7,16,7,15,0,0,0,0,0,0,0],"split_type":[0,0,0,0,0,0,0,0,0,0,0,0,0],"sum_hessian":[1.3116E3,9.265E2,3.851E2,4.11E1,8.854E2,3.702E2,1.4900001E1,2.38E1,1.73E1,1.64E1,8.69E2,1.527E2,2.175E2],"tree_param":{"num_deleted":"0","num_feature":"19","num_nodes":"13","size_leaf_vector":"1"}},{"base_weights":[-2.8383154E-1,-4.6175876E0,1.0490452E0,-6.1275535E0,1.1825148E0,2.5936615E0,-4.4831657E-1,-1.4782074E-1,-6.302363E-2,-1.7479962E-2,1.6801126E-1,-7.913301E-4,4.906704E-2,4.037138E-3,-8.354217E-2],"categories":[],"categories_nodes":[],"categories_segments":[],"categories_sizes":[],"default_left":[0,0,0,0,0,0,0,0,0,0,0,0,0,0,0],"id":73,"left_children":[1,3,5,7,9,11,13,-1,-1,-1,-1,-1,-1,-1,-1],"loss_changes":[7.619894E3,2.7258076E3,2.3351875E3,1.5521611E3,1.990235E3,1.6188191E3,2.373639E3,0E0,0E0,0E0,0E0,0E0,0E0,0E0,0E0],"parents":[2147483647,0,0,1,1,2,2,3,3,4,4,5,5,6,6],"right_children":[2,4,6,8,10,12,14,-1,-1,-1,-1,-1,-1,-1,-1],"split_conditions":[7.9452E1,8.46E1,1.273E1,-1.5265E2,7.6E-3,8.14E1,2.92E-2,-1.4782074E-1,-6.302363E-2,-1.7479962E-2,1.6801126E-1,-7.913301E-4,4.906704E-2,4.037138E-3,-8.354217E-2],"split_indices":[16,13,1,1,6,13,4,0,0,0,0,0,0,0,0],"split_type":[0,0,0,0,0,0,0,0,0,0,0,0,0,0,0],"sum_hessian":[1.317E3,3.091E2,1.0079E3,2.452E2,6.39E1,4.957E2,5.122E2,4.35E1,2.017E2,5.35E1,1.04E1,1.57E2,3.387E2,4.559E2,5.63E1],"tree_param":{"num_deleted":"0","num_feature":"19","num_nodes":"15","size_leaf_vector":"1"}},{"base_weights":[-2.9771954E-1,-2.0463383E0,1.464158E0,-2.375809E0,1.9582798E-1,-1.0777768E0,2.6303458E0,-1.1224897E-1,-2.5325257E-2,-2.2186614E-3,-1.4366814E-1,2.4388192E-2,1.19474225E-1],"categories":[],"categories_nodes":[],"categories_segments":[],"categories_sizes":[],"default_left":[0,0,0,0,0,0,0,0,0,0,0,0,0],"id":74,"left_children":[1,3,5,7,-1,9,11,-1,-1,-1,-1,-1,-1],"loss_changes":[4.2402E3,3.9776973E3,2.035898E3,1.7247417E3,0E0,1.9781074E3,2.2748481E3,0E0,0E0,0E0,0E0,0E0,0E0],"parents":[2147483647,0,0,1,1,2,2,3,3,5,5,6,6],"right_children":[2,4,6,8,-1,10,12,-1,-1,-1,-1,-1,-1],"split_conditions":[8.16E1,9.38E1,7.94E1,7.7616E1,1.9582798E-1,8.98E1,8.3222E1,-1.1224897E-1,-2.5325257E-2,-2.2186614E-3,-1.4366814E-1,2.4388192E-2,1.19474225E-1],"split_indices":[14,12,12,16,0,14,16,0,0,0,0,0,0],"split_type":[0,0,0,0,0,0,0,0,0,0,0,0,0],"sum_hessian":[1.374E3,6.895E2,6.845E2,6.776E2,1.19E1,2.153E2,4.692E2,3.9E1,6.386E2,1.987E2,1.66E1,4.242E2,4.5E1],"tree_param":{"num_deleted":"0","num_feature":"19","num_nodes":"13","size_leaf_vector":"1"}},{"base_weights":[-4.9843216E-1,-3.5611424E0,1.0429102E0,-1.4799682E0,-5.1322856E0,7.237344E-2,4.2403016E0,-6.758631E-3,-1.3477613E-1,-1.4813584E-1,-5.339086E-2,1.3087524E-2,-4.8215583E-2,1.8864236E-3,9.153021E-2],"categories":[],"categories_nodes":[],"categories_segments":[],"categories_sizes":[],"default_left":[0,0,0,0,0,0,0,0,0,0,0,0,0,0,0],"id":75,"left_children":[1,3,5,7,9,11,13,-1,-1,-1,-1,-1,-1,-1,-1],"loss_changes":[6.3639097E3,1.466686E3,2.7834148E3,1.6765466E3,1.5462661E3,2.5016323E3,2.4666418E3,0E0,0E0,0E0,0E0,0E0,0E0,0E0,0E0],"parents":[2147483647,0,0,1,1,2,2,3,3,4,4,5,5,6,6],"right_children":[2,4,6,8,10,12,14,-1,-1,-1,-1,-1,-1,-1,-1],"split_conditions":[8.0146E1,-4.4E-1,8.68E1,3.059E-1,-3.628E0,2.92E-2,-1.12E0,-6.758631E-3,-1.3477613E-1,-1.4813584E-1,-5.339086E-2,1.3087524E-2,-4.8215583E-2,1.8864236E-3,9.153021E-2],"split_indices":[16,17,14,11,5,4,17,0,0,0,0,0,0,0,0],"split_type":[0,0,0,0,0,0,0,0,0,0,0,0,0,0,0],"sum_hessian":[1.346E3,4.501E2,8.959E2,1.946E2,2.555E2,6.882E2,2.077E2,1.771E2,1.75E1,3.21E1,2.234E2,5.524E2,1.358E2,8.64E1,1.213E2],"tree_param":{"num_deleted":"0","num_feature":"19","num_nodes":"15","size_leaf_vector":"1"}},{"base_weights":[4.003346E-2,-2.3520052E0,1.1271338E0,-4.7326903E0,1.828005E-1,1.9583949E0,-1.5703284E0,-1.3392505E-1,-3.430006E-2,-1.2894116E-1,1.5172496E-2,1.4538105E-1,2.1805286E-2,4.983936E-2,-4.67255E-2],"categories":[],"categories_nodes":[],"categories_segments":[],"categories_sizes":[],"default_left":[0,0,0,0,0,0,0,0,0,0,0,0,0,0,0],"id":76,"left_children":[1,3,5,7,9,11,13,-1,-1,-1,-1,-1,-1,-1,-1],"loss_changes":[3.4459343E3,2.4997476E3,2.0464851E3,2.4754038E3,2.0724575E3,1.6777529E3,2.4429243E3,0E0,0E0,0E0,0E0,0E0,0E0,0E0,0E0],"parents":[2147483647,0,0,1,1,2,2,3,3,4,4,5,5,6,6],"right_children":[2,4,6,8,10,12,14,-1,-1,-1,-1,-1,-1,-1,-1],"split_conditions":[7.88E1,8.0356E1,2.052E-1,0E0,7.36E1,-5.348E0,-1.604E0,-1.3392505E-1,-3.430006E-2,-1.2894116E-1,1.5172496E-2,1.4538105E-1,2.1805286E-2,4.983936E-2,-4.67255E-2],"split_indices":[14,16,11,8,15,5,5,0,0,0,0,0,0,0,0],"split_type":[0,0,0,0,0,0,0,0,0,0,0,0,0,0,0],"sum_hessian":[1.3228E3,4.129E2,9.099E2,2.124E2,2.005E2,6.958E2,2.141E2,5.52E1,1.572E2,1.69E1,1.836E2,1.75E1,6.783E2,5.86E1,1.555E2],"tree_param":{"num_deleted":"0","num_feature":"19","num_nodes":"15","size_leaf_vector":"1"}},{"base_weights":[2.2685419E-1,-7.3098426E0,5.208122E-1,-1.0843277E1,5.856541E-2,1.0032028E0,-2.0834231E0,-2.4178977E-1,-3.4333356E-2,1.4942526E-2,-1.5292102E-1,1.2962765E-1,-4.053609E-2],"categories":[],"categories_nodes":[],"categories_segments":[],"categories_sizes":[],"default_left":[0,0,0,0,0,0,0,0,0,0,0,0,0],"id":77,"left_children":[1,3,5,7,-1,9,11,-1,-1,-1,-1,-1,-1],"loss_changes":[2.9961602E3,2.1872021E3,1.6365485E3,2.5153784E3,0E0,2.2883477E3,2.6977842E3,0E0,0E0,0E0,0E0,0E0,0E0],"parents":[2147483647,0,0,1,1,2,2,3,3,5,5,6,6],"right_children":[2,4,6,8,-1,10,12,-1,-1,-1,-1,-1,-1],"split_conditions":[-3E0,1.322E0,3E-1,1.053E-1,5.856541E-2,1.171E-1,-1E0,-2.4178977E-1,-3.4333356E-2,1.4942526E-2,-1.5292102E-1,1.2962765E-1,-4.053609E-2],"split_indices":[8,5,11,11,0,3,8,0,0,0,0,0,0],"split_type":[0,0,0,0,0,0,0,0,0,0,0,0,0],"sum_hessian":[1.3492E3,4.96E1,1.2996E3,3.83E1,1.13E1,1.0971E3,2.025E2,1.86E1,1.97E1,1.0847E3,1.24E1,1.56E1,1.869E2],"tree_param":{"num_deleted":"0","num_feature":"19","num_nodes":"13","size_leaf_vector":"1"}},{"base_weights":[7.430562E-2,-1.4237597E0,1.8390455E0,6.491069E-1,-3.628703E0,1.4444727E-1,5.489047E0,-8.1052095E-2,1.4585455E-2,-1.5565595E-1,-3.5168324E-2,2.0917311E-2,-6.615182E-2,2.2911914E-1,5.6440882E-2],"categories":[],"categories_nodes":[],"categories_segments":[],"categories_sizes":[],"default_left":[0,0,0,0,0,0,0,0,0,0,0,0,0,0,0],"id":78,"left_children":[1,3,5,7,9,11,13,-1,-1,-1,-1,-1,-1,-1,-1],"loss_changes":[3.559547E3,3.3313523E3,3.8226294E3,1.2829026E3,2.6305952E3,3.3371436E3,2.5572305E3,0E0,0E0,0E0,0E0,0E0,0E0,0E0,0E0],"parents":[2147483647,0,0,1,1,2,2,3,3,4,4,5,5,6,6],"right_children":[2,4,6,8,10,12,14,-1,-1,-1,-1,-1,-1,-1,-1],"split_conditions":[8.22E1,1.2E-1,8.52E1,7.2E1,4E-1,2.052E-1,-1.5044E1,-8.1052095E-2,1.4585455E-2,-1.5565595E-1,-3.5168324E-2,2.0917311E-2,-6.615182E-2,2.2911914E-1,5.6440882E-2],"split_indices":[14,17,12,15,17,11,0,0,0,0,0,0,0,0,0],"split_type":[0,0,0,0,0,0,0,0,0,0,0,0,0,0,0],"sum_hessian":[1.3441E3,7.271E2,6.17E2,3.752E2,3.519E2,4.222E2,1.948E2,2.36E1,3.516E2,3.2E1,3.199E2,3.304E2,9.18E1,1.44E1,1.804E2],"tree_param":{"num_deleted":"0","num_feature":"19","num_nodes":"15","size_leaf_vector":"1"}},{"base_weights":[-1.5176295E-1,-3.5416775E0,8.0034196E-1,-4.0031786E0,8.644767E-2,4.759872E-1,8.338961E0,-8.850528E-2,-2.9626932E-2,-1.0090666E-2,2.4970012E-2,1.6449542E-1,2.2609115E-3],"categories":[],"categories_nodes":[],"categories_segments":[],"categories_sizes":[],"default_left":[0,0,0,0,0,0,0,0,0,0,0,0,0],"id":79,"left_children":[1,3,5,7,-1,9,11,-1,-1,-1,-1,-1,-1],"loss_changes":[4.2226016E3,1.3915266E3,2.493285E3,1.3299868E3,0E0,1.8183926E3,1.532065E3,0E0,0E0,0E0,0E0,0E0,0E0],"parents":[2147483647,0,0,1,1,2,2,3,3,5,5,6,6],"right_children":[2,4,6,8,-1,10,12,-1,-1,-1,-1,-1,-1],"split_conditions":[7.74E1,9.16E1,9.32E1,7.94E1,8.644767E-2,8.24E1,8.2E0,-8.850528E-2,-2.9626932E-2,-1.0090666E-2,2.4970012E-2,1.6449542E-1,2.2609115E-3],"split_indices":[14,12,14,13,0,13,2,0,0,0,0,0,0],"split_type":[0,0,0,0,0,0,0,0,0,0,0,0,0],"sum_hessian":[1.3061E3,2.857E2,1.0204E3,2.741E2,1.16E1,9.795E2,4.09E1,1.001E2,1.74E2,5.271E2,4.524E2,2.6E1,1.49E1],"tree_param":{"num_deleted":"0","num_feature":"19","num_nodes":"13","size_leaf_vector":"1"}},{"base_weights":[-1.4944802E-1,-2.3325424E0,1.0056407E0,-4.8468776E0,3.870893E-1,2.191812E0,-1.4797733E0,1.9753106E-2,-8.166999E-2,-2.6421564E-2,5.4284245E-2,4.060591E-2,-1.7054167E-2,6.442944E-2,-3.8564373E-2],"categories":[],"categories_nodes":[],"categories_segments":[],"categories_sizes":[],"default_left":[0,0,0,0,0,0,0,0,0,0,0,0,0,0,0],"id":80,"left_children":[1,3,5,7,9,11,13,-1,-1,-1,-1,-1,-1,-1,-1],"loss_changes":[3.3996072E3,3.1919475E3,2.6033638E3,2.3524058E3,2.1234365E3,2.0440598E3,2.842905E3,0E0,0E0,0E0,0E0,0E0,0E0,0E0,0E0],"parents":[2147483647,0,0,1,1,2,2,3,3,4,4,5,5,6,6],"right_children":[2,4,6,8,10,12,14,-1,-1,-1,-1,-1,-1,-1,-1],"split_conditions":[8.0128E1,8.04E1,1E0,-9.89E-2,1.49E-2,2.76E-2,-3.036E0,1.9753106E-2,-8.166999E-2,-2.6421564E-2,5.4284245E-2,4.060591E-2,-1.7054167E-2,6.442944E-2,-3.8564373E-2],"split_indices":[16,13,8,11,4,4,5,0,0,0,0,0,0,0,0],"split_type":[0,0,0,0,0,0,0,0,0,0,0,0,0,0,0],"sum_hessian":[1.3459E3,4.653E2,8.806E2,2.413E2,2.24E2,5.962E2,2.844E2,4.62E1,1.951E2,1.372E2,8.68E1,4.675E2,1.287E2,5.35E1,2.309E2],"tree_param":{"num_deleted":"0","num_feature":"19","num_nodes":"15","size_leaf_vector":"1"}},{"base_weights":[2.881996E-1,-2.9739552E0,1.4070283E0,-7.7885807E-1,-4.9422035E0,-2.1778078E0,2.0698771E0,-3.6857802E-2,6.1701532E-2,-1.3792689E-1,-1.6134465E-2,-1.781783E-2,-1.5566048E-1,3.4097947E-2,-3.953539E-2],"categories":[],"categories_nodes":[],"categories_segments":[],"categories_sizes":[],"default_left":[0,0,0,0,0,0,0,0,0,0,0,0,0,0,0],"id":81,"left_children":[1,3,5,7,9,11,13,-1,-1,-1,-1,-1,-1,-1,-1],"loss_changes":[4.8538994E3,1.4630381E3,2.3578813E3,1.9069608E3,3.8062383E3,1.1990361E3,2.5280842E3,0E0,0E0,0E0,0E0,0E0,0E0,0E0,0E0],"parents":[2147483647,0,0,1,1,2,2,3,3,4,4,5,5,6,6],"right_children":[2,4,6,8,10,12,14,-1,-1,-1,-1,-1,-1,-1,-1],"split_conditions":[7.74E1,-3.6E-1,-5.56E-2,-8E-3,7.96E1,9E1,7.96E-2,-3.6857802E-2,6.1701532E-2,-1.3792689E-1,-1.6134465E-2,-1.781783E-2,-1.5566048E-1,3.4097947E-2,-3.953539E-2],"split_indices":[12,17,11,6,13,13,3,0,0,0,0,0,0,0,0],"split_type":[0,0,0,0,0,0,0,0,0,0,0,0,0,0,0],"sum_hessian":[1.3274E3,3.385E2,9.889E2,1.608E2,1.777E2,1.539E2,8.35E2,1.174E2,4.34E1,6.82E1,1.095E2,1.438E2,1.01E1,7.503E2,8.47E1],"tree_param":{"num_deleted":"0","num_feature":"19","num_nodes":"15","size_leaf_vector":"1"}},{"base_weights":[-1.1537811E-1,-4.083598E0,1.0068291E0,-5.9421597E0,9.581388E-2,5.9625936E-1,1.1355864E1,-1.3219851E-1,-4.9041796E-2,1.2021924E-1,-2.901773E-2,-4.839109E-5,6.265817E-2,2.2412038E-1,7.585525E-2],"categories":[],"categories_nodes":[],"categories_segments":[],"categories_sizes":[],"default_left":[0,0,0,0,0,0,0,0,0,0,0,0,0,0,0],"id":82,"left_children":[1,3,5,7,9,11,13,-1,-1,-1,-1,-1,-1,-1,-1],"loss_changes":[5.9928477E3,2.305108E3,4.450001E3,1.8516855E3,2.042446E3,2.5962427E3,1.2069521E3,0E0,0E0,0E0,0E0,0E0,0E0,0E0,0E0],"parents":[2147483647,0,0,1,1,2,2,3,3,4,4,5,5,6,6],"right_children":[2,4,6,8,10,12,14,-1,-1,-1,-1,-1,-1,-1,-1],"split_conditions":[7.9402E1,8.3E1,9.3E1,7.68E1,-2.44E0,8.96E1,9.42E1,-1.3219851E-1,-4.9041796E-2,1.2021924E-1,-2.901773E-2,-4.839109E-5,6.265817E-2,2.2412038E-1,7.585525E-2],"split_indices":[16,12,14,14,17,12,14,0,0,0,0,0,0,0,0],"split_type":[0,0,0,0,0,0,0,0,0,0,0,0,0,0,0],"sum_hessian":[1.3435E3,2.955E2,1.048E3,2.042E2,9.13E1,1.0092E3,3.88E1,6.55E1,1.387E2,1.78E1,7.35E1,8.862E2,1.23E2,1.71E1,2.17E1],"tree_param":{"num_deleted":"0","num_feature":"19","num_nodes":"15","size_leaf_vector":"1"}},{"base_weights":[1.274172E-1,1.0856363E1,-6.2210575E-2,3.3486065E-2,2.2054638E-1,-1.0050389E0,2.2574317E0,-1.0052299E-1,-8.984139E-3,1.3557997E-2,9.691545E-2],"categories":[],"categories_nodes":[],"categories_segments":[],"categories_sizes":[],"default_left":[0,0,0,0,0,0,0,0,0,0,0],"id":83,"left_children":[1,3,5,-1,-1,7,9,-1,-1,-1,-1],"loss_changes":[2.7259512E3,1.1599695E3,2.8837744E3,0E0,0E0,1.9474626E3,2.412656E3,0E0,0E0,0E0,0E0],"parents":[2147483647,0,0,1,1,2,2,5,5,6,6],"right_children":[2,4,6,-1,-1,8,10,-1,-1,-1,-1],"split_conditions":[-2.9952E1,2.96E-2,8.52E1,3.3486065E-2,2.2054638E-1,7.22E1,8.78E1,-1.0052299E-1,-8.984139E-3,1.3557997E-2,9.691545E-2],"split_indices":[0,4,12,0,0,14,14,0,0,0,0],"split_type":[0,0,0,0,0,0,0,0,0,0,0],"sum_hessian":[1.3383E3,2.21E1,1.3162E3,1.03E1,1.18E1,9.363E2,3.799E2,3.89E1,8.974E2,3.107E2,6.92E1],"tree_param":{"num_deleted":"0","num_feature":"19","num_nodes":"11","size_leaf_vector":"1"}},{"base_weights":[2.5890028E-1,-3.8861976E0,9.5905036E-1,-2.0032153E0,-9.38417E0,-1.5212721E0,2.262486E0,-3.3424566E-3,-1.2866852E-1,-1.9277336E-1,-4.224028E-2,-4.2489752E-2,5.2652437E-2,1.3274206E-2,6.198093E-2],"categories":[],"categories_nodes":[],"categories_segments":[],"categories_sizes":[],"default_left":[0,0,0,0,0,0,0,0,0,0,0,0,0,0,0],"id":84,"left_children":[1,3,5,7,9,11,13,-1,-1,-1,-1,-1,-1,-1,-1],"loss_changes":[3.8090442E3,1.9415801E3,3.632905E3,1.9914661E3,1.5905205E3,3.906957E3,2.3136543E3,0E0,0E0,0E0,0E0,0E0,0E0,0E0,0E0],"parents":[2147483647,0,0,1,1,2,2,3,3,4,4,5,5,6,6],"right_children":[2,4,6,8,10,12,14,-1,-1,-1,-1,-1,-1,-1,-1],"split_conditions":[7.5E1,3.724E0,7.92E1,7.44E1,8.42E1,1.1E1,8.48E1,-3.3424566E-3,-1.2866852E-1,-1.9277336E-1,-4.224028E-2,-4.2489752E-2,5.2652437E-2,1.3274206E-2,6.198093E-2],"split_indices":[15,5,13,15,12,2,12,0,0,0,0,0,0,0,0],"split_type":[0,0,0,0,0,0,0,0,0,0,0,0,0,0,0],"sum_hessian":[1.3098E3,1.885E2,1.1213E3,1.416E2,4.69E1,3.862E2,7.351E2,1.173E2,2.43E1,2.35E1,2.34E1,2.934E2,9.28E1,4.98E2,2.371E2],"tree_param":{"num_deleted":"0","num_feature":"19","num_nodes":"15","size_leaf_vector":"1"}},{"base_weights":[-1.9933964E-1,-4.3174872E0,8.18864E-1,-7.1450157E0,1.421475E0,5.503101E-1,1.3703894E1,-1.0286881E-1,5.4448165E-2,5.957338E-2,-3.4014236E-2,-9.379658E-3,2.510667E-2,2.6156786E-1,7.411991E-2],"categories":[],"categories_nodes":[],"categories_segments":[],"categories_sizes":[],"default_left":[0,0,0,0,0,0,0,0,0,0,0,0,0,0,0],"id":85,"left_children":[1,3,5,7,9,11,13,-1,-1,-1,-1,-1,-1,-1,-1],"loss_changes":[5.587979E3,4.298588E3,3.6891216E3,1.7835117E3,1.1687743E3,1.886834E3,1.01304346E3,0E0,0E0,0E0,0E0,0E0,0E0,0E0,0E0],"parents":[2147483647,0,0,1,1,2,2,3,3,4,4,5,5,6,6],"right_children":[2,4,6,8,10,12,14,-1,-1,-1,-1,-1,-1,-1,-1],"split_conditions":[7.9292E1,8.18E1,9.2E0,8.72E1,7.8776E1,8.1274E1,8.1274E1,-1.0286881E-1,5.4448165E-2,5.957338E-2,-3.4014236E-2,-9.379658E-3,2.510667E-2,2.6156786E-1,7.411991E-2],"split_indices":[16,15,7,13,16,16,16,0,0,0,0,0,0,0,0],"split_type":[0,0,0,0,0,0,0,0,0,0,0,0,0,0,0],"sum_hessian":[1.3305E3,2.63E2,1.0675E3,1.76E2,8.7E1,1.0469E3,2.06E1,1.639E2,1.21E1,4.85E1,3.85E1,5.479E2,4.99E2,1.02E1,1.04E1],"tree_param":{"num_deleted":"0","num_feature":"19","num_nodes":"15","size_leaf_vector":"1"}},{"base_weights":[-1.1290524E-1,-1.2431027E0,2.1058915E0,5.2296704E-1,-2.42916E0,-1.3202406E-1,2.5032032E0,-4.8326913E-2,6.3025996E-2,7.7242665E-2,-3.7705436E-2,1.6011223E-2,8.876834E-2],"categories":[],"categories_nodes":[],"categories_segments":[],"categories_sizes":[],"default_left":[0,0,0,0,0,0,0,0,0,0,0,0,0],"id":86,"left_children":[1,3,5,7,9,-1,11,-1,-1,-1,-1,-1,-1],"loss_changes":[3.2609626E3,1.8059731E3,2.189746E3,6.54321E3,2.2262334E3,0E0,2.3506504E3,0E0,0E0,0E0,0E0,0E0,0E0],"parents":[2147483647,0,0,1,1,2,2,3,3,4,4,6,6],"right_children":[2,4,6,8,10,-1,12,-1,-1,-1,-1,-1,-1],"split_conditions":[8.144E1,-7.14E-1,7.28E1,7.96E1,0E0,-1.3202406E-1,3.2E0,-4.8326913E-2,6.3025996E-2,7.7242665E-2,-3.7705436E-2,1.6011223E-2,8.876834E-2],"split_indices":[16,5,14,14,9,0,17,0,0,0,0,0,0],"split_type":[0,0,0,0,0,0,0,0,0,0,0,0,0],"sum_hessian":[1.298E3,8.603E2,4.377E2,3.459E2,5.144E2,1.27E1,4.25E2,1.75E2,1.709E2,2.84E1,4.86E2,3.319E2,9.31E1],"tree_param":{"num_deleted":"0","num_feature":"19","num_nodes":"13","size_leaf_vector":"1"}},{"base_weights":[2.7090308E-1,-2.1319267E-1,7.266595E0,-1.3257521E0,1.836569E0,1.3083403E1,2.8606615E0,5.2351393E-3,-4.715258E-2,7.917795E-3,1.0716737E-1,3.998407E-2,2.4283336E-1,-1.6359325E-2,1.3013096E-1],"categories":[],"categories_nodes":[],"categories_segments":[],"categories_sizes":[],"default_left":[0,0,0,0,0,0,0,0,0,0,0,0,0,0,0],"id":87,"left_children":[1,3,5,7,9,11,13,-1,-1,-1,-1,-1,-1,-1,-1],"loss_changes":[4.540412E3,2.863872E3,2.1799922E3,3.3108357E3,3.5023687E3,2.0836719E3,1.5444456E3,0E0,0E0,0E0,0E0,0E0,0E0,0E0,0E0],"parents":[2147483647,0,0,1,1,2,2,3,3,4,4,5,5,6,6],"right_children":[2,4,6,8,10,12,14,-1,-1,-1,-1,-1,-1,-1,-1],"split_conditions":[9.06E1,1.032E0,9.88E-1,-1.092E0,8.2362E1,-4.8E-1,8.1784E1,5.2351393E-3,-4.715258E-2,7.917795E-3,1.0716737E-1,3.998407E-2,2.4283336E-1,-1.6359325E-2,1.3013096E-1],"split_indices":[14,5,5,5,16,17,16,0,0,0,0,0,0,0,0],