{"learner":{"attributes":{"scikit_learn":"{\"_estimator_type\": \"regressor\"}"},"feature_names":[],"feature_types":[],"gradient_booster":{"model":{"cats":{"enc":[],"feature_segments":[],"sorted_idx":[]},"gbtree_model_param":{"num_parallel_tree":"1","num_trees":"350"},"iteration_indptr":[0,1,2,3,4,5,6,7,8,9,10,11,12,13,14,15,16,17,18,19,20,21,22,23,24,25,26,27,28,29,30,31,32,33,34,35,36,37,38,39,40,41,42,43,44,45,46,47,48,49,50,51,52,53,54,55,56,57,58,59,60,61,62,63,64,65,66,67,68,69,70,71,72,73,74,75,76,77,78,79,80,81,82,83,84,85,86,87,88,89,90,91,92,93,94,95,96,97,98,99,100,101,102,103,104,105,106,107,108,109,110,111,112,113,114,115,116,117,118,119,120,121,122,123,124,125,126,127,128,129,130,131,132,133,134,135,136,137,138,139,140,141,142,143,144,145,146,147,148,149,150,151,152,153,154,155,156,157,158,159,160,161,162,163,164,165,166,167,168,169,170,171,172,173,174,175,176,177,178,179,180,181,182,183,184,185,186,187,188,189,190,191,192,193,194,195,196,197,198,199,200,201,202,203,204,205,206,207,208,209,210,211,212,213,214,215,216,217,218,219,220,221,222,223,224,225,226,227,228,229,230,231,232,233,234,235,236,237,238,239,240,241,242,243,244,245,246,247,248,249,250,251,252,253,254,255,256,257,258,259,260,261,262,263,264,265,266,267,268,269,270,271,272,273,274,275,276,277,278,279,280,281,282,283,284,285,286,287,288,289,290,291,292,293,294,295,296,297,298,299,300,301,302,303,304,305,306,307,308,309,310,311,312,313,314,315,316,317,318,319,320,321,322,323,324,325,326,327,328,329,330,331,332,333,334,335,336,337,338,339,340,341,342,343,344,345,346,347,348,349,350],"tree_info":[0,0,0,0,0,0,0,0,0,0,0,0,0,0,0,0,0,0,0,0,0,0,0,0,0,0,0,0,0,0,0,0,0,0,0,0,0,0,0,0,0,0,0,0,0,0,0,0,0,0,0,0,0,0,0,0,0,0,0,0,0,0,0,0,0,0,0,0,0,0,0,0,0,0,0,0,0,0,0,0,0,0,0,0,0,0,0,0,0,0,0,0,0,0,0,0,0,0,0,0,0,0,0,0,0,0,0,0,0,0,0,0,0,0,0,0,0,0,0,0,0,0,0,0,0,0,0,0,0,0,0,0,0,0,0,0,0,0,0,0,0,0,0,0,0,0,0,0,0,0,0,0,0,0,0,0,0,0,0,0,0,0,0,0,0,0,0,0,0,0,0,0,0,0,0,0,0,0,0,0,0,0,0,0,0,0,0,0,0,0,0,0,0,0,0,0,0,0,0,0,0,0,0,0,0,0,0,0,0,0,0,0,0,0,0,0,0,0,0,0,0,0,0,0,0,0,0,0,0,0,0,0,0,0,0,0,0,0,0,0,0,0,0,0,0,0,0,0,0,0,0,0,0,0,0,0,0,0,0,0,0,0,0,0,0,0,0,0,0,0,0,0,0,0,0,0,0,0,0,0,0,0,0,0,0,0,0,0,0,0,0,0,0,0,0,0,0,0,0,0,0,0,0,0,0,0,0,0,0,0,0,0,0,0,0,0,0,0,0,0,0,0,0,0,0,0,0,0,0,0,0,0,0,0,0,0,0,0,0,0,0,0,0,0,0,0,0,0,0,0],"trees":[{"base_weights":[-1.2348016E-1,-5.751776E0,4.09092E0,-7.9719048E0,-3.7064204E0,1.6912444E0,9.29706E0,1.061892E-1,-1.1621281E-1,-6.3987084E-2,1.587399E-2,8.777119E-3,5.5487767E-2,9.633687E-2,1.6718172E-1],"categories":[],"categories_nodes":[],"categories_segments":[],"categories_sizes":[],"default_left":[0,0,0,0,0,0,0,0,0,0,0,0,0,0,0],"id":0,"left_children":[1,3,5,7,9,11,13,-1,-1,-1,-1,-1,-1,-1,-1],"loss_changes":[4.4532887E4,3.5308008E3,1.3349496E4,2.4277227E3,1.844856E3,1.7878508E3,1.8383848E3,0E0,0E0,0E0,0E0,0E0,0E0,0E0,0E0],"parents":[2147483647,0,0,1,1,2,2,3,3,4,4,5,5,6,6],"right_children":[2,4,6,8,10,12,14,-1,-1,-1,-1,-1,-1,-1,-1],"split_conditions":[-3.145E1,-1.4911E2,1.6829E2,-4E0,8.62E1,7.812E0,2.4276E2,1.061892E-1,-1.1621281E-1,-6.3987084E-2,1.587399E-2,8.777119E-3,5.5487767E-2,9.633687E-2,1.6718172E-1],"split_indices":[1,1,1,8,15,22,1,0,0,0,0,0,0,0,0],"split_type":[0,0,0,0,0,0,0,0,0,0,0,0,0,0,0],"sum_hessian":[1.8694E3,7.998E2,1.0696E3,3.779E2,4.219E2,7.358E2,3.338E2,6.8E0,3.711E2,3.57E2,6.49E1,5.062E2,2.296E2,1.847E2,1.491E2],"tree_param":{"num_deleted":"0","num_feature":"27","num_nodes":"15","size_leaf_vector":"1"}},{"base_weights":[-8.7727174E-2,-5.794754E0,4.0855937E0,-8.553654E0,-3.3260472E0,2.3121185E0,8.933496E0,-1.3710828E-1,-5.2552417E-2,-5.4923467E-2,4.3222833E-2,1.8048933E-2,6.271898E-2,9.045984E-2,1.5972368E-1],"categories":[],"categories_nodes":[],"categories_segments":[],"categories_sizes":[],"default_left":[0,0,0,0,0,0,0,0,0,0,0,0,0,0,0],"id":1,"left_children":[1,3,5,7,9,11,13,-1,-1,-1,-1,-1,-1,-1,-1],"loss_changes":[4.522081E4,5.3469766E3,9.345898E3,2.1566582E3,1.745207E3,1.7752666E3,1.5033711E3,0E0,0E0,0E0,0E0,0E0,0E0,0E0,0E0],"parents":[2147483647,0,0,1,1,2,2,3,3,4,4,5,5,6,6],"right_children":[2,4,6,8,10,12,14,-1,-1,-1,-1,-1,-1,-1,-1],"split_conditions":[-3.145E1,-1.4911E2,1.8762E2,-5E-1,5.09E-2,4.3E0,2.5941E2,-1.3710828E-1,-5.2552417E-2,-5.4923467E-2,4.3222833E-2,1.8048933E-2,6.271898E-2,9.045984E-2,1.5972368E-1],"split_indices":[1,1,1,20,6,20,1,0,0,0,0,0,0,0,0],"split_type":[0,0,0,0,0,0,0,0,0,0,0,0,0,0,0],"sum_hessian":[1.8906E3,7.979E2,1.0927E3,3.721E2,4.258E2,8.044E2,2.883E2,2.901E2,8.2E1,3.901E2,3.57E1,5.534E2,2.51E2,1.538E2,1.345E2],"tree_param":{"num_deleted":"0","num_feature":"27","num_nodes":"15","size_leaf_vector":"1"}},{"base_weights":[1.9656116E-1,-5.306424E0,4.185581E0,-9.700692E0,-4.327638E0,2.207465E0,8.353883E0,-1.5501894E-1,-5.1960004E-3,1.579448E-1,-6.338811E-2,1.357459E-2,6.806347E-2,1.4645961E-2,1.246093E-1],"categories":[],"categories_nodes":[],"categories_segments":[],"categories_sizes":[],"default_left":[0,0,0,0,0,0,0,0,0,0,0,0,0,0,0],"id":2,"left_children":[1,3,5,7,9,11,13,-1,-1,-1,-1,-1,-1,-1,-1],"loss_changes":[4.0569246E4,3.1711504E3,8.75909E3,1.8138359E3,2.4166768E3,2.3966738E3,1.4288848E3,0E0,0E0,0E0,0E0,0E0,0E0,0E0,0E0],"parents":[2147483647,0,0,1,1,2,2,3,3,4,4,5,5,6,6],"right_children":[2,4,6,8,10,12,14,-1,-1,-1,-1,-1,-1,-1,-1],"split_conditions":[-3.429E1,-2.6338E2,1.6609E2,1.3656E1,-6E0,4.3E0,-9.2E-1,-1.5501894E-1,-5.1960004E-3,1.579448E-1,-6.338811E-2,1.357459E-2,6.806347E-2,1.4645961E-2,1.246093E-1],"split_indices":[1,1,1,23,8,20,0,0,0,0,0,0,0,0,0],"split_type":[0,0,0,0,0,0,0,0,0,0,0,0,0,0,0],"sum_hessian":[1.84E3,7.727E2,1.0673E3,1.342E2,6.385E2,7.28E2,3.393E2,1.158E2,1.84E1,6E0,6.325E2,5.02E2,2.26E2,2.6E1,3.133E2],"tree_param":{"num_deleted":"0","num_feature":"27","num_nodes":"15","size_leaf_vector":"1"}},{"base_weights":[-5.7477977E-2,-5.6282706E0,3.916148E0,-8.236153E0,-3.2715058E0,1.9682225E0,8.128858E0,1.05234526E-1,-1.20100535E-1,-5.1904913E-2,5.8014072E-2,1.7697057E-2,9.332101E-2,-3.9239693E-2,1.19256824E-1],"categories":[],"categories_nodes":[],"categories_segments":[],"categories_sizes":[],"default_left":[0,0,0,0,0,0,0,0,0,0,0,0,0,0,0],"id":3,"left_children":[1,3,5,7,9,11,13,-1,-1,-1,-1,-1,-1,-1,-1],"loss_changes":[4.1768094E4,4.719172E3,8.972994E3,2.4794062E3,1.4711958E3,2.4702349E3,1.7149277E3,0E0,0E0,0E0,0E0,0E0,0E0,0E0,0E0],"parents":[2147483647,0,0,1,1,2,2,3,3,4,4,5,5,6,6],"right_children":[2,4,6,8,10,12,14,-1,-1,-1,-1,-1,-1,-1,-1],"split_conditions":[-3.429E1,-1.4911E2,1.6609E2,-4E0,6.45E-2,1.1414E1,-3E-1,1.05234526E-1,-1.20100535E-1,-5.1904913E-2,5.8014072E-2,1.7697057E-2,9.332101E-2,-3.9239693E-2,1.19256824E-1],"split_indices":[1,1,1,8,3,19,26,0,0,0,0,0,0,0,0],"split_type":[0,0,0,0,0,0,0,0,0,0,0,0,0,0,0],"sum_hessian":[1.8788E3,7.815E2,1.0973E3,3.662E2,4.153E2,7.544E2,3.429E2,6.8E0,3.594E2,3.934E2,2.19E1,6.617E2,9.27E1,1.2E1,3.309E2],"tree_param":{"num_deleted":"0","num_feature":"27","num_nodes":"15","size_leaf_vector":"1"}},{"base_weights":[-4.436567E-2,-5.6174684E0,3.9275174E0,-7.6716666E0,-3.6760046E0,1.8749759E0,8.4984455E0,-1.178409E-1,-5.792901E-2,-5.993601E-2,1.911497E-2,1.699155E-2,7.381298E-2,9.423202E-2,1.4578246E-1],"categories":[],"categories_nodes":[],"categories_segments":[],"categories_sizes":[],"default_left":[0,0,0,0,0,0,0,0,0,0,0,0,0,0,0],"id":4,"left_children":[1,3,5,7,9,11,13,-1,-1,-1,-1,-1,-1,-1,-1],"loss_changes":[4.1335527E4,2.9849922E3,1.0165201E4,8.855176E2,1.305415E3,1.6739202E3,8.6147266E2,0E0,0E0,0E0,0E0,0E0,0E0,0E0,0E0],"parents":[2147483647,0,0,1,1,2,2,3,3,4,4,5,5,6,6],"right_children":[2,4,6,8,10,12,14,-1,-1,-1,-1,-1,-1,-1,-1],"split_conditions":[-3.429E1,-1.4911E2,1.6829E2,3.024E0,4.33E-2,1.0628E1,2.4276E2,-1.178409E-1,-5.792901E-2,-5.993601E-2,1.911497E-2,1.699155E-2,7.381298E-2,9.423202E-2,1.4578246E-1],"split_indices":[1,1,1,5,6,19,1,0,0,0,0,0,0,0,0],"split_type":[0,0,0,0,0,0,0,0,0,0,0,0,0,0,0],"sum_hessian":[1.8593E3,7.73E2,1.0863E3,3.698E2,4.032E2,7.536E2,3.327E2,2.979E2,7.19E1,3.594E2,4.38E1,6.369E2,1.167E2,1.858E2,1.469E2],"tree_param":{"num_deleted":"0","num_feature":"27","num_nodes":"15","size_leaf_vector":"1"}},{"base_weights":[-1.7707674E-1,-3.840162E0,2.3495443E0,-1.2615471E0,-6.1896605E0,6.4531775E0,2.0042273E-1,4.201488E-2,-3.6910616E-2,-9.049098E-2,6.1804634E-2,6.7845285E-2,1.3453147E-1,-3.5094354E-2,3.1579986E-2],"categories":[],"categories_nodes":[],"categories_segments":[],"categories_sizes":[],"default_left":[0,0,0,0,0,0,0,0,0,0,0,0,0,0,0],"id":5,"left_children":[1,3,5,7,9,11,13,-1,-1,-1,-1,-1,-1,-1,-1],"loss_changes":[1.736818E4,4.6088545E3,9.79062E3,2.22661E3,1.3975684E3,1.7459082E3,4.137745E3,0E0,0E0,0E0,0E0,0E0,0E0,0E0,0E0],"parents":[2147483647,0,0,1,1,2,2,3,3,4,4,5,5,6,6],"right_children":[2,4,6,8,10,12,14,-1,-1,-1,-1,-1,-1,-1,-1],"split_conditions":[-1.5E0,8.12E1,-6.936E0,-4.356E0,8.571E-1,6.3E0,0E0,4.201488E-2,-3.6910616E-2,-9.049098E-2,6.1804634E-2,6.7845285E-2,1.3453147E-1,-3.5094354E-2,3.1579986E-2],"split_indices":[20,14,23,5,10,20,18,0,0,0,0,0,0,0,0],"split_type":[0,0,0,0,0,0,0,0,0,0,0,0,0,0,0],"sum_hessian":[1.8686E3,7.619E2,1.1067E3,3.662E2,3.957E2,3.776E2,7.291E2,8.85E1,2.777E2,3.863E2,9.4E0,2.592E2,1.184E2,3.144E2,4.147E2],"tree_param":{"num_deleted":"0","num_feature":"27","num_nodes":"15","size_leaf_vector":"1"}},{"base_weights":[-1.4410263E-1,-4.4278636E0,4.304719E0,-6.604339E0,-2.7361226E0,2.6421702E0,7.590999E0,-1.0777663E-1,-5.0271526E-2,1.2366488E-1,-4.367251E-2,8.458817E-2,2.1198835E-2,1.2371435E-1,6.108637E-2],"categories":[],"categories_nodes":[],"categories_segments":[],"categories_sizes":[],"default_left":[0,0,0,0,0,0,0,0,0,0,0,0,0,0,0],"id":6,"left_children":[1,3,5,7,9,11,13,-1,-1,-1,-1,-1,-1,-1,-1],"loss_changes":[3.5927215E4,3.4629805E3,4.9719062E3,1.2968281E3,2.632308E3,2.3459927E3,1.1137949E3,0E0,0E0,0E0,0E0,0E0,0E0,0E0,0E0],"parents":[2147483647,0,0,1,1,2,2,3,3,4,4,5,5,6,6],"right_children":[2,4,6,8,10,12,14,-1,-1,-1,-1,-1,-1,-1,-1],"split_conditions":[3.29E-1,-9.37E0,1.1522E1,-6.1E-1,-3E0,-4.05E0,2E-1,-1.0777663E-1,-5.0271526E-2,1.2366488E-1,-4.367251E-2,8.458817E-2,2.1198835E-2,1.2371435E-1,6.108637E-2],"split_indices":[19,19,19,22,8,24,11,0,0,0,0,0,0,0,0],"split_type":[0,0,0,0,0,0,0,0,0,0,0,0,0,0,0],"sum_hessian":[1.8771E3,9.563E2,9.208E2,4.131E2,5.432E2,6.163E2,3.045E2,2.956E2,1.175E2,1.51E1,5.281E2,1.476E2,4.687E2,2.124E2,9.21E1],"tree_param":{"num_deleted":"0","num_feature":"27","num_nodes":"15","size_leaf_vector":"1"}},{"base_weights":[-1.6176699E-1,-5.2268744E0,3.5563667E0,-7.4267426E0,-3.1869273E0,1.6278037E0,7.6836333E0,-1.21137775E-1,-4.1125394E-2,3.1660847E-2,-5.3570498E-2,4.676404E-2,-1.6672438E-3,1.4046556E-1,8.3833024E-2],"categories":[],"categories_nodes":[],"categories_segments":[],"categories_sizes":[],"default_left":[0,0,0,0,0,0,0,0,0,0,0,0,0,0,0],"id":7,"left_children":[1,3,5,7,9,11,13,-1,-1,-1,-1,-1,-1,-1,-1],"loss_changes":[3.583927E4,3.5193066E3,8.68554E3,2.0707324E3,1.5570449E3,2.274191E3,1.1473008E3,0E0,0E0,0E0,0E0,0E0,0E0,0E0,0E0],"parents":[2147483647,0,0,1,1,2,2,3,3,4,4,5,5,6,6],"right_children":[2,4,6,8,10,12,14,-1,-1,-1,-1,-1,-1,-1,-1],"split_conditions":[-3.429E1,-1.4911E2,1.6829E2,-5E-1,-9.036E0,-2.3E-3,-2.49E-2,-1.21137775E-1,-4.1125394E-2,3.1660847E-2,-5.3570498E-2,4.676404E-2,-1.6672438E-3,1.4046556E-1,8.3833024E-2],"split_indices":[1,1,1,20,23,4,4,0,0,0,0,0,0,0,0],"split_type":[0,0,0,0,0,0,0,0,0,0,0,0,0,0,0],"sum_hessian":[1.895E3,8.015E2,1.0935E3,3.805E2,4.21E2,7.491E2,3.444E2,2.938E2,8.67E1,4.41E1,3.769E2,3.749E2,3.742E2,1.332E2,2.112E2],"tree_param":{"num_deleted":"0","num_feature":"27","num_nodes":"15","size_leaf_vector":"1"}},{"base_weights":[1.4913154E-1,-3.712785E0,4.542469E0,-6.3594823E0,-1.8506738E0,3.1632557E0,7.434373E0,-1.0433394E-1,-2.937884E-2,6.1887857E-2,-3.2797392E-2,9.206158E-2,2.7548231E-2,6.630768E-2,1.2220005E-1],"categories":[],"categories_nodes":[],"categories_segments":[],"categories_sizes":[],"default_left":[0,0,0,0,0,0,0,0,0,0,0,0,0,0,0],"id":8,"left_children":[1,3,5,7,9,11,13,-1,-1,-1,-1,-1,-1,-1,-1],"loss_changes":[3.2195293E4,4.929874E3,3.4453652E3,1.923377E3,1.9323989E3,2.4307954E3,8.429365E2,0E0,0E0,0E0,0E0,0E0,0E0,0E0,0E0],"parents":[2147483647,0,0,1,1,2,2,3,3,4,4,5,5,6,6],"right_children":[2,4,6,8,10,12,14,-1,-1,-1,-1,-1,-1,-1,-1],"split_conditions":[1.07E0,-9.37E0,1.2514E1,9.376E0,-8.112E0,-4.05E0,-4.35E0,-1.0433394E-1,-2.937884E-2,6.1887857E-2,-3.2797392E-2,9.206158E-2,2.7548231E-2,6.630768E-2,1.2220005E-1],"split_indices":[19,19,19,23,19,24,24,0,0,0,0,0,0,0,0],"split_type":[0,0,0,0,0,0,0,0,0,0,0,0,0,0,0],"sum_hessian":[1.8895E3,1.0059E3,8.836E2,4.114E2,5.945E2,6.04E2,2.796E2,3.229E2,8.85E1,4.16E1,5.529E2,1.502E2,4.538E2,9.9E1,1.806E2],"tree_param":{"num_deleted":"0","num_feature":"27","num_nodes":"15","size_leaf_vector":"1"}},{"base_weights":[6.1693066E-3,-5.3761597E0,3.8906555E0,-7.732447E0,-3.0909216E0,1.8470882E0,8.253904E0,8.872557E-2,-1.1273126E-1,-5.6301214E-2,9.445475E-3,1.6798548E-2,7.20855E-2,1.1959943E-1,-3.984909E-2],"categories":[],"categories_nodes":[],"categories_segments":[],"categories_sizes":[],"default_left":[0,0,0,0,0,0,0,0,0,0,0,0,0,0,0],"id":9,"left_children":[1,3,5,7,9,11,13,-1,-1,-1,-1,-1,-1,-1,-1],"loss_changes":[3.9025742E4,4.1166055E3,9.605227E3,2.118873E3,1.4539285E3,1.5616284E3,1.346E3,0E0,0E0,0E0,0E0,0E0,0E0,0E0,0E0],"parents":[2147483647,0,0,1,1,2,2,3,3,4,4,5,5,6,6],"right_children":[2,4,6,8,10,12,14,-1,-1,-1,-1,-1,-1,-1,-1],"split_conditions":[-3.429E1,-1.4911E2,1.6609E2,-4.5E-1,2.98E-2,9.6E0,8.302E0,8.872557E-2,-1.1273126E-1,-5.6301214E-2,9.445475E-3,1.6798548E-2,7.20855E-2,1.1959943E-1,-3.984909E-2],"split_indices":[1,1,1,26,3,2,23,0,0,0,0,0,0,0,0],"split_type":[0,0,0,0,0,0,0,0,0,0,0,0,0,0,0],"sum_hessian":[1.8585E3,7.784E2,1.0801E3,3.785E2,3.999E2,7.395E2,3.406E2,7.6000004E0,3.709E2,3.193E2,8.06E1,6.244E2,1.151E2,3.318E2,8.8E0],"tree_param":{"num_deleted":"0","num_feature":"27","num_nodes":"15","size_leaf_vector":"1"}},{"base_weights":[4.7120536E-3,-4.3237724E0,4.4182563E0,-6.6488333E0,-2.6192944E0,2.921497E0,7.8529525E0,-9.7686574E-2,4.3559592E-2,8.959529E-2,-4.1521166E-2,2.891771E-2,8.418936E-2,5.9011336E-3,1.1573196E-1],"categories":[],"categories_nodes":[],"categories_segments":[],"categories_sizes":[],"default_left":[0,0,0,0,0,0,0,0,0,0,0,0,0,0,0],"id":10,"left_children":[1,3,5,7,9,11,13,-1,-1,-1,-1,-1,-1,-1,-1],"loss_changes":[3.5725957E4,3.6712637E3,4.667465E3,1.4794727E3,1.8694026E3,1.6696006E3,9.1550586E2,0E0,0E0,0E0,0E0,0E0,0E0,0E0,0E0],"parents":[2147483647,0,0,1,1,2,2,3,3,4,4,5,5,6,6],"right_children":[2,4,6,8,10,12,14,-1,-1,-1,-1,-1,-1,-1,-1],"split_conditions":[3.29E-1,-9.663E0,1.2514E1,8.98E1,7.2E1,7.778E-1,-7.2E-2,-9.7686574E-2,4.3559592E-2,8.959529E-2,-4.1521166E-2,2.891771E-2,8.418936E-2,5.9011336E-3,1.1573196E-1],"split_indices":[19,19,19,12,13,10,22,0,0,0,0,0,0,0,0],"split_type":[0,0,0,0,0,0,0,0,0,0,0,0,0,0,0],"sum_hessian":[1.862E3,9.401E2,9.219E2,3.927E2,5.474E2,6.473E2,2.746E2,3.799E2,1.28E1,1.83E1,5.291E2,5.143E2,1.33E2,1.61E1,2.585E2],"tree_param":{"num_deleted":"0","num_feature":"27","num_nodes":"15","size_leaf_vector":"1"}},{"base_weights":[2.030349E-3,-5.2798133E0,3.8385758E0,1.6639861E-1,-5.503738E0,1.9599695E0,7.887152E0,-1.0890815E-1,-4.7623593E-2,1.9875504E-2,9.566828E-2,-3.6950964E-2,1.1551056E-1],"categories":[],"categories_nodes":[],"categories_segments":[],"categories_sizes":[],"default_left":[0,0,0,0,0,0,0,0,0,0,0,0,0],"id":11,"left_children":[1,3,5,-1,7,9,11,-1,-1,-1,-1,-1,-1],"loss_changes":[3.850738E4,3.347836E3,8.309409E3,0E0,3.7093965E3,1.9437188E3,1.5500664E3,0E0,0E0,0E0,0E0,0E0,0E0],"parents":[2147483647,0,0,1,1,2,2,4,4,5,5,6,6],"right_children":[2,4,6,-1,8,10,12,-1,-1,-1,-1,-1,-1],"split_conditions":[-3.145E1,-6E0,1.6829E2,1.6639861E-1,-1.4911E2,1.271E1,3.29E-1,-1.0890815E-1,-4.7623593E-2,1.9875504E-2,9.566828E-2,-3.6950964E-2,1.1551056E-1],"split_indices":[1,8,1,0,1,19,19,0,0,0,0,0,0],"split_type":[0,0,0,0,0,0,0,0,0,0,0,0,0],"sum_hessian":[1.8922E3,7.955E2,1.0967E3,7.5E0,7.88E2,7.532E2,3.435E2,3.689E2,4.191E2,6.839E2,6.93E1,1.17E1,3.318E2],"tree_param":{"num_deleted":"0","num_feature":"27","num_nodes":"13","size_leaf_vector":"1"}},{"base_weights":[-1.5040556E-1,-4.04501E0,4.03749E0,-6.377875E0,-2.338494E0,2.6436007E0,7.2264385E0,-1.04462914E-1,-4.712416E-2,1.3722834E-1,-3.678965E-2,2.2240723E-2,9.357557E-2,1.219883E-1,4.910188E-2],"categories":[],"categories_nodes":[],"categories_segments":[],"categories_sizes":[],"default_left":[0,0,0,0,0,0,0,0,0,0,0,0,0,0,0],"id":12,"left_children":[1,3,5,7,9,11,13,-1,-1,-1,-1,-1,-1,-1,-1],"loss_changes":[3.0631969E4,3.8134678E3,3.9457383E3,1.2646523E3,2.1863948E3,2.6698687E3,1.4166172E3,0E0,0E0,0E0,0E0,0E0,0E0,0E0,0E0],"parents":[2147483647,0,0,1,1,2,2,3,3,4,4,5,5,6,6],"right_children":[2,4,6,8,10,12,14,-1,-1,-1,-1,-1,-1,-1,-1],"split_conditions":[3.29E-1,-9.663E0,1.2514E1,-6.1E-1,-4E0,7.778E-1,2E-1,-1.04462914E-1,-4.712416E-2,1.3722834E-1,-3.678965E-2,2.2240723E-2,9.357557E-2,1.219883E-1,4.910188E-2],"split_indices":[19,19,19,22,8,10,11,0,0,0,0,0,0,0,0],"split_type":[0,0,0,0,0,0,0,0,0,0,0,0,0,0,0],"sum_hessian":[1.87E3,9.69E2,9.01E2,4.047E2,5.643E2,6.321E2,2.689E2,2.905E2,1.142E2,1.05E1,5.538E2,5.071E2,1.25E2,1.866E2,8.23E1],"tree_param":{"num_deleted":"0","num_feature":"27","num_nodes":"15","size_leaf_vector":"1"}},{"base_weights":[5.2321892E-2,-4.9151692E0,3.6250713E0,1.6439852E-1,-5.1338816E0,1.831414E0,7.483228E0,-1.019036E-1,-4.2331774E-2,7.944278E-2,1.7944496E-2,7.7366725E-2,1.3429803E-1],"categories":[],"categories_nodes":[],"categories_segments":[],"categories_sizes":[],"default_left":[0,0,0,0,0,0,0,0,0,0,0,0,0],"id":13,"left_children":[1,3,5,-1,7,9,11,-1,-1,-1,-1,-1,-1],"loss_changes":[3.38677E4,3.1620332E3,7.6256387E3,0E0,3.5196191E3,1.576178E3,1.2431133E3,0E0,0E0,0E0,0E0,0E0,0E0],"parents":[2147483647,0,0,1,1,2,2,4,4,5,5,6,6],"right_children":[2,4,6,-1,8,10,12,-1,-1,-1,-1,-1,-1],"split_conditions":[-3.429E1,-6E0,1.6829E2,1.6439852E-1,-1.4911E2,7.52E1,2.4276E2,-1.019036E-1,-4.2331774E-2,7.944278E-2,1.7944496E-2,7.7366725E-2,1.3429803E-1],"split_indices":[1,8,1,0,1,15,1,0,0,0,0,0,0],"split_type":[0,0,0,0,0,0,0,0,0,0,0,0,0],"sum_hessian":[1.9002E3,7.943E2,1.1059E3,7.5E0,7.868E2,7.59E2,3.469E2,3.812E2,4.056E2,8.89E1,6.701E2,1.903E2,1.566E2],"tree_param":{"num_deleted":"0","num_feature":"27","num_nodes":"13","size_leaf_vector":"1"}},{"base_weights":[-6.420799E-2,-3.694259E0,3.4474375E0,-1.0517921E0,-5.038294E0,1.8979659E0,6.661112E0,-5.4892924E-2,1.4969883E-2,3.8538266E-2,-7.669619E-2,1.0807798E-2,8.510083E-2,1.268185E-1,6.272452E-2],"categories":[],"categories_nodes":[],"categories_segments":[],"categories_sizes":[],"default_left":[0,0,0,0,0,0,0,0,0,0,0,0,0,0,0],"id":14,"left_children":[1,3,5,7,9,11,13,-1,-1,-1,-1,-1,-1,-1,-1],"loss_changes":[2.3933059E4,3.2571797E3,4.701042E3,1.9577021E3,2.2707188E3,3.0485083E3,1.4609551E3,0E0,0E0,0E0,0E0,0E0,0E0,0E0,0E0],"parents":[2147483647,0,0,1,1,2,2,3,3,4,4,5,5,6,6],"right_children":[2,4,6,8,10,12,14,-1,-1,-1,-1,-1,-1,-1,-1],"split_conditions":[-1.08E-1,-1.998E0,1.319E1,-2E0,0E0,7.778E-1,-2.51E-2,-5.4892924E-2,1.4969883E-2,3.8538266E-2,-7.669619E-2,1.0807798E-2,8.510083E-2,1.268185E-1,6.272452E-2],"split_indices":[0,23,0,18,9,10,4,0,0,0,0,0,0,0,0],"split_type":[0,0,0,0,0,0,0,0,0,0,0,0,0,0,0],"sum_hessian":[1.8694E3,9.191E2,9.503E2,3.123E2,6.068E2,6.455E2,3.048E2,1.31E2,1.813E2,3.29E1,5.739E2,5.133E2,1.322E2,1.372E2,1.676E2],"tree_param":{"num_deleted":"0","num_feature":"27","num_nodes":"15","size_leaf_vector":"1"}},{"base_weights":[-9.206142E-2,-4.810384E0,3.509707E0,-7.1765385E0,-2.8759491E0,1.6307625E0,7.3511057E0,-3.3742074E-2,-1.1611021E-1,2.242225E-2,-4.9125284E-2,4.1189786E-2,1.8445109E-3,3.1405038E-3,1.0968809E-1],"categories":[],"categories_nodes":[],"categories_segments":[],"categories_sizes":[],"default_left":[0,0,0,0,0,0,0,0,0,0,0,0,0,0,0],"id":15,"left_children":[1,3,5,7,9,11,13,-1,-1,-1,-1,-1,-1,-1,-1],"loss_changes":[3.2558627E4,3.712627E3,7.793957E3,1.9487422E3,1.3685781E3,1.4562904E3,1.3043672E3,0E0,0E0,0E0,0E0,0E0,0E0,0E0,0E0],"parents":[2147483647,0,0,1,1,2,2,3,3,4,4,5,5,6,6],"right_children":[2,4,6,8,10,12,14,-1,-1,-1,-1,-1,-1,-1,-1],"split_conditions":[-2.649E1,-1.4911E2,1.6829E2,-2.298E0,-8.894E0,-1.2E-3,-9.2E-1,-3.3742074E-2,-1.1611021E-1,2.242225E-2,-4.9125284E-2,4.1189786E-2,1.8445109E-3,3.1405038E-3,1.0968809E-1],"split_indices":[1,1,1,23,23,4,0,0,0,0,0,0,0,0,0],"split_type":[0,0,0,0,0,0,0,0,0,0,0,0,0,0,0],"sum_hessian":[1.9078E3,8.253E2,1.0825E3,3.663E2,4.59E2,7.308E2,3.517E2,7.39E1,2.924E2,5.72E1,4.018E2,3.859E2,3.449E2,2.42E1,3.275E2],"tree_param":{"num_deleted":"0","num_feature":"27","num_nodes":"15","size_leaf_vector":"1"}},{"base_weights":[7.974338E-2,-4.955516E0,3.5869815E0,1.734271E-1,-5.1745234E0,1.9431014E0,7.5272365E0,-1.0296696E-1,-4.379246E-2,1.6887836E-2,7.714595E-2,-3.647714E-2,1.1090206E-1],"categories":[],"categories_nodes":[],"categories_segments":[],"categories_sizes":[],"default_left":[0,0,0,0,0,0,0,0,0,0,0,0,0],"id":16,"left_children":[1,3,5,-1,7,9,11,-1,-1,-1,-1,-1,-1],"loss_changes":[3.3052324E4,3.1878223E3,7.0862705E3,0E0,3.3316094E3,2.0323167E3,1.4890449E3,0E0,0E0,0E0,0E0,0E0,0E0],"parents":[2147483647,0,0,1,1,2,2,4,4,5,5,6,6],"right_children":[2,4,6,-1,8,10,12,-1,-1,-1,-1,-1,-1],"split_conditions":[-3.429E1,-6E0,1.7514E2,1.734271E-1,-1.4911E2,1.2932E1,-2.534E0,-1.0296696E-1,-4.379246E-2,1.6887836E-2,7.714595E-2,-3.647714E-2,1.1090206E-1],"split_indices":[1,8,1,0,1,0,0,0,0,0,0,0,0],"split_type":[0,0,0,0,0,0,0,0,0,0,0,0,0],"sum_hessian":[1.8635E3,7.644E2,1.0991E3,6.7000003E0,7.577E2,7.798E2,3.193E2,3.578E2,3.999E2,6.523E2,1.275E2,1.21E1,3.072E2],"tree_param":{"num_deleted":"0","num_feature":"27","num_nodes":"13","size_leaf_vector":"1"}},{"base_weights":[2.7302826E-2,-3.2663147E0,2.3078969E0,-9.9364746E-1,-5.259356E0,4.094452E0,-1.2425832E0,-4.105477E-2,1.6850488E-2,4.487881E-2,-8.09775E-2,1.5412994E-2,7.299387E-2,-3.131816E-2,8.084506E-2],"categories":[],"categories_nodes":[],"categories_segments":[],"categories_sizes":[],"default_left":[0,0,0,0,0,0,0,0,0,0,0,0,0,0,0],"id":17,"left_children":[1,3,5,7,9,11,13,-1,-1,-1,-1,-1,-1,-1,-1],"loss_changes":[1.4038034E4,3.4423335E3,7.0249014E3,1.5712426E3,1.9694629E3,2.4866514E3,2.6880654E3,0E0,0E0,0E0,0E0,0E0,0E0,0E0,0E0],"parents":[2147483647,0,0,1,1,2,2,3,3,4,4,5,5,6,6],"right_children":[2,4,6,8,10,12,14,-1,-1,-1,-1,-1,-1,-1,-1],"split_conditions":[-1.3E0,-1.456E0,1.496E0,0E0,0E0,4.444E-1,1.24E1,-4.105477E-2,1.6850488E-2,4.487881E-2,-8.09775E-2,1.5412994E-2,7.299387E-2,-3.131816E-2,8.084506E-2],"split_indices":[20,23,23,26,9,10,2,0,0,0,0,0,0,0,0],"split_type":[0,0,0,0,0,0,0,0,0,0,0,0,0,0,0],"sum_hessian":[1.8608E3,7.606E2,1.1002E3,3.582E2,4.024E2,7.315E2,3.687E2,1.892E2,1.69E2,2.33E1,3.791E2,2.044E2,5.271E2,3.251E2,4.3600002E1],"tree_param":{"num_deleted":"0","num_feature":"27","num_nodes":"15","size_leaf_vector":"1"}},{"base_weights":[1.6558984E-1,-4.599634E0,3.4212747E0,2.718593E-1,-5.2592883E0,1.7160786E0,7.4566283E0,-7.24467E-2,7.154487E-2,-9.6029E-2,-4.833114E-2,1.5353483E-2,8.0508284E-2,-4.0487368E-2,1.08416766E-1],"categories":[],"categories_nodes":[],"categories_segments":[],"categories_sizes":[],"default_left":[0,0,0,0,0,0,0,0,0,0,0,0,0,0,0],"id":18,"left_children":[1,3,5,7,9,11,13,-1,-1,-1,-1,-1,-1,-1,-1],"loss_changes":[2.9097248E4,2.4523496E3,7.6147627E3,2.6234067E3,1.8621973E3,1.9415803E3,1.1868047E3,0E0,0E0,0E0,0E0,0E0,0E0,0E0,0E0],"parents":[2147483647,0,0,1,1,2,2,3,3,4,4,5,5,6,6],"right_children":[2,4,6,8,10,12,14,-1,-1,-1,-1,-1,-1,-1,-1],"split_conditions":[-3.981E1,-7.524E0,1.6829E2,8.8E-3,-1.4911E2,1.08E1,-3.25E-1,-7.24467E-2,7.154487E-2,-9.6029E-2,-4.833114E-2,1.5353483E-2,8.0508284E-2,-4.0487368E-2,1.08416766E-1],"split_indices":[1,23,1,4,1,2,26,0,0,0,0,0,0,0,0],"split_type":[0,0,0,0,0,0,0,0,0,0,0,0,0,0,0],"sum_hessian":[1.8674E3,7.573E2,1.1101E3,9.06E1,6.667E2,7.844E2,3.257E2,4.25E1,4.81E1,3.432E2,3.235E2,6.857E2,9.87E1,8.8E0,3.169E2],"tree_param":{"num_deleted":"0","num_feature":"27","num_nodes":"15","size_leaf_vector":"1"}},{"base_weights":[-1.704596E-1,-3.670533E0,3.3426726E0,1.9362432E-1,-3.8680546E0,1.2273024E0,5.3100467E0,-7.498616E-2,-2.075453E-2,3.0840203E-2,-3.2477472E-2,5.410883E-2,1.1409691E-1],"categories":[],"categories_nodes":[],"categories_segments":[],"categories_sizes":[],"default_left":[0,0,0,0,0,0,0,0,0,0,0,0,0],"id":19,"left_children":[1,3,5,-1,7,9,11,-1,-1,-1,-1,-1,-1],"loss_changes":[2.3087049E4,3.4790205E3,3.8737812E3,0E0,3.3224746E3,1.6215082E3,1.8606328E3,0E0,0E0,0E0,0E0,0E0,0E0],"parents":[2147483647,0,0,1,1,2,2,4,4,5,5,6,6],"right_children":[2,4,6,-1,8,10,12,-1,-1,-1,-1,-1,-1],"split_conditions":[-1.08E-1,-6E0,9.342E0,1.9362432E-1,1.41E0,7.356E0,1.2E1,-7.498616E-2,-2.075453E-2,3.0840203E-2,-3.2477472E-2,5.410883E-2,1.1409691E-1],"split_indices":[0,8,0,0,22,0,22,0,0,0,0,0,0],"split_type":[0,0,0,0,0,0,0,0,0,0,0,0,0],"sum_hessian":[1.8695E3,9.364E2,9.331E2,7.3E0,9.291E2,4.528E2,4.803E2,5.651E2,3.64E2,3.558E2,9.7E1,3.272E2,1.531E2],"tree_param":{"num_deleted":"0","num_feature":"27","num_nodes":"13","size_leaf_vector":"1"}},{"base_weights":[1.5027057E-1,-4.237173E0,3.349997E0,6.297994E-1,-4.937037E0,1.8460857E0,6.8897605E0,-1.3220422E-1,3.396587E-2,-9.33847E-2,-4.3051705E-2,6.068746E-2,1.2929849E-2,1.0048014E-1,-5.467429E-2],"categories":[],"categories_nodes":[],"categories_segments":[],"categories_sizes":[],"default_left":[0,0,0,0,0,0,0,0,0,0,0,0,0,0,0],"id":20,"left_children":[1,3,5,7,9,11,13,-1,-1,-1,-1,-1,-1,-1,-1],"loss_changes":[2.6676555E4,2.7424512E3,5.7977334E3,1.9999326E3,2.2002207E3,1.7723933E3,1.2362471E3,0E0,0E0,0E0,0E0,0E0,0E0,0E0,0E0],"parents":[2147483647,0,0,1,1,2,2,3,3,4,4,5,5,6,6],"right_children":[2,4,6,8,10,12,14,-1,-1,-1,-1,-1,-1,-1,-1],"split_conditions":[-3.429E1,-7.524E0,1.7514E2,7.68E1,-1.4911E2,-6.5E-1,8.4052E1,-1.3220422E-1,3.396587E-2,-9.33847E-2,-4.3051705E-2,6.068746E-2,1.2929849E-2,1.0048014E-1,-5.467429E-2],"split_indices":[1,23,1,13,1,24,16,0,0,0,0,0,0,0,0],"split_type":[0,0,0,0,0,0,0,0,0,0,0,0,0,0,0],"sum_hessian":[1.8921E3,7.974E2,1.0947E3,1.003E2,6.971E2,7.726E2,3.221E2,1.26E1,8.77E1,3.515E2,3.456E2,2.031E2,5.695E2,3.142E2,7.9E0],"tree_param":{"num_deleted":"0","num_feature":"27","num_nodes":"15","size_leaf_vector":"1"}},{"base_weights":[-2.3791809E-2,-4.342575E0,3.1588302E0,-7.9172316E0,-2.9390924E0,1.5804157E0,6.5349708E0,-1.2211938E-1,9.676239E-3,-8.346513E-2,-2.3342842E-2,6.6143963E-3,5.6581337E-2,-5.4408655E-2,9.601537E-2],"categories":[],"categories_nodes":[],"categories_segments":[],"categories_sizes":[],"default_left":[0,0,0,0,0,0,0,0,0,0,0,0,0,0,0],"id":21,"left_children":[1,3,5,7,9,11,13,-1,-1,-1,-1,-1,-1,-1,-1],"loss_changes":[2.591594E4,3.9192402E3,5.74305E3,1.6444746E3,2.1985273E3,2.0343696E3,1.3770635E3,0E0,0E0,0E0,0E0,0E0,0E0,0E0,0E0],"parents":[2147483647,0,0,1,1,2,2,3,3,4,4,5,5,6,6],"right_children":[2,4,6,8,10,12,14,-1,-1,-1,-1,-1,-1,-1,-1],"split_conditions":[-3.145E1,-2.1969E2,1.6829E2,2.4E0,-2.12E0,4.3E0,-3.25E-1,-1.2211938E-1,9.676239E-3,-8.346513E-2,-2.3342842E-2,6.6143963E-3,5.6581337E-2,-5.4408655E-2,9.601537E-2],"split_indices":[1,1,1,20,17,20,26,0,0,0,0,0,0,0,0],"split_type":[0,0,0,0,0,0,0,0,0,0,0,0,0,0,0],"sum_hessian":[1.8774E3,7.959E2,1.0815E3,2.191E2,5.768E2,7.41E2,3.405E2,1.995E2,1.96E1,1.647E2,4.121E2,5.157E2,2.253E2,9.8E0,3.307E2],"tree_param":{"num_deleted":"0","num_feature":"27","num_nodes":"15","size_leaf_vector":"1"}},{"base_weights":[-3.239406E-2,-4.5101075E0,3.1522906E0,-8.137217E0,-3.70309E0,1.6575943E0,6.4634643E0,-1.223721E-1,3.730829E-2,-8.3578E-2,-3.790985E-2,1.8479142E-2,1.1573793E-1,-1.2309277E-2,9.723171E-2],"categories":[],"categories_nodes":[],"categories_segments":[],"categories_sizes":[],"default_left":[0,0,0,0,0,0,0,0,0,0,0,0,0,0,0],"id":22,"left_children":[1,3,5,7,9,11,13,-1,-1,-1,-1,-1,-1,-1,-1],"loss_changes":[2.7055264E4,2.1863984E3,5.444078E3,1.0665645E3,1.4052607E3,1.6527139E3,1.3153584E3,0E0,0E0,0E0,0E0,0E0,0E0,0E0,0E0],"parents":[2147483647,0,0,1,1,2,2,3,3,4,4,5,5,6,6],"right_children":[2,4,6,8,10,12,14,-1,-1,-1,-1,-1,-1,-1,-1],"split_conditions":[-3.429E1,-2.6338E2,1.6829E2,9.36E1,-2.08E0,6.28E0,-9.2E-1,-1.223721E-1,3.730829E-2,-8.3578E-2,-3.790985E-2,1.8479142E-2,1.1573793E-1,-1.2309277E-2,9.723171E-2],"split_indices":[1,1,1,14,17,17,0,0,0,0,0,0,0,0,0],"split_type":[0,0,0,0,0,0,0,0,0,0,0,0,0,0,0],"sum_hessian":[1.8892E3,7.845E2,1.1047E3,1.361E2,6.484E2,7.653E2,3.394E2,1.292E2,6.9E0,1.885E2,4.599E2,7.335E2,3.18E1,2.19E1,3.175E2],"tree_param":{"num_deleted":"0","num_feature":"27","num_nodes":"15","size_leaf_vector":"1"}},{"base_weights":[7.229352E-2,-4.641006E0,3.250414E0,-6.8136854E0,-2.5476387E0,1.9763883E0,8.319925E0,-1.07922114E-1,-4.421078E-2,3.8815282E-2,-4.749562E-2,3.2745227E-3,4.072788E-2,1.2295502E-1,-1.429487E-2],"categories":[],"categories_nodes":[],"categories_segments":[],"categories_sizes":[],"default_left":[0,0,0,0,0,0,0,0,0,0,0,0,0,0,0],"id":23,"left_children":[1,3,5,7,9,11,13,-1,-1,-1,-1,-1,-1,-1,-1],"loss_changes":[2.8473057E4,3.4116934E3,7.265711E3,1.1624863E3,1.8546533E3,1.499367E3,1.0966113E3,0E0,0E0,0E0,0E0,0E0,0E0,0E0,0E0],"parents":[2147483647,0,0,1,1,2,2,3,3,4,4,5,5,6,6],"right_children":[2,4,6,8,10,12,14,-1,-1,-1,-1,-1,-1,-1,-1],"split_conditions":[-3.981E1,-1.4911E2,2.1491E2,1.0074E1,-8.122E0,1.07E0,3.814E0,-1.07922114E-1,-4.421078E-2,3.8815282E-2,-4.749562E-2,3.2745227E-3,4.072788E-2,1.2295502E-1,-1.429487E-2],"split_indices":[1,1,1,23,23,19,23,0,0,0,0,0,0,0,0],"split_type":[0,0,0,0,0,0,0,0,0,0,0,0,0,0,0],"sum_hessian":[1.8927E3,7.615E2,1.1312E3,3.692E2,3.923E2,9.085E2,2.227E2,2.906E2,7.86E1,5.32E1,3.391E2,3.214E2,5.871E2,2.116E2,1.11E1],"tree_param":{"num_deleted":"0","num_feature":"27","num_nodes":"15","size_leaf_vector":"1"}},{"base_weights":[4.7663093E-2,-4.3344784E0,3.1722903E0,-6.1178484E0,-2.6887085E0,1.5173211E0,6.6451306E0,-9.36936E-2,-2.4579284E-3,9.547189E-2,-4.1936796E-2,9.831444E-2,1.4944927E-2,-4.6864085E-2,9.8023735E-2],"categories":[],"categories_nodes":[],"categories_segments":[],"categories_sizes":[],"default_left":[0,0,0,0,0,0,0,0,0,0,0,0,0,0,0],"id":24,"left_children":[1,3,5,7,9,11,13,-1,-1,-1,-1,-1,-1,-1,-1],"loss_changes":[2.6087045E4,2.2611113E3,6.351216E3,1.3480918E3,1.3625085E3,1.8386588E3,1.4795625E3,0E0,0E0,0E0,0E0,0E0,0E0,0E0,0E0],"parents":[2147483647,0,0,1,1,2,2,3,3,4,4,5,5,6,6],"right_children":[2,4,6,8,10,12,14,-1,-1,-1,-1,-1,-1,-1,-1],"split_conditions":[-3.429E1,-1.4911E2,1.6829E2,1.3656E1,-1.23E1,7.22E1,3.29E-1,-9.36936E-2,-2.4579284E-3,9.547189E-2,-4.1936796E-2,9.831444E-2,1.4944927E-2,-4.6864085E-2,9.8023735E-2],"split_indices":[1,1,1,23,20,13,19,0,0,0,0,0,0,0,0],"split_type":[0,0,0,0,0,0,0,0,0,0,0,0,0,0,0],"sum_hessian":[1.8971E3,7.89E2,1.1081E3,3.734E2,4.156E2,7.544E2,3.537E2,3.385E2,3.49E1,1.08E1,4.048E2,5.17E1,7.027E2,1.2E1,3.417E2],"tree_param":{"num_deleted":"0","num_feature":"27","num_nodes":"15","size_leaf_vector":"1"}},{"base_weights":[7.6829985E-2,-4.270162E0,3.2502449E0,1.6566417E-1,-4.4673676E0,1.6860763E0,6.61631E0,-9.061746E-2,-3.6859673E-2,4.0972278E-2,-8.436499E-3,9.838795E-2,-2.9062196E-3],"categories":[],"categories_nodes":[],"categories_segments":[],"categories_sizes":[],"default_left":[0,0,0,0,0,0,0,0,0,0,0,0,0],"id":25,"left_children":[1,3,5,-1,7,9,11,-1,-1,-1,-1,-1,-1],"loss_changes":[2.6120559E4,2.760001E3,5.717247E3,0E0,2.867582E3,2.1681213E3,1.048167E3,0E0,0E0,0E0,0E0,0E0,0E0],"parents":[2147483647,0,0,1,1,2,2,4,4,5,5,6,6],"right_children":[2,4,6,-1,8,10,12,-1,-1,-1,-1,-1,-1],"split_conditions":[-3.429E1,-6E0,1.6829E2,1.6566417E-1,-1.4911E2,8.6E-3,3.814E0,-9.061746E-2,-3.6859673E-2,4.0972278E-2,-8.436499E-3,9.838795E-2,-2.9062196E-3],"split_indices":[1,8,1,0,1,4,23,0,0,0,0,0,0],"split_type":[0,0,0,0,0,0,0,0,0,0,0,0,0],"sum_hessian":[1.8854E3,7.95E2,1.0904E3,6.7000003E0,7.883E2,7.486E2,3.418E2,3.678E2,4.205E2,4.832E2,2.654E2,3.209E2,2.09E1],"tree_param":{"num_deleted":"0","num_feature":"27","num_nodes":"13","size_leaf_vector":"1"}},{"base_weights":[-2.4610894E-2,-4.4435554E0,3.1835542E0,-6.451785E0,-2.5052316E0,1.4244624E0,6.761269E0,8.0137536E-2,-9.363675E-2,-8.325851E-2,-1.7791418E-2,-2.3647511E-2,2.8786158E-2,-3.803236E-2,1.00402266E-1],"categories":[],"categories_nodes":[],"categories_segments":[],"categories_sizes":[],"default_left":[0,0,0,0,0,0,0,0,0,0,0,0,0,0,0],"id":26,"left_children":[1,3,5,7,9,11,13,-1,-1,-1,-1,-1,-1,-1,-1],"loss_changes":[2.6502963E4,2.9955898E3,6.7778525E3,1.3976016E3,1.7024011E3,1.475858E3,1.5693105E3,0E0,0E0,0E0,0E0,0E0,0E0,0E0,0E0],"parents":[2147483647,0,0,1,1,2,2,3,3,4,4,5,5,6,6],"right_children":[2,4,6,8,10,12,14,-1,-1,-1,-1,-1,-1,-1,-1],"split_conditions":[-3.429E1,-1.4911E2,1.6438E2,-3E0,-2.12E0,-3.08E0,3.29E-1,8.0137536E-2,-9.363675E-2,-8.325851E-2,-1.7791418E-2,-2.3647511E-2,2.8786158E-2,-3.803236E-2,1.00402266E-1],"split_indices":[1,1,1,8,17,17,19,0,0,0,0,0,0,0,0],"split_type":[0,0,0,0,0,0,0,0,0,0,0,0,0,0,0],"sum_hessian":[1.8614E3,7.823E2,1.0791E3,3.796E2,4.027E2,7.272E2,3.519E2,6.3E0,3.733E2,1.013E2,3.014E2,1.227E2,6.045E2,1.47E1,3.372E2],"tree_param":{"num_deleted":"0","num_feature":"27","num_nodes":"15","size_leaf_vector":"1"}},{"base_weights":[-2.522475E-2,-3.303534E0,3.3810952E0,-5.3668213E0,-1.8493077E0,2.052495E0,5.943155E0,4.9335744E-2,-7.943655E-2,1.0595556E-2,-4.2784814E-2,4.620047E-2,-1.2980958E-3,1.0048479E-1,4.005914E-2],"categories":[],"categories_nodes":[],"categories_segments":[],"categories_sizes":[],"default_left":[0,0,0,0,0,0,0,0,0,0,0,0,0,0,0],"id":27,"left_children":[1,3,5,7,9,11,13,-1,-1,-1,-1,-1,-1,-1,-1],"loss_changes":[2.1301916E4,2.8764834E3,3.1352373E3,1.2619004E3,1.8439768E3,1.6857332E3,1.1486318E3,0E0,0E0,0E0,0E0,0E0,0E0,0E0,0E0],"parents":[2147483647,0,0,1,1,2,2,3,3,4,4,5,5,6,6],"right_children":[2,4,6,8,10,12,14,-1,-1,-1,-1,-1,-1,-1,-1],"split_conditions":[3.29E-1,-9.663E0,1.1414E1,7.56E1,7.94E1,8.1322E1,2E-1,4.9335744E-2,-7.943655E-2,1.0595556E-2,-4.2784814E-2,4.620047E-2,-1.2980958E-3,1.0048479E-1,4.005914E-2],"split_indices":[19,19,19,14,13,16,11,0,0,0,0,0,0,0,0],"split_type":[0,0,0,0,0,0,0,0,0,0,0,0,0,0,0],"sum_hessian":[1.8995E3,9.68E2,9.315E2,3.957E2,5.723E2,6.182E2,3.133E2,1.28E1,3.829E2,1.828E2,3.895E2,3.879E2,2.303E2,2.18E2,9.53E1],"tree_param":{"num_deleted":"0","num_feature":"27","num_nodes":"15","size_leaf_vector":"1"}},{"base_weights":[-8.621053E-2,-2.6404684E0,1.9791865E0,2.0729499E-1,-2.8773525E0,3.7052515E0,-1.208638E-2,-5.758138E-2,-9.707581E-3,2.9610505E-2,8.685048E-2,-3.2777958E-2,3.6305923E-2],"categories":[],"categories_nodes":[],"categories_segments":[],"categories_sizes":[],"default_left":[0,0,0,0,0,0,0,0,0,0,0,0,0],"id":28,"left_children":[1,3,5,-1,7,9,11,-1,-1,-1,-1,-1,-1],"loss_changes":[9.977891E3,3.680213E3,3.5948086E3,0E0,2.277913E3,2.183188E3,3.021652E3,0E0,0E0,0E0,0E0,0E0,0E0],"parents":[2147483647,0,0,1,1,2,2,4,4,5,5,6,6],"right_children":[2,4,6,-1,8,10,12,-1,-1,-1,-1,-1,-1],"split_conditions":[1.41E0,-3.3E1,8.18E1,2.0729499E-1,-7.4E-3,4.4E0,8.24E0,-5.758138E-2,-9.707581E-3,2.9610505E-2,8.685048E-2,-3.2777958E-2,3.6305923E-2],"split_indices":[22,8,14,0,3,2,22,0,0,0,0,0,0],"split_type":[0,0,0,0,0,0,0,0,0,0,0,0,0],"sum_hessian":[1.8833E3,8.415E2,1.0418E3,7.9E0,8.336E2,5.562E2,4.856E2,5.271E2,3.065E2,3.466E2,2.096E2,2.566E2,2.29E2],"tree_param":{"num_deleted":"0","num_feature":"27","num_nodes":"13","size_leaf_vector":"1"}},{"base_weights":[1.9273268E-2,-3.2745771E0,3.5176756E0,-4.508261E0,-2.4583822E-1,2.176437E0,6.612965E0,-9.005329E-2,-4.5576368E-2,1.5572785E-1,-1.1949996E-2,6.920155E-2,2.1240922E-2,1.4770357E-1,7.9590976E-2],"categories":[],"categories_nodes":[],"categories_segments":[],"categories_sizes":[],"default_left":[0,0,0,0,0,0,0,0,0,0,0,0,0,0,0],"id":29,"left_children":[1,3,5,7,9,11,13,-1,-1,-1,-1,-1,-1,-1,-1],"loss_changes":[2.1648432E4,3.6111143E3,3.72404E3,1.576542E3,2.0234718E3,1.1369646E3,7.394424E2,0E0,0E0,0E0,0E0,0E0,0E0,0E0,0E0],"parents":[2147483647,0,0,1,1,2,2,3,3,4,4,5,5,6,6],"right_children":[2,4,6,8,10,12,14,-1,-1,-1,-1,-1,-1,-1,-1],"split_conditions":[3.29E-1,8.28E1,1.271E1,-1.1546E1,-3E0,0E0,8.06E1,-9.005329E-2,-4.5576368E-2,1.5572785E-1,-1.1949996E-2,6.920155E-2,2.1240922E-2,1.4770357E-1,7.9590976E-2],"split_indices":[19,15,19,19,8,25,15,0,0,0,0,0,0,0,0],"split_type":[0,0,0,0,0,0,0,0,0,0,0,0,0,0,0],"sum_hessian":[1.8706E3,9.636E2,9.07E2,6.833E2,2.803E2,6.376E2,2.694E2,2.587E2,4.246E2,1.07E1,2.696E2,1.159E2,5.217E2,4.18E1,2.276E2],"tree_param":{"num_deleted":"0","num_feature":"27","num_nodes":"15","size_leaf_vector":"1"}},{"base_weights":[-1.0719119E-1,-4.166484E0,2.8633134E0,-6.164052E0,-2.258979E0,1.737529E0,7.195557E0,9.257147E-2,-9.046395E-2,-4.050716E-2,6.0357098E-2,6.452293E-2,1.5269016E-2,-1.0187955E-1,1.0793062E-1],"categories":[],"categories_nodes":[],"categories_segments":[],"categories_sizes":[],"default_left":[0,0,0,0,0,0,0,0,0,0,0,0,0,0,0],"id":30,"left_children":[1,3,5,7,9,11,13,-1,-1,-1,-1,-1,-1,-1,-1],"loss_changes":[2.2871154E4,2.9975146E3,5.2916377E3,1.7954961E3,1.825123E3,1.6035806E3,2.0104043E3,0E0,0E0,0E0,0E0,0E0,0E0,0E0,0E0],"parents":[2147483647,0,0,1,1,2,2,3,3,4,4,5,5,6,6],"right_children":[2,4,6,8,10,12,14,-1,-1,-1,-1,-1,-1,-1,-1],"split_conditions":[-3.429E1,-1.4911E2,2.1491E2,-4.5E-1,5.09E-2,-6.33E0,3.29E-1,9.257147E-2,-9.046395E-2,-4.050716E-2,6.0357098E-2,6.452293E-2,1.5269016E-2,-1.0187955E-1,1.0793062E-1],"split_indices":[1,1,1,26,6,24,19,0,0,0,0,0,0,0,0],"split_type":[0,0,0,0,0,0,0,0,0,0,0,0,0,0,0],"sum_hessian":[1.8887E3,7.974E2,1.0913E3,3.851E2,4.123E2,8.707E2,2.206E2,7.6000004E0,3.775E2,3.775E2,3.48E1,1.537E2,7.17E2,6.2E0,2.144E2],"tree_param":{"num_deleted":"0","num_feature":"27","num_nodes":"15","size_leaf_vector":"1"}},{"base_weights":[2.7212983E-1,-3.6368387E0,3.0610125E0,-7.294436E0,-2.752901E0,1.7207491E0,6.388503E0,-1.1522175E-1,-1.109339E-2,-4.6204805E-2,1.3532213E-2,1.7294334E-2,1.0649755E-1,6.6694506E-2,1.1807438E-1],"categories":[],"categories_nodes":[],"categories_segments":[],"categories_sizes":[],"default_left":[0,0,0,0,0,0,0,0,0,0,0,0,0,0,0],"id":31,"left_children":[1,3,5,7,9,11,13,-1,-1,-1,-1,-1,-1,-1,-1],"loss_changes":[2.0576512E4,2.4601865E3,4.8672363E3,9.233638E2,1.3504219E3,2.208594E3,8.872207E2,0E0,0E0,0E0,0E0,0E0,0E0,0E0,0E0],"parents":[2147483647,0,0,1,1,2,2,3,3,4,4,5,5,6,6],"right_children":[2,4,6,8,10,12,14,-1,-1,-1,-1,-1,-1,-1,-1],"split_conditions":[-3.429E1,-2.6338E2,1.7771E2,1.833E-1,8.6E1,5E0,2.7243E2,-1.1522175E-1,-1.109339E-2,-4.6204805E-2,1.3532213E-2,1.7294334E-2,1.0649755E-1,6.6694506E-2,1.1807438E-1],"split_indices":[1,1,1,26,15,17,1,0,0,0,0,0,0,0,0],"split_type":[0,0,0,0,0,0,0,0,0,0,0,0,0,0,0],"sum_hessian":[1.8793E3,7.82E2,1.0973E3,1.465E2,6.355E2,7.866E2,3.107E2,1.265E2,2E1,5.526E2,8.29E1,7.321E2,5.45E1,1.83E2,1.277E2],"tree_param":{"num_deleted":"0","num_feature":"27","num_nodes":"15","size_leaf_vector":"1"}},{"base_weights":[1.0628796E-1,-2.9591374E0,3.6440978E0,-3.7214277E0,3.428675E-1,2.5011697E0,6.009514E0,-1.2762643E-1,-4.7395896E-2,-2.0738732E-2,4.6698857E-2,3.832286E-2,-6.824946E-2,-2.314656E-2,9.0157874E-2],"categories":[],"categories_nodes":[],"categories_segments":[],"categories_sizes":[],"default_left":[0,0,0,0,0,0,0,0,0,0,0,0,0,0,0],"id":32,"left_children":[1,3,5,7,9,11,13,-1,-1,-1,-1,-1,-1,-1,-1],"loss_changes":[2.0475793E4,2.551546E3,2.3087139E3,1.3105527E3,1.0849639E3,1.1507727E3,1.036208E3,0E0,0E0,0E0,0E0,0E0,0E0,0E0,0E0],"parents":[2147483647,0,0,1,1,2,2,3,3,4,4,5,5,6,6],"right_children":[2,4,6,8,10,12,14,-1,-1,-1,-1,-1,-1,-1,-1],"split_conditions":[1.07E0,1.034E0,1.2514E1,-1.35E1,7.5E-2,2E0,-7.2E-2,-1.2762643E-1,-4.7395896E-2,-2.0738732E-2,4.6698857E-2,3.832286E-2,-6.824946E-2,-2.314656E-2,9.0157874E-2],"split_indices":[19,0,19,20,26,25,22,0,0,0,0,0,0,0,0],"split_type":[0,0,0,0,0,0,0,0,0,0,0,0,0,0,0],"sum_hessian":[1.88E3,1.0076E3,8.724E2,8.182E2,1.894E2,5.938E2,2.786E2,3.95E1,7.787E2,1.19E2,7.04E1,5.77E2,1.68E1,1.51E1,2.635E2],"tree_param":{"num_deleted":"0","num_feature":"27","num_nodes":"15","size_leaf_vector":"1"}},{"base_weights":[2.5964944E-2,-3.791041E0,2.6925101E0,1.6043009E-1,-3.9987736E0,1.1111356E0,6.3273706E0,-6.700596E-2,-7.174342E-3,1.0956031E-2,1.0655298E-1,6.00439E-2,1.1775178E-1],"categories":[],"categories_nodes":[],"categories_segments":[],"categories_sizes":[],"default_left":[0,0,0,0,0,0,0,0,0,0,0,0,0],"id":33,"left_children":[1,3,5,-1,7,9,11,-1,-1,-1,-1,-1,-1],"loss_changes":[1.9395543E4,2.676838E3,6.4200103E3,0E0,2.174998E3,1.6468387E3,1.3055225E3,0E0,0E0,0E0,0E0,0E0,0E0],"parents":[2147483647,0,0,1,1,2,2,4,4,5,5,6,6],"right_children":[2,4,6,-1,8,10,12,-1,-1,-1,-1,-1,-1],"split_conditions":[-3.981E1,-6E0,1.6829E2,1.6043009E-1,1.86E-1,6.28E0,2.3889E2,-6.700596E-2,-7.174342E-3,1.0956031E-2,1.0655298E-1,6.00439E-2,1.1775178E-1],"split_indices":[1,8,1,0,0,17,1,0,0,0,0,0,0],"split_type":[0,0,0,0,0,0,0,0,0,0,0,0,0],"sum_hessian":[1.8975E3,7.797E2,1.1178E3,7.5E0,7.722E2,7.826E2,3.352E2,6.256E2,1.466E2,7.498E2,3.28E1,1.779E2,1.573E2],"tree_param":{"num_deleted":"0","num_feature":"27","num_nodes":"13","size_leaf_vector":"1"}},{"base_weights":[-1.4728036E-2,-3.0087376E0,3.1299803E0,-4.923344E0,-1.5142463E0,-4.114253E-1,3.9141185E0,3.3089302E-2,-7.662909E-2,3.9785323E-3,-4.7524855E-2,7.770862E-3,-1.0131212E-1,3.8847495E-2,8.247407E-2],"categories":[],"categories_nodes":[],"categories_segments":[],"categories_sizes":[],"default_left":[0,0,0,0,0,0,0,0,0,0,0,0,0,0,0],"id":34,"left_children":[1,3,5,7,9,11,13,-1,-1,-1,-1,-1,-1,-1,-1],"loss_changes":[1.78032E4,2.741501E3,2.5675273E3,1.8227188E3,1.8790292E3,1.1512333E3,1.6385703E3,0E0,0E0,0E0,0E0,0E0,0E0,0E0,0E0],"parents":[2147483647,0,0,1,1,2,2,3,3,4,4,5,5,6,6],"right_children":[2,4,6,8,10,12,14,-1,-1,-1,-1,-1,-1,-1,-1],"split_conditions":[3.29E-1,-9.37E0,-7.2E-2,-4.464E0,8.1E1,4.74E-2,1.2514E1,3.3089302E-2,-7.662909E-2,3.9785323E-3,-4.7524855E-2,7.770862E-3,-1.0131212E-1,3.8847495E-2,8.247407E-2],"split_indices":[19,19,22,5,12,6,19,0,0,0,0,0,0,0,0],"split_type":[0,0,0,0,0,0,0,0,0,0,0,0,0,0,0],"sum_hessian":[1.8828E3,9.646E2,9.182E2,4.188E2,5.458E2,1.668E2,7.514E2,2.96E1,3.892E2,2.817E2,2.641E2,1.494E2,1.74E1,4.869E2,2.645E2],"tree_param":{"num_deleted":"0","num_feature":"27","num_nodes":"15","size_leaf_vector":"1"}},{"base_weights":[1.0713078E-1,-2.6676717E0,3.278099E0,-4.6004653E0,-1.4080925E0,2.1180215E0,5.934674E0,-4.468794E-2,-1.0998364E-1,1.10391386E-1,-2.4057664E-2,4.693372E-2,6.3522574E-3,-5.6729508E-3,8.879515E-2],"categories":[],"categories_nodes":[],"categories_segments":[],"categories_sizes":[],"default_left":[0,0,0,0,0,0,0,0,0,0,0,0,0,0,0],"id":35,"left_children":[1,3,5,7,9,11,13,-1,-1,-1,-1,-1,-1,-1,-1],"loss_changes":[1.6896855E4,2.4673394E3,2.710958E3,1.7436133E3,1.9099274E3,1.3016926E3,7.5579004E2,0E0,0E0,0E0,0E0,0E0,0E0,0E0,0E0],"parents":[2147483647,0,0,1,1,2,2,3,3,4,4,5,5,6,6],"right_children":[2,4,6,8,10,12,14,-1,-1,-1,-1,-1,-1,-1,-1],"split_conditions":[1.07E0,-9.663E0,1.271E1,3.9E0,-3E0,-1.2E-3,-7.2E-2,-4.468794E-2,-1.0998364E-1,1.10391386E-1,-2.4057664E-2,4.693372E-2,6.3522574E-3,-5.6729508E-3,8.879515E-2],"split_indices":[19,19,19,24,8,4,22,0,0,0,0,0,0,0,0],"split_type":[0,0,0,0,0,0,0,0,0,0,0,0,0,0,0],"sum_hessian":[1.9123E3,1.0202E3,8.921E2,3.983E2,6.219E2,6.26E2,2.661E2,2.853E2,1.13E2,1.73E1,6.046E2,3.551E2,2.709E2,1.71E1,2.49E2],"tree_param":{"num_deleted":"0","num_feature":"27","num_nodes":"15","size_leaf_vector":"1"}},{"base_weights":[-4.25086E-2,-3.1029785E0,3.2175388E0,-3.7917218E0,8.762101E-1,2.084839E0,5.7628884E0,-8.1180386E-2,-3.7861966E-2,8.2576014E-2,-7.3874244E-3,7.6863244E-2,1.8733371E-2,5.4823257E-2,1.1164875E-1],"categories":[],"categories_nodes":[],"categories_segments":[],"categories_sizes":[],"default_left":[0,0,0,0,0,0,0,0,0,0,0,0,0,0,0],"id":36,"left_children":[1,3,5,7,9,11,13,-1,-1,-1,-1,-1,-1,-1,-1],"loss_changes":[1.9070408E4,2.7152627E3,2.6198857E3,1.7744316E3,1.0683594E3,1.6135776E3,1.035042E3,0E0,0E0,0E0,0E0,0E0,0E0,0E0,0E0],"parents":[2147483647,0,0,1,1,2,2,3,3,4,4,5,5,6,6],"right_children":[2,4,6,8,10,12,14,-1,-1,-1,-1,-1,-1,-1,-1],"split_conditions":[3.29E-1,1.608E0,1.2514E1,-1.4E0,7.56E1,0E0,4E-1,-8.1180386E-2,-3.7861966E-2,8.2576014E-2,-7.3874244E-3,7.6863244E-2,1.8733371E-2,5.4823257E-2,1.1164875E-1],"split_indices":[19,0,19,17,13,25,5,0,0,0,0,0,0,0,0],"split_type":[0,0,0,0,0,0,0,0,0,0,0,0,0,0,0],"sum_hessian":[1.9033E3,9.818E2,9.215E2,8.371E2,1.447E2,6.428E2,2.787E2,2.836E2,5.535E2,2.87E1,1.16E2,1.096E2,5.332E2,1.597E2,1.19E2],"tree_param":{"num_deleted":"0","num_feature":"27","num_nodes":"15","size_leaf_vector":"1"}},{"base_weights":[-1.4197098E-1,-4.007999E0,2.5076482E0,1.6116282E-1,-4.197396E0,1.2977476E0,5.559451E0,-8.507149E-2,-3.199412E-2,1.230154E-2,8.7894134E-2,-5.0523434E-2,8.1972994E-2],"categories":[],"categories_nodes":[],"categories_segments":[],"categories_sizes":[],"default_left":[0,0,0,0,0,0,0,0,0,0,0,0,0],"id":37,"left_children":[1,3,5,-1,7,9,11,-1,-1,-1,-1,-1,-1],"loss_changes":[1.9418666E4,2.4690713E3,4.124547E3,0E0,2.7143096E3,1.6636763E3,1.0236787E3,0E0,0E0,0E0,0E0,0E0,0E0],"parents":[2147483647,0,0,1,1,2,2,4,4,5,5,6,6],"right_children":[2,4,6,-1,8,10,12,-1,-1,-1,-1,-1,-1],"split_conditions":[-3.981E1,-6E0,1.7514E2,1.6116282E-1,-1.4911E2,1.24E1,3.29E-1,-8.507149E-2,-3.199412E-2,1.230154E-2,8.7894134E-2,-5.0523434E-2,8.1972994E-2],"split_indices":[1,8,1,0,1,2,19,0,0,0,0,0,0],"split_type":[0,0,0,0,0,0,0,0,0,0,0,0,0],"sum_hessian":[1.8877E3,7.668E2,1.1209E3,6.3E0,7.605E2,8.068E2,3.141E2,3.755E2,3.85E2,7.494E2,5.74E1,9.2E0,3.049E2],"tree_param":{"num_deleted":"0","num_feature":"27","num_nodes":"13","size_leaf_vector":"1"}},{"base_weights":[4.805895E-2,-3.9152753E0,2.709846E0,-7.3424225E0,-3.078588E0,1.5163667E0,5.23969E0,-1.9702989E-1,-8.197164E-2,1.1901336E-1,-4.6127487E-2,-2.3068136E-2,2.998926E-2,-5.1536858E-2,7.642633E-2],"categories":[],"categories_nodes":[],"categories_segments":[],"categories_sizes":[],"default_left":[0,0,0,0,0,0,0,0,0,0,0,0,0,0,0],"id":38,"left_children":[1,3,5,7,9,11,13,-1,-1,-1,-1,-1,-1,-1,-1],"loss_changes":[2.0119098E4,2.1058086E3,3.4124482E3,1.1282969E3,1.7808809E3,1.5865485E3,8.7168555E2,0E0,0E0,0E0,0E0,0E0,0E0,0E0,0E0],"parents":[2147483647,0,0,1,1,2,2,3,3,4,4,5,5,6,6],"right_children":[2,4,6,8,10,12,14,-1,-1,-1,-1,-1,-1,-1,-1],"split_conditions":[-3.981E1,-2.5915E2,1.6438E2,-2.083E-1,-4E0,-3.04E0,-8.102E0,-1.9702989E-1,-8.197164E-2,1.1901336E-1,-4.6127487E-2,-2.3068136E-2,2.998926E-2,-5.1536858E-2,7.642633E-2],"split_indices":[1,1,1,26,8,17,0,0,0,0,0,0,0,0,0],"split_type":[0,0,0,0,0,0,0,0,0,0,0,0,0,0,0],"sum_hessian":[1.899E3,7.622E2,1.1368E3,1.434E2,6.188E2,7.768E2,3.6E2,1.92E1,1.242E2,9.2E0,6.096E2,1.285E2,6.483E2,8E0,3.52E2],"tree_param":{"num_deleted":"0","num_feature":"27","num_nodes":"15","size_leaf_vector":"1"}},{"base_weights":[1.3271482E-1,-2.596769E0,2.6381297E0,-4.8931346E0,-1.3915324E0,1.5665745E0,4.9467583E0,-9.203954E-2,-2.0368697E-2,-1.2685466E-2,-6.6767715E-2,2.496343E-2,-1.592356E-1,1.7725952E-1,6.198411E-2],"categories":[],"categories_nodes":[],"categories_segments":[],"categories_sizes":[],"default_left":[0,0,0,0,0,0,0,0,0,0,0,0,0,0,0],"id":39,"left_children":[1,3,5,7,9,11,13,-1,-1,-1,-1,-1,-1,-1,-1],"loss_changes":[1.2670275E4,2.4269575E3,2.358247E3,1.74229E3,9.432832E2,2.0209645E3,9.544834E2,0E0,0E0,0E0,0E0,0E0,0E0,0E0,0E0],"parents":[2147483647,0,0,1,1,2,2,3,3,4,4,5,5,6,6],"right_children":[2,4,6,8,10,12,14,-1,-1,-1,-1,-1,-1,-1,-1],"split_conditions":[-9.2E-1,-5.3E0,1.319E1,2E-1,4.604E0,9.4E1,6.92E1,-9.203954E-2,-2.0368697E-2,-1.2685466E-2,-6.6767715E-2,2.496343E-2,-1.592356E-1,1.7725952E-1,6.198411E-2],"split_indices":[0,20,0,7,5,15,14,0,0,0,0,0,0,0,0],"split_type":[0,0,0,0,0,0,0,0,0,0,0,0,0,0,0],"sum_hessian":[1.8447E3,8.828E2,9.619E2,2.996E2,5.832E2,6.616E2,3.003E2,1.975E2,1.021E2,5.153E2,6.79E1,6.538E2,7.8E0,1.22E1,2.881E2],"tree_param":{"num_deleted":"0","num_feature":"27","num_nodes":"15","size_leaf_vector":"1"}},{"base_weights":[1.2114086E-2,-2.7437809E0,2.9406307E0,1.6387042E-1,-2.9158359E0,1.9455442E0,5.2138805E0,-4.9450126E-2,1.1188523E-2,7.566186E-2,1.9249268E-2,9.060586E-2,2.9801223E-2],"categories":[],"categories_nodes":[],"categories_segments":[],"categories_sizes":[],"default_left":[0,0,0,0,0,0,0,0,0,0,0,0,0],"id":40,"left_children":[1,3,5,-1,7,9,11,-1,-1,-1,-1,-1,-1],"loss_changes":[1.5011314E4,2.5289546E3,1.998814E3,0E0,2.242774E3,1.2156423E3,1.02017676E3,0E0,0E0,0E0,0E0,0E0,0E0],"parents":[2147483647,0,0,1,1,2,2,4,4,5,5,6,6],"right_children":[2,4,6,-1,8,10,12,-1,-1,-1,-1,-1,-1],"split_conditions":[3.29E-1,-6E0,1.2514E1,1.6387042E-1,1.608E0,-4.4E0,2E-1,-4.9450126E-2,1.1188523E-2,7.566186E-2,1.9249268E-2,9.060586E-2,2.9801223E-2],"split_indices":[19,8,19,0,0,7,11,0,0,0,0,0,0],"split_type":[0,0,0,0,0,0,0,0,0,0,0,0,0],"sum_hessian":[1.8519E3,9.542E2,8.977E2,8E0,9.462E2,6.296E2,2.681E2,8.09E2,1.372E2,8.3E1,5.466E2,1.859E2,8.22E1],"tree_param":{"num_deleted":"0","num_feature":"27","num_nodes":"13","size_leaf_vector":"1"}},{"base_weights":[1.2994815E-1,-3.290467E0,2.4690297E0,1.7316441E-1,-3.4898994E0,1.2003478E0,5.3323402E0,-1.0009181E-1,-3.7367783E-2,5.6796726E-3,4.1797586E-2,-5.75573E-2,7.89053E-2],"categories":[],"categories_nodes":[],"categories_segments":[],"categories_sizes":[],"default_left":[0,0,0,0,0,0,0,0,0,0,0,0,0],"id":41,"left_children":[1,3,5,-1,7,9,11,-1,-1,-1,-1,-1,-1],"loss_changes":[1.4859121E4,2.5389463E3,3.9803433E3,0E0,2.1562715E3,1.0920276E3,1.1414219E3,0E0,0E0,0E0,0E0,0E0,0E0],"parents":[2147483647,0,0,1,1,2,2,4,4,5,5,6,6],"right_children":[2,4,6,-1,8,10,12,-1,-1,-1,-1,-1,-1],"split_conditions":[-3.981E1,-6E0,1.6829E2,1.7316441E-1,-2.6894E2,1E0,-3.25E-1,-1.0009181E-1,-3.7367783E-2,5.6796726E-3,4.1797586E-2,-5.75573E-2,7.89053E-2],"split_indices":[1,8,1,0,1,8,26,0,0,0,0,0,0],"split_type":[0,0,0,0,0,0,0,0,0,0,0,0,0],"sum_hessian":[1.8491E3,7.503E2,1.0988E3,6.3E0,7.44E2,7.654E2,3.334E2,1.281E2,6.159E2,5.346E2,2.308E2,9.6E0,3.238E2],"tree_param":{"num_deleted":"0","num_feature":"27","num_nodes":"13","size_leaf_vector":"1"}},{"base_weights":[-6.896338E-2,-3.6003802E0,2.6590784E0,-6.903476E0,-2.837686E0,1.3179854E0,5.438366E0,-1.08451076E-1,1.692446E-3,1.3561505E-1,-4.2406186E-2,3.73841E-2,-2.5176245E-4,7.9783425E-2,-6.4225174E-2],"categories":[],"categories_nodes":[],"categories_segments":[],"categories_sizes":[],"default_left":[0,0,0,0,0,0,0,0,0,0,0,0,0,0,0],"id":42,"left_children":[1,3,5,7,9,11,13,-1,-1,-1,-1,-1,-1,-1,-1],"loss_changes":[1.8143014E4,1.9884863E3,3.93142E3,9.342051E2,1.8492041E3,1.3157969E3,1.0926445E3,0E0,0E0,0E0,0E0,0E0,0E0,0E0,0E0],"parents":[2147483647,0,0,1,1,2,2,3,3,4,4,5,5,6,6],"right_children":[2,4,6,8,10,12,14,-1,-1,-1,-1,-1,-1,-1,-1],"split_conditions":[-2.649E1,-2.5915E2,1.6609E2,3.724E0,-4E0,8.0734E1,8.4052E1,-1.08451076E-1,1.692446E-3,1.3561505E-1,-4.2406186E-2,3.73841E-2,-2.5176245E-4,7.9783425E-2,-6.4225174E-2],"split_indices":[1,1,1,5,8,16,16,0,0,0,0,0,0,0,0],"split_type":[0,0,0,0,0,0,0,0,0,0,0,0,0,0,0],"sum_hessian":[1.8752E3,8.167E2,1.0585E3,1.471E2,6.696E2,7.18E2,3.405E2,1.304E2,1.67E1,7.7000003E0,6.619E2,3.533E2,3.647E2,3.328E2,7.7E0],"tree_param":{"num_deleted":"0","num_feature":"27","num_nodes":"15","size_leaf_vector":"1"}},{"base_weights":[-6.891498E-2,-3.583412E0,2.5229971E0,5.462089E-1,-4.159455E0,1.8084192E0,8.088099E0,-4.5173313E-2,5.9332445E-2,-1.0441689E-1,-4.8445787E-2,1.2862765E-2,4.7716927E-2,1.2247562E-1,9.058616E-3],"categories":[],"categories_nodes":[],"categories_segments":[],"categories_sizes":[],"default_left":[0,0,0,0,0,0,0,0,0,0,0,0,0,0,0],"id":43,"left_children":[1,3,5,7,9,11,13,-1,-1,-1,-1,-1,-1,-1,-1],"loss_changes":[1.7316273E4,1.9285283E3,4.2919556E3,1.4934961E3,1.5095479E3,1.381283E3,6.170254E2,0E0,0E0,0E0,0E0,0E0,0E0,0E0,0E0],"parents":[2147483647,0,0,1,1,2,2,3,3,4,4,5,5,6,6],"right_children":[2,4,6,8,10,12,14,-1,-1,-1,-1,-1,-1,-1,-1],"split_conditions":[-3.429E1,-7.524E0,2.5941E2,8.8E-3,-2.7557E2,1.2465E2,3.583E-1,-4.5173313E-2,5.9332445E-2,-1.0441689E-1,-4.8445787E-2,1.2862765E-2,4.7716927E-2,1.2247562E-1,9.058616E-3],"split_indices":[1,23,1,4,1,1,26,0,0,0,0,0,0,0,0],"split_type":[0,0,0,0,0,0,0,0,0,0,0,0,0,0,0],"sum_hessian":[1.8929E3,8.028E2,1.0901E3,9.83E1,7.045E2,9.708E2,1.193E2,4.89E1,4.94E1,1.132E2,5.913E2,6.31E2,3.398E2,1.084E2,1.09E1],"tree_param":{"num_deleted":"0","num_feature":"27","num_nodes":"15","size_leaf_vector":"1"}},{"base_weights":[3.237483E-2,-3.82358E0,2.6795647E0,1.5495285E-1,-4.008307E0,1.6780798E0,6.6491494E0,2.431625E-2,-6.2079456E-2,-1.9820484E-3,3.3681512E-2,1.1051255E-1,5.351205E-2],"categories":[],"categories_nodes":[],"categories_segments":[],"categories_sizes":[],"default_left":[0,0,0,0,0,0,0,0,0,0,0,0,0],"id":44,"left_children":[1,3,5,-1,7,9,11,-1,-1,-1,-1,-1,-1],"loss_changes":[1.9030725E4,2.2744492E3,4.3495625E3,0E0,1.9579648E3,1.1945862E3,6.7232324E2,0E0,0E0,0E0,0E0,0E0,0E0],"parents":[2147483647,0,0,1,1,2,2,4,4,5,5,6,6],"right_children":[2,4,6,-1,8,10,12,-1,-1,-1,-1,-1,-1],"split_conditions":[-3.981E1,-6E0,2.1491E2,1.5495285E-1,-9.362E0,-7.2E-2,-5.34E0,2.431625E-2,-6.2079456E-2,-1.9820484E-3,3.3681512E-2,1.1051255E-1,5.351205E-2],"split_indices":[1,8,1,0,23,22,23,0,0,0,0,0,0],"split_type":[0,0,0,0,0,0,0,0,0,0,0,0,0],"sum_hessian":[1.8563E3,7.549E2,1.1014E3,6.3E0,7.486E2,8.841E2,2.173E2,5.29E1,6.957E2,2.56E2,6.281E2,1.443E2,7.3E1],"tree_param":{"num_deleted":"0","num_feature":"27","num_nodes":"13","size_leaf_vector":"1"}},{"base_weights":[8.678853E-2,-2.433355E0,2.6369307E0,-3.6947975E0,-6.4627326E-1,1.4842703E0,5.3095016E0,-4.539078E-2,-1.5386446E-1,-2.3006046E-2,5.163109E-2,3.6278803E-2,-1.0019198E-2,8.872222E-3,8.598982E-2],"categories":[],"categories_nodes":[],"categories_segments":[],"categories_sizes":[],"default_left":[0,0,0,0,0,0,0,0,0,0,0,0,0,0,0],"id":45,"left_children":[1,3,5,7,9,11,13,-1,-1,-1,-1,-1,-1,-1,-1],"loss_changes":[1.2015887E4,2.1103828E3,2.8307383E3,1.6278003E3,1.7457622E3,1.6206815E3,1.1018169E3,0E0,0E0,0E0,0E0,0E0,0E0,0E0,0E0],"parents":[2147483647,0,0,1,1,2,2,3,3,4,4,5,5,6,6],"right_children":[2,4,6,8,10,12,14,-1,-1,-1,-1,-1,-1,-1,-1],"split_conditions":[3.29E-1,-1.05E-2,1.271E1,-8.23E-1,1.667E-1,8.144E1,5E-1,-4.539078E-2,-1.5386446E-1,-2.3006046E-2,5.163109E-2,3.6278803E-2,-1.0019198E-2,8.872222E-3,8.598982E-2],"split_indices":[19,3,19,19,26,16,10,0,0,0,0,0,0,0,0],"split_type":[0,0,0,0,0,0,0,0,0,0,0,0,0,0,0],"sum_hessian":[1.8616E3,9.364E2,9.252E2,5.464E2,3.9E2,6.508E2,2.744E2,5.211E2,2.53E1,3.189E2,7.11E1,4.312E2,2.196E2,4.37E1,2.307E2],"tree_param":{"num_deleted":"0","num_feature":"27","num_nodes":"15","size_leaf_vector":"1"}},{"base_weights":[2.8190392E-1,-2.9225292E0,2.633155E0,1.5153661E-1,-3.107593E0,1.409487E0,5.1256943E0,-6.6667944E-2,-2.1880023E-2,5.4525178E-2,8.836844E-3,-4.91352E-2,7.773028E-2],"categories":[],"categories_nodes":[],"categories_segments":[],"categories_sizes":[],"default_left":[0,0,0,0,0,0,0,0,0,0,0,0,0],"id":46,"left_children":[1,3,5,-1,7,9,11,-1,-1,-1,-1,-1,-1],"loss_changes":[1.4307635E4,2.1883716E3,3.3107202E3,0E0,2.0209956E3,1.4259504E3,1.4779746E3,0E0,0E0,0E0,0E0,0E0,0E0],"parents":[2147483647,0,0,1,1,2,2,4,4,5,5,6,6],"right_children":[2,4,6,-1,8,10,12,-1,-1,-1,-1,-1,-1],"split_conditions":[-3.429E1,-6E0,1.6438E2,1.5153661E-1,-1.4911E2,-4.05E0,3.29E-1,-6.6667944E-2,-2.1880023E-2,5.4525178E-2,8.836844E-3,-4.91352E-2,7.773028E-2],"split_indices":[1,8,1,0,1,24,19,0,0,0,0,0,0],"split_type":[0,0,0,0,0,0,0,0,0,0,0,0,0],"sum_hessian":[1.8908E3,7.998E2,1.091E3,7.5E0,7.923E2,7.36E2,3.55E2,3.752E2,4.171E2,1.703E2,5.657E2,1.62E1,3.388E2],"tree_param":{"num_deleted":"0","num_feature":"27","num_nodes":"13","size_leaf_vector":"1"}},{"base_weights":[3.185263E-2,-2.3459191E0,2.6730788E0,1.3937083E-1,-2.5345702E0,1.4786708E0,4.481785E0,-4.5059294E-2,1.050017E-2,2.3691837E-2,-1.4682399E-1,6.673606E-2,-5.260996E-2],"categories":[],"categories_nodes":[],"categories_segments":[],"categories_sizes":[],"default_left":[0,0,0,0,0,0,0,0,0,0,0,0,0],"id":47,"left_children":[1,3,5,-1,7,9,11,-1,-1,-1,-1,-1,-1],"loss_changes":[1.1910309E4,2.4264775E3,1.9141475E3,0E0,2.2723848E3,1.5238026E3,9.6932764E2,0E0,0E0,0E0,0E0,0E0,0E0],"parents":[2147483647,0,0,1,1,2,2,4,4,5,5,6,6],"right_children":[2,4,6,-1,8,10,12,-1,-1,-1,-1,-1,-1],"split_conditions":[1.034E0,-5E0,1.209E1,1.3937083E-1,1.9E-2,9.34E1,1.713E1,-4.5059294E-2,1.050017E-2,2.3691837E-2,-1.4682399E-1,6.673606E-2,-5.260996E-2],"split_indices":[0,8,0,0,21,15,24,0,0,0,0,0,0],"split_type":[0,0,0,0,0,0,0,0,0,0,0,0,0],"sum_hessian":[1.8884E3,9.94E2,8.944E2,1.18E1,9.822E2,5.431E2,3.513E2,8.103E2,1.719E2,5.367E2,6.4E0,3.404E2,1.09E1],"tree_param":{"num_deleted":"0","num_feature":"27","num_nodes":"13","size_leaf_vector":"1"}},{"base_weights":[4.3416888E-2,-2.3997033E0,1.6982291E0,-3.5849707E0,-4.483258E-1,-1.4179218E0,3.317199E0,-2.8188057E-2,-8.3766304E-2,-3.216628E-2,3.7017707E-2,-3.4499917E-2,2.3501333E-2,2.529773E-1,4.2834748E-2],"categories":[],"categories_nodes":[],"categories_segments":[],"categories_sizes":[],"default_left":[0,0,0,0,0,0,0,0,0,0,0,0,0,0,0],"id":48,"left_children":[1,3,5,7,9,11,13,-1,-1,-1,-1,-1,-1,-1,-1],"loss_changes":[7.5910137E3,1.7472397E3,5.6660317E3,1.7358052E3,1.7047428E3,1.2816282E3,2.4494248E3,0E0,0E0,0E0,0E0,0E0,0E0,0E0,0E0],"parents":[2147483647,0,0,1,1,2,2,3,3,4,4,5,5,6,6],"right_children":[2,4,6,8,10,12,14,-1,-1,-1,-1,-1,-1,-1,-1],"split_conditions":[-8.7E-3,8.3E1,4.444E-1,-3.14E-2,7.5E-2,4.84E-2,-2.5E1,-2.8188057E-2,-8.3766304E-2,-3.216628E-2,3.7017707E-2,-3.4499917E-2,2.3501333E-2,2.529773E-1,4.2834748E-2],"split_indices":[21,15,10,3,26,6,8,0,0,0,0,0,0,0,0],"split_type":[0,0,0,0,0,0,0,0,0,0,0,0,0,0,0],"sum_hessian":[1.8695E3,7.542E2,1.1153E3,4.671E2,2.871E2,3.815E2,7.338E2,2.885E2,1.786E2,1.802E2,1.069E2,2.852E2,9.63E1,7.1E0,7.267E2],"tree_param":{"num_deleted":"0","num_feature":"27","num_nodes":"15","size_leaf_vector":"1"}},{"base_weights":[-7.892595E-2,-1.8942839E0,3.348626E0,-3.9492989E0,-8.6147064E-1,-1.6722845E0,3.887535E0,6.1204266E-2,-6.0994674E-2,-9.385264E-3,-1.577523E-1,-6.488694E-2,4.753051E-2,5.808092E-2,-2.6436636E-2],"categories":[],"categories_nodes":[],"categories_segments":[],"categories_sizes":[],"default_left":[0,0,0,0,0,0,0,0,0,0,0,0,0,0,0],"id":49,"left_children":[1,3,5,7,9,11,13,-1,-1,-1,-1,-1,-1,-1,-1],"loss_changes":[1.1812038E4,2.620079E3,1.804915E3,1.5488125E3,1.6045225E3,1.0726345E3,9.9151953E2,0E0,0E0,0E0,0E0,0E0,0E0,0E0,0E0],"parents":[2147483647,0,0,1,1,2,2,3,3,4,4,5,5,6,6],"right_children":[2,4,6,8,10,12,14,-1,-1,-1,-1,-1,-1,-1,-1],"split_conditions":[4.913E0,-9.37E0,-1.074E0,0E0,3.078E1,2.88E-1,8.8E0,6.1204266E-2,-6.0994674E-2,-9.385264E-3,-1.577523E-1,-6.488694E-2,4.753051E-2,5.808092E-2,-2.6436636E-2],"split_indices":[19,19,22,9,24,5,7,0,0,0,0,0,0,0,0],"split_type":[0,0,0,0,0,0,0,0,0,0,0,0,0,0,0],"sum_hessian":[1.8902E3,1.2369E3,6.533E2,4.099E2,8.27E2,6.25E1,5.908E2,1.81E1,3.918E2,8.166E2,1.04E1,3.9600002E1,2.29E1,5.647E2,2.61E1],"tree_param":{"num_deleted":"0","num_feature":"27","num_nodes":"15","size_leaf_vector":"1"}},{"base_weights":[-2.3298897E-1,-2.785795E0,1.4107302E0,-4.145289E0,-4.4013494E-1,-1.5640631E0,3.030324E0,-4.0541757E-2,-9.3319036E-2,2.1003304E-2,-3.9530724E-2,-1.2947632E-1,-1.4437512E-2,5.4634616E-2,1.6443273E-2],"categories":[],"categories_nodes":[],"categories_segments":[],"categories_sizes":[],"default_left":[0,0,0,0,0,0,0,0,0,0,0,0,0,0,0],"id":50,"left_children":[1,3,5,7,9,11,13,-1,-1,-1,-1,-1,-1,-1,-1],"loss_changes":[7.9668164E3,2.3637075E3,5.585535E3,1.4040483E3,1.3107249E3,1.6341799E3,1.2142485E3,0E0,0E0,0E0,0E0,0E0,0E0,0E0,0E0],"parents":[2147483647,0,0,1,1,2,2,3,3,4,4,5,5,6,6],"right_children":[2,4,6,8,10,12,14,-1,-1,-1,-1,-1,-1,-1,-1],"split_conditions":[-9.7E-3,8.3E1,5E-1,1.24E0,8.1048E1,-3.084E-1,8.144E1,-4.0541757E-2,-9.3319036E-2,2.1003304E-2,-3.9530724E-2,-1.2947632E-1,-1.4437512E-2,5.4634616E-2,1.6443273E-2],"split_indices":[21,15,10,24,16,26,16,0,0,0,0,0,0,0,0],"split_type":[0,0,0,0,0,0,0,0,0,0,0,0,0,0,0],"sum_hessian":[1.8908E3,7.395E2,1.1513E3,4.662E2,2.733E2,4.059E2,7.454E2,3.197E2,1.465E2,1.516E2,1.217E2,2.17E1,3.842E2,5.005E2,2.449E2],"tree_param":{"num_deleted":"0","num_feature":"27","num_nodes":"15","size_leaf_vector":"1"}},{"base_weights":[1.3072792E-2,-2.403836E0,1.5695001E0,1.8317354E0,-3.0879538E0,2.9250538E0,-1.3391759E0,-2.2780092E-2,9.4811976E-2,-1.7714234E-2,-5.9796207E-2,-3.7316813E-3,5.150225E-2,9.83525E-3,-5.0928697E-2],"categories":[],"categories_nodes":[],"categories_segments":[],"categories_sizes":[],"default_left":[0,0,0,0,0,0,0,0,0,0,0,0,0,0,0],"id":51,"left_children":[1,3,5,7,9,11,13,-1,-1,-1,-1,-1,-1,-1,-1],"loss_changes":[7.0788223E3,2.1588188E3,4.5289956E3,1.8541404E3,1.3669531E3,1.9252471E3,1.7453132E3,0E0,0E0,0E0,0E0,0E0,0E0,0E0,0E0],"parents":[2147483647,0,0,1,1,2,2,3,3,4,4,5,5,6,6],"right_children":[2,4,6,8,10,12,14,-1,-1,-1,-1,-1,-1,-1,-1],"split_conditions":[-1.7E0,-4.54E0,2.332E0,8.72E1,-3.054E0,4E-1,8.3E-1,-2.2780092E-2,9.4811976E-2,-1.7714234E-2,-5.9796207E-2,-3.7316813E-3,5.150225E-2,9.83525E-3,-5.0928697E-2],"split_indices":[20,5,23,15,23,10,5,0,0,0,0,0,0,0,0],"split_type":[0,0,0,0,0,0,0,0,0,0,0,0,0,0,0],"sum_hessian":[1.8737E3,7.331E2,1.1406E3,1.01E2,6.321E2,7.78E2,3.626E2,6.11E1,3.99E1,2.549E2,3.772E2,1.516E2,6.264E2,1.94E2,1.686E2],"tree_param":{"num_deleted":"0","num_feature":"27","num_nodes":"15","size_leaf_vector":"1"}},{"base_weights":[-9.010011E-3,-2.4069324E0,1.595503E0,6.506264E0,-2.6969051E0,3.3517846E-1,3.8913746E0,1.2643723E-1,1.5814543E-2,-5.5251338E-2,-1.273505E-2,2.3013121E-1,1.0221569E-3,-6.6233076E-2,5.736932E-2],"categories":[],"categories_nodes":[],"categories_segments":[],"categories_sizes":[],"default_left":[0,0,0,0,0,0,0,0,0,0,0,0,0,0,0],"id":52,"left_children":[1,3,5,7,9,11,13,-1,-1,-1,-1,-1,-1,-1,-1],"loss_changes":[7.297448E3,2.036065E3,3.2827769E3,3.0464722E2,1.655102E3,3.120729E3,8.579917E2,0E0,0E0,0E0,0E0,0E0,0E0,0E0,0E0],"parents":[2147483647,0,0,1,1,2,2,3,3,4,4,5,5,6,6],"right_children":[2,4,6,8,10,12,14,-1,-1,-1,-1,-1,-1,-1,-1],"split_conditions":[-1.5E0,-2.109E1,3.55E-2,8.065E1,8.3E1,-2.5E1,-3.666E-1,1.2643723E-1,1.5814543E-2,-5.5251338E-2,-1.273505E-2,2.3013121E-1,1.0221569E-3,-6.6233076E-2,5.736932E-2],"split_indices":[20,24,6,16,15,8,26,0,0,0,0,0,0,0,0],"split_type":[0,0,0,0,0,0,0,0,0,0,0,0,0,0,0],"sum_hessian":[1.8886E3,7.563E2,1.1323E3,2.11E1,7.352E2,7.34E2,3.983E2,1.2400001E1,8.7E0,4.27E2,3.082E2,7.7E0,7.263E2,8E0,3.903E2],"tree_param":{"num_deleted":"0","num_feature":"27","num_nodes":"15","size_leaf_vector":"1"}},{"base_weights":[-2.142737E-1,-2.6329803E0,2.3130965E0,-3.2259724E0,5.454964E-1,1.7517301E0,5.652061E0,6.6175856E-2,-4.7624595E-2,1.6899882E-2,-1.144582E-1,1.5830014E-2,5.556623E-2,1.2178435E-1,5.353739E-2],"categories":[],"categories_nodes":[],"categories_segments":[],"categories_sizes":[],"default_left":[0,0,0,0,0,0,0,0,0,0,0,0,0,0,0],"id":53,"left_children":[1,3,5,7,9,11,13,-1,-1,-1,-1,-1,-1,-1,-1],"loss_changes":[1.158876E4,1.8326294E3,1.6979893E3,1.305456E3,9.4955054E2,1.0825728E3,5.999038E2,0E0,0E0,0E0,0E0,0E0,0E0,0E0,0E0],"parents":[2147483647,0,0,1,1,2,2,3,3,4,4,5,5,6,6],"right_children":[2,4,6,8,10,12,14,-1,-1,-1,-1,-1,-1,-1,-1],"split_conditions":[3.29E-1,3.8E0,1.7377E1,-2.059E-1,6.89E0,7.778E-1,9.804E0,6.6175856E-2,-4.7624595E-2,1.6899882E-2,-1.144582E-1,1.5830014E-2,5.556623E-2,1.2178435E-1,5.353739E-2],"split_indices":[19,2,19,11,5,10,22,0,0,0,0,0,0,0,0],"split_type":[0,0,0,0,0,0,0,0,0,0,0,0,0,0,0],"sum_hessian":[1.8877E3,9.645E2,9.232E2,8.128E2,1.517E2,7.956E2,1.276E2,1.67E1,7.961E2,1.442E2,7.5E0,6.284E2,1.672E2,4.15E1,8.61E1],"tree_param":{"num_deleted":"0","num_feature":"27","num_nodes":"15","size_leaf_vector":"1"}},{"base_weights":[-7.3174715E-2,-2.264084E0,2.2346501E0,1.7393978E-1,-2.4238775E0,3.387955E0,7.591278E-1,-6.613183E-2,-2.0935986E-2,-8.2689464E-2,5.140542E-2,9.430877E-2,1.8822254E-3],"categories":[],"categories_nodes":[],"categories_segments":[],"categories_sizes":[],"default_left":[0,0,0,0,0,0,0,0,0,0,0,0,0],"id":54,"left_children":[1,3,5,-1,7,9,11,-1,-1,-1,-1,-1,-1],"loss_changes":[9.636598E3,2.4251528E3,1.5692158E3,0E0,2.0473892E3,1.5399673E3,1.5423195E3,0E0,0E0,0E0,0E0,0E0,0E0],"parents":[2147483647,0,0,1,1,2,2,4,4,5,5,6,6],"right_children":[2,4,6,-1,8,10,12,-1,-1,-1,-1,-1,-1],"split_conditions":[3.29E-1,-6E0,-3.6E-3,1.7393978E-1,-1.96E0,-3.583E-1,-1.211E1,-6.613183E-2,-2.0935986E-2,-8.2689464E-2,5.140542E-2,9.430877E-2,1.8822254E-3],"split_indices":[19,8,4,0,17,26,24,0,0,0,0,0,0],"split_type":[0,0,0,0,0,0,0,0,0,0,0,0,0],"sum_hessian":[1.8978E3,9.736E2,9.242E2,7.1E0,9.665E2,5.158E2,4.084E2,2.701E2,6.964E2,1.37E1,5.021E2,3.47E1,3.737E2],"tree_param":{"num_deleted":"0","num_feature":"27","num_nodes":"13","size_leaf_vector":"1"}},{"base_weights":[9.184979E-2,-3.4694595E0,2.557948E0,-5.215092E0,-1.8156232E0,1.0061367E0,4.610884E0,-8.348887E-2,-1.0410404E-2,6.896544E-2,-3.0420143E-2,7.6512652E-3,1.03925936E-1,6.836097E-2,-8.525808E-2],"categories":[],"categories_nodes":[],"categories_segments":[],"categories_sizes":[],"default_left":[0,0,0,0,0,0,0,0,0,0,0,0,0,0,0],"id":55,"left_children":[1,3,5,7,9,11,13,-1,-1,-1,-1,-1,-1,-1,-1],"loss_changes":[1.6328706E4,2.1579844E3,3.480629E3,1.254417E3,1.0274136E3,1.843481E3,1.6038506E3,0E0,0E0,0E0,0E0,0E0,0E0,0E0,0E0],"parents":[2147483647,0,0,1,1,2,2,3,3,4,4,5,5,6,6],"right_children":[2,4,6,8,10,12,14,-1,-1,-1,-1,-1,-1,-1,-1],"split_conditions":[-3.981E1,-1.4911E2,1.2465E2,1E0,-2.1048E1,1.271E1,8.4052E1,-8.348887E-2,-1.0410404E-2,6.896544E-2,-3.0420143E-2,7.6512652E-3,1.03925936E-1,6.836097E-2,-8.525808E-2],"split_indices":[1,1,1,9,0,19,16,0,0,0,0,0,0,0,0],"split_type":[0,0,0,0,0,0,0,0,0,0,0,0,0,0,0],"sum_hessian":[1.8511E3,7.567E2,1.0944E3,3.639E2,3.928E2,6.267E2,4.677E2,3.09E2,5.49E1,1.76E1,3.752E2,5.893E2,3.74E1,4.574E2,1.03E1],"tree_param":{"num_deleted":"0","num_feature":"27","num_nodes":"15","size_leaf_vector":"1"}},{"base_weights":[8.037602E-2,-3.0866265E0,2.185563E0,-6.0439763E0,-2.4013739E0,1.0379992E0,4.7242904E0,-1.0362848E-1,9.305537E-3,-4.0471394E-2,1.2943249E-2,1.2125691E-3,4.9066525E-2,-6.453974E-2,7.038246E-2],"categories":[],"categories_nodes":[],"categories_segments":[],"categories_sizes":[],"default_left":[0,0,0,0,0,0,0,0,0,0,0,0,0,0,0],"id":56,"left_children":[1,3,5,7,9,11,13,-1,-1,-1,-1,-1,-1,-1,-1],"loss_changes":[1.2514404E4,1.460313E3,3.2648105E3,1.3104775E3,1.0390098E3,1.8436069E3,1.1566992E3,0E0,0E0,0E0,0E0,0E0,0E0,0E0,0E0],"parents":[2147483647,0,0,1,1,2,2,3,3,4,4,5,5,6,6],"right_children":[2,4,6,8,10,12,14,-1,-1,-1,-1,-1,-1,-1,-1],"split_conditions":[-3.981E1,-2.6338E2,1.6829E2,2.632E0,8.6E1,4.7E0,-3.25E-1,-1.0362848E-1,9.305537E-3,-4.0471394E-2,1.2943249E-2,1.2125691E-3,4.9066525E-2,-6.453974E-2,7.038246E-2],"split_indices":[1,1,1,5,15,20,26,0,0,0,0,0,0,0,0],"split_type":[0,0,0,0,0,0,0,0,0,0,0,0,0,0,0],"sum_hessian":[1.8689E3,7.455E2,1.1234E3,1.343E2,6.112E2,7.776E2,3.458E2,1.109E2,2.34E1,5.316E2,7.96E1,5.652E2,2.124E2,9.8E0,3.36E2],"tree_param":{"num_deleted":"0","num_feature":"27","num_nodes":"15","size_leaf_vector":"1"}},{"base_weights":[4.0519863E-2,-2.36521E0,1.6563957E0,-2.8541136E0,1.8099148E0,-6.8225724E-1,2.86209E0,-3.0527608E-2,-8.310733E-2,-5.1259413E-2,8.85752E-2,-2.9555155E-2,2.9723246E-2,5.13617E-2,6.571058E-3],"categories":[],"categories_nodes":[],"categories_segments":[],"categories_sizes":[],"default_left":[0,0,0,0,0,0,0,0,0,0,0,0,0,0,0],"id":57,"left_children":[1,3,5,7,9,11,13,-1,-1,-1,-1,-1,-1,-1,-1],"loss_changes":[7.4081934E3,1.5839302E3,3.2221843E3,1.3653623E3,2.1574048E3,1.600757E3,1.4732583E3,0E0,0E0,0E0,0E0,0E0,0E0,0E0,0E0],"parents":[2147483647,0,0,1,1,2,2,3,3,4,4,5,5,6,6],"right_children":[2,4,6,8,10,12,14,-1,-1,-1,-1,-1,-1,-1,-1],"split_conditions":[-8.7E-3,6E0,4.286E-1,1E0,-3.48E-1,3.47E-2,2.074E0,-3.0527608E-2,-8.310733E-2,-5.1259413E-2,8.85752E-2,-2.9555155E-2,2.9723246E-2,5.13617E-2,6.571058E-3],"split_indices":[21,7,10,25,22,6,23,0,0,0,0,0,0,0,0],"split_type":[0,0,0,0,0,0,0,0,0,0,0,0,0,0,0],"sum_hessian":[1.8976E3,7.617E2,1.1359E3,6.83E2,7.87E1,3.87E2,7.489E2,5.684E2,1.146E2,3.6E1,4.27E1,2.568E2,1.302E2,5.556E2,1.933E2],"tree_param":{"num_deleted":"0","num_feature":"27","num_nodes":"15","size_leaf_vector":"1"}},{"base_weights":[-5.8802422E-2,-2.3786373E0,2.3058681E0,6.05014E0,-2.5742729E0,1.4494132E0,5.0077696E0,2.0668773E-2,1.1581017E-1,-3.805272E-2,6.970701E-2,3.9736372E-3,5.8395498E-2,9.540507E-2,3.6325887E-2],"categories":[],"categories_nodes":[],"categories_segments":[],"categories_sizes":[],"default_left":[0,0,0,0,0,0,0,0,0,0,0,0,0,0,0],"id":58,"left_children":[1,3,5,7,9,11,13,-1,-1,-1,-1,-1,-1,-1,-1],"loss_changes":[1.0317298E4,1.6283623E3,2.1260713E3,1.8470093E2,1.1509287E3,2.26937E3,9.0938525E2,0E0,0E0,0E0,0E0,0E0,0E0,0E0,0E0],"parents":[2147483647,0,0,1,1,2,2,3,3,4,4,5,5,6,6],"right_children":[2,4,6,8,10,12,14,-1,-1,-1,-1,-1,-1,-1,-1],"split_conditions":[-1.08E-1,7.26E1,7.143E-1,4.286E-1,9.62E1,1.319E1,-2.32E-1,2.0668773E-2,1.1581017E-1,-3.805272E-2,6.970701E-2,3.9736372E-3,5.8395498E-2,9.540507E-2,3.6325887E-2],"split_indices":[0,13,10,10,14,0,5,0,0,0,0,0,0,0,0],"split_type":[0,0,0,0,0,0,0,0,0,0,0,0,0,0,0],"sum_hessian":[1.8727E3,9.453E2,9.274E2,1.87E1,9.266E2,7.089E2,2.185E2,8.4E0,1.03E1,9.105E2,1.61E1,5.006E2,2.083E2,1.196E2,9.89E1],"tree_param":{"num_deleted":"0","num_feature":"27","num_nodes":"15","size_leaf_vector":"1"}},{"base_weights":[-1.5082923E-1,-2.3687246E0,2.192137E0,1.556417E-1,-2.5273054E0,1.2008562E0,4.115123E0,-2.7172578E-2,-7.715732E-2,3.578075E-2,-9.204013E-3,2.6079156E-2,7.408207E-2],"categories":[],"categories_nodes":[],"categories_segments":[],"categories_sizes":[],"default_left":[0,0,0,0,0,0,0,0,0,0,0,0,0],"id":59,"left_children":[1,3,5,-1,7,9,11,-1,-1,-1,-1,-1,-1],"loss_changes":[9.866396E3,2.2070571E3,1.7403071E3,0E0,1.6380586E3,1.5703142E3,8.0069775E2,0E0,0E0,0E0,0E0,0E0,0E0],"parents":[2147483647,0,0,1,1,2,2,4,4,5,5,6,6],"right_children":[2,4,6,-1,8,10,12,-1,-1,-1,-1,-1,-1],"split_conditions":[3.29E-1,-6E0,1.1522E1,1.556417E-1,8.92E0,8.1154E1,-4.35E0,-2.7172578E-2,-7.715732E-2,3.578075E-2,-9.204013E-3,2.6079156E-2,7.408207E-2],"split_indices":[19,8,19,0,24,16,24,0,0,0,0,0,0],"split_type":[0,0,0,0,0,0,0,0,0,0,0,0,0],"sum_hessian":[1.8906E3,9.712E2,9.194E2,8E0,9.632E2,6.11E2,3.084E2,8.135E2,1.497E2,3.515E2,2.595E2,1.11E2,1.974E2],"tree_param":{"num_deleted":"0","num_feature":"27","num_nodes":"13","size_leaf_vector":"1"}},{"base_weights":[-1.5822397E-1,-3.1345413E0,1.8993893E0,1.475323E-1,-3.321982E0,1.0138696E0,5.9106016E0,-6.975898E-2,-2.3974225E-2,2.8506484E-2,-1.0181676E-2,8.92092E-2,-1.3096651E-2],"categories":[],"categories_nodes":[],"categories_segments":[],"categories_sizes":[],"default_left":[0,0,0,0,0,0,0,0,0,0,0,0,0],"id":60,"left_children":[1,3,5,-1,7,9,11,-1,-1,-1,-1,-1,-1],"loss_changes":[1.1755654E4,2.1593213E3,4.0078064E3,0E0,2.0594834E3,1.6870801E3,7.088789E2,0E0,0E0,0E0,0E0,0E0,0E0],"parents":[2147483647,0,0,1,1,2,2,4,4,5,5,6,6],"right_children":[2,4,6,-1,8,10,12,-1,-1,-1,-1,-1,-1],"split_conditions":[-3.981E1,-6E0,2.2506E2,1.475323E-1,-1.4911E2,8.1154E1,3.583E-1,-6.975898E-2,-2.3974225E-2,2.8506484E-2,-1.0181676E-2,8.92092E-2,-1.3096651E-2],"split_indices":[1,8,1,0,1,16,26,0,0,0,0,0,0],"split_type":[0,0,0,0,0,0,0,0,0,0,0,0,0],"sum_hessian":[1.9116E3,7.805E2,1.1311E3,7.5E0,7.73E2,9.307E2,2.004E2,3.729E2,4.001E2,5.845E2,3.462E2,1.873E2,1.31E1],"tree_param":{"num_deleted":"0","num_feature":"27","num_nodes":"13","size_leaf_vector":"1"}},{"base_weights":[1.0617532E-1,-1.2943566E0,2.3343685E0,-3.005353E0,7.683612E-1,4.4937005E0,5.39282E-1,-9.632405E-2,-3.4764025E-2,-9.816755E-2,1.6590703E-2,-8.943336E-2,6.845433E-2,-9.197718E-3,8.2677834E-2],"categories":[],"categories_nodes":[],"categories_segments":[],"categories_sizes":[],"default_left":[0,0,0,0,0,0,0,0,0,0,0,0,0,0,0],"id":61,"left_children":[1,3,5,7,9,11,13,-1,-1,-1,-1,-1,-1,-1,-1],"loss_changes":[5.860446E3,4.0798215E3,2.7994343E3,1.1911597E3,1.7670946E3,1.6209917E3,2.6040188E3,0E0,0E0,0E0,0E0,0E0,0E0,0E0,0E0],"parents":[2147483647,0,0,1,1,2,2,3,3,4,4,5,5,6,6],"right_children":[2,4,6,8,10,12,14,-1,-1,-1,-1,-1,-1,-1,-1],"split_conditions":[2.2E0,8.24E1,8.14E1,-6.6E0,-8.74E-2,-6.34E-2,1.08E1,-9.632405E-2,-3.4764025E-2,-9.816755E-2,1.6590703E-2,-8.943336E-2,6.845433E-2,-9.197718E-3,8.2677834E-2],"split_indices":[20,15,14,7,6,3,20,0,0,0,0,0,0,0,0],"split_type":[0,0,0,0,0,0,0,0,0,0,0,0,0,0,0],"sum_hessian":[1.87E3,1.1493E3,7.207E2,6.272E2,5.221E2,3.244E2,3.963E2,6.68E1,5.604E2,2.35E1,4.986E2,9.8E0,3.146E2,3.271E2,6.92E1],"tree_param":{"num_deleted":"0","num_feature":"27","num_nodes":"15","size_leaf_vector":"1"}},{"base_weights":[5.2637883E-2,-2.0011625E0,1.4589309E0,-2.5660133E0,1.786232E0,3.6614935E0,4.038128E-1,-4.725091E-2,-3.9459155E-3,9.283258E-2,-2.0699203E-2,5.6541394E-2,-6.5107346E-2,-1.1073312E-2,3.2477252E-2],"categories":[],"categories_nodes":[],"categories_segments":[],"categories_sizes":[],"default_left":[0,0,0,0,0,0,0,0,0,0,0,0,0,0,0],"id":62,"left_children":[1,3,5,7,9,11,13,-1,-1,-1,-1,-1,-1,-1,-1],"loss_changes":[5.44557E3,1.6579646E3,2.5946316E3,1.25304E3,1.6633477E3,1.2662642E3,1.7638796E3,0E0,0E0,0E0,0E0,0E0,0E0,0E0,0E0],"parents":[2147483647,0,0,1,1,2,2,3,3,4,4,5,5,6,6],"right_children":[2,4,6,8,10,12,14,-1,-1,-1,-1,-1,-1,-1,-1],"split_conditions":[-8.2E-3,2E-1,-8.122E0,2.8E0,-1.11E-2,4.167E-1,3.55E-2,-4.725091E-2,-3.9459155E-3,9.283258E-2,-2.0699203E-2,5.6541394E-2,-6.5107346E-2,-1.1073312E-2,3.2477252E-2],"split_indices":[21,26,23,7,4,26,6,0,0,0,0,0,0,0,0],"split_type":[0,0,0,0,0,0,0,0,0,0,0,0,0,0,0],"sum_hessian":[1.8773E3,7.623E2,1.115E3,6.645E2,9.78E1,3.579E2,7.571E2,4.869E2,1.776E2,3.76E1,6.02E1,3.437E2,1.42E1,4.682E2,2.889E2],"tree_param":{"num_deleted":"0","num_feature":"27","num_nodes":"15","size_leaf_vector":"1"}},{"base_weights":[-3.9062668E-2,-3.053002E0,2.0138128E0,-8.422617E0,-2.598659E0,7.4248725E-1,4.7412252E0,-3.3011347E-2,-1.4437039E-1,-5.8345165E-2,-1.6280245E-2,7.047751E-2,3.2340644E-3,-6.2542945E-2,7.119679E-2],"categories":[],"categories_nodes":[],"categories_segments":[],"categories_sizes":[],"default_left":[0,0,0,0,0,0,0,0,0,0,0,0,0,0,0],"id":63,"left_children":[1,3,5,7,9,11,13,-1,-1,-1,-1,-1,-1,-1,-1],"loss_changes":[1.1675675E4,1.7767568E3,3.8780996E3,5.781084E2,1.593835E3,1.6916613E3,1.295687E3,0E0,0E0,0E0,0E0,0E0,0E0,0E0,0E0],"parents":[2147483647,0,0,1,1,2,2,3,3,4,4,5,5,6,6],"right_children":[2,4,6,8,10,12,14,-1,-1,-1,-1,-1,-1,-1,-1],"split_conditions":[-3.981E1,-3E-1,1.6829E2,8.16E1,-1.4911E2,7.44E1,3.29E-1,-3.3011347E-2,-1.4437039E-1,-5.8345165E-2,-1.6280245E-2,7.047751E-2,3.2340644E-3,-6.2542945E-2,7.119679E-2],"split_indices":[1,26,1,14,1,13,19,0,0,0,0,0,0,0,0],"split_type":[0,0,0,0,0,0,0,0,0,0,0,0,0,0,0],"sum_hessian":[1.879E3,7.605E2,1.1185E3,5.38E1,7.067E2,7.664E2,3.521E2,1.52E1,3.86E1,3.314E2,3.753E2,7.73E1,6.891E2,1.17E1,3.404E2],"tree_param":{"num_deleted":"0","num_feature":"27","num_nodes":"15","size_leaf_vector":"1"}},{"base_weights":[8.095533E-2,-2.8237693E0,2.1904469E0,2.0583901E0,-3.5032578E0,1.0530459E0,4.548962E0,3.8481987E-4,1.2881692E-1,6.443261E-2,-5.1937494E-2,2.914679E-2,-1.29409125E-2,-6.5871365E-2,6.827231E-2],"categories":[],"categories_nodes":[],"categories_segments":[],"categories_sizes":[],"default_left":[0,0,0,0,0,0,0,0,0,0,0,0,0,0,0],"id":64,"left_children":[1,3,5,7,9,11,13,-1,-1,-1,-1,-1,-1,-1,-1],"loss_changes":[1.1514904E4,2.6519883E3,2.9007344E3,1.4450001E3,1.326958E3,1.5287415E3,1.2344414E3,0E0,0E0,0E0,0E0,0E0,0E0,0E0,0E0],"parents":[2147483647,0,0,1,1,2,2,3,3,4,4,5,5,6,6],"right_children":[2,4,6,8,10,12,14,-1,-1,-1,-1,-1,-1,-1,-1],"split_conditions":[-3.145E1,-7.524E0,1.6829E2,5.5E-3,-2.059E-1,8.1328E1,-3.25E-1,3.8481987E-4,1.2881692E-1,6.443261E-2,-5.1937494E-2,2.914679E-2,-1.29409125E-2,-6.5871365E-2,6.827231E-2],"split_indices":[1,23,1,21,11,16,26,0,0,0,0,0,0,0,0],"split_type":[0,0,0,0,0,0,0,0,0,0,0,0,0,0,0],"sum_hessian":[1.8711E3,7.866E2,1.0845E3,9.51E1,6.915E2,7.356E2,3.489E2,7.73E1,1.78E1,1.63E1,6.752E2,4.826E2,2.53E2,1.08E1,3.381E2],"tree_param":{"num_deleted":"0","num_feature":"27","num_nodes":"15","size_leaf_vector":"1"}},{"base_weights":[3.540551E-2,-2.8072443E0,1.9501647E0,-3.8691015E0,-7.6021856E-1,1.3393041E0,6.1438E0,-4.2812686E-2,-1.0493462E-1,-2.398963E-2,7.476412E-2,6.355891E-3,3.800629E-2,1.3682319E-1,5.969035E-2],"categories":[],"categories_nodes":[],"categories_segments":[],"categories_sizes":[],"default_left":[0,0,0,0,0,0,0,0,0,0,0,0,0,0,0],"id":65,"left_children":[1,3,5,7,9,11,13,-1,-1,-1,-1,-1,-1,-1,-1],"loss_changes":[1.0358035E4,1.6529966E3,2.8795308E3,1.3758955E3,1.6058486E3,1.2173805E3,8.1065186E2,0E0,0E0,0E0,0E0,0E0,0E0,0E0,0E0],"parents":[2147483647,0,0,1,1,2,2,3,3,4,4,5,5,6,6],"right_children":[2,4,6,8,10,12,14,-1,-1,-1,-1,-1,-1,-1,-1],"split_conditions":[-3.981E1,-9E-4,2.5941E2,8.3E0,8.6E1,4E0,2.28E-2,-4.2812686E-2,-1.0493462E-1,-2.398963E-2,7.476412E-2,6.355891E-3,3.800629E-2,1.3682319E-1,5.969035E-2],"split_indices":[1,6,1,24,15,20,21,0,0,0,0,0,0,0,0],"split_type":[0,0,0,0,0,0,0,0,0,0,0,0,0,0,0],"sum_hessian":[1.8949E3,7.619E2,1.133E3,4.993E2,2.626E2,9.936E2,1.394E2,4.16E2,8.33E1,2.295E2,3.31E1,6.103E2,3.833E2,4.11E1,9.83E1],"tree_param":{"num_deleted":"0","num_feature":"27","num_nodes":"15","size_leaf_vector":"1"}},{"base_weights":[-1.5324432E-1,-2.0624762E0,2.076704E0,-3.786943E0,-8.538528E-1,1.3471488E0,4.235443E0,-5.7340927E-2,7.4498594E-2,9.974554E-2,-1.6782012E-2,4.8856623E-2,6.1363745E-3,-9.837183E-3,6.897509E-2],"categories":[],"categories_nodes":[],"categories_segments":[],"categories_sizes":[],"default_left":[0,0,0,0,0,0,0,0,0,0,0,0,0,0,0],"id":66,"left_children":[1,3,5,7,9,11,13,-1,-1,-1,-1,-1,-1,-1,-1],"loss_changes":[8.071797E3,2.1154312E3,1.3544272E3,1.3395801E3,1.7325605E3,1.2845702E3,7.8524927E2,0E0,0E0,0E0,0E0,0E0,0E0,0E0,0E0],"parents":[2147483647,0,0,1,1,2,2,3,3,4,4,5,5,6,6],"right_children":[2,4,6,8,10,12,14,-1,-1,-1,-1,-1,-1,-1,-1],"split_conditions":[1.07E0,-9.37E0,8E-1,9.52E1,7.04E1,-6.5E-1,-1.667E-1,-5.7340927E-2,7.4498594E-2,9.974554E-2,-1.6782012E-2,4.8856623E-2,6.1363745E-3,-9.837183E-3,6.897509E-2],"split_indices":[19,19,10,13,15,24,26,0,0,0,0,0,0,0,0],"split_type":[0,0,0,0,0,0,0,0,0,0,0,0,0,0,0],"sum_hessian":[1.8878E3,1.0172E3,8.706E2,4.156E2,6.016E2,6.556E2,2.15E2,4.034E2,1.22E1,2.19E1,5.797E2,1.906E2,4.65E2,2.71E1,1.879E2],"tree_param":{"num_deleted":"0","num_feature":"27","num_nodes":"15","size_leaf_vector":"1"}},{"base_weights":[1.18943155E-1,-1.9296489E0,2.381127E0,5.8132644E0,-2.1255105E0,1.4113449E0,4.6399493E0,1.554948E-1,6.58928E-3,-1.2968295E-2,-4.719479E-2,7.612785E-3,6.327373E-2,4.0631678E-2,9.495596E-2],"categories":[],"categories_nodes":[],"categories_segments":[],"categories_sizes":[],"default_left":[0,0,0,0,0,0,0,0,0,0,0,0,0,0,0],"id":67,"left_children":[1,3,5,7,9,11,13,-1,-1,-1,-1,-1,-1,-1,-1],"loss_changes":[8.789616E3,1.5595498E3,1.9477598E3,7.1008624E2,1.453877E3,1.7120005E3,9.274131E2,0E0,0E0,0E0,0E0,0E0,0E0,0E0,0E0],"parents":[2147483647,0,0,1,1,2,2,3,3,4,4,5,5,6,6],"right_children":[2,4,6,8,10,12,14,-1,-1,-1,-1,-1,-1,-1,-1],"split_conditions":[3.29E-1,7.2E1,1.2514E1,-6.5E-1,4.4E-2,7.778E-1,4E-1,1.554948E-1,6.58928E-3,-1.2968295E-2,-4.719479E-2,7.612785E-3,6.327373E-2,4.0631678E-2,9.495596E-2],"split_indices":[19,13,19,24,5,10,5,0,0,0,0,0,0,0,0],"split_type":[0,0,0,0,0,0,0,0,0,0,0,0,0,0,0],"sum_hessian":[1.8886E3,9.914E2,8.972E2,2.16E1,9.698E2,6.323E2,2.649E2,8.6E0,1.3E1,5.013E2,4.685E2,4.99E2,1.333E2,1.529E2,1.12E2],"tree_param":{"num_deleted":"0","num_feature":"27","num_nodes":"15","size_leaf_vector":"1"}},{"base_weights":[-2.3510095E-2,-2.7880223E0,1.9763782E0,-9.015069E0,-2.2934713E0,1.1742707E0,6.385621E0,-1.5187724E-1,-3.829601E-2,4.553002E-2,-3.578148E-2,2.8905172E-2,-9.316245E-3,1.09854504E-1,4.302017E-2],"categories":[],"categories_nodes":[],"categories_segments":[],"categories_sizes":[],"default_left":[0,0,0,0,0,0,0,0,0,0,0,0,0,0,0],"id":68,"left_children":[1,3,5,7,9,11,13,-1,-1,-1,-1,-1,-1,-1,-1],"loss_changes":[1.044025E4,2.357454E3,3.8449844E3,5.499673E2,1.1579329E3,1.5499226E3,7.2905225E2,0E0,0E0,0E0,0E0,0E0,0E0,0E0,0E0],"parents":[2147483647,0,0,1,1,2,2,3,3,4,4,5,5,6,6],"right_children":[2,4,6,8,10,12,14,-1,-1,-1,-1,-1,-1,-1,-1],"split_conditions":[-3.072E1,-3E-1,2.4276E2,-1.0017E2,-2.417E-1,8.1413E1,-7.136E0,-1.5187724E-1,-3.829601E-2,4.553002E-2,-3.578148E-2,2.8905172E-2,-9.316245E-3,1.09854504E-1,4.302017E-2],"split_indices":[1,26,1,1,26,16,23,0,0,0,0,0,0,0,0],"split_type":[0,0,0,0,0,0,0,0,0,0,0,0,0,0,0],"sum_hessian":[1.8803E3,7.886E2,1.0917E3,5.29E1,7.357E2,9.28E2,1.637E2,3.84E1,1.45E1,3.24E1,7.033E2,6.233E2,3.047E2,1.088E2,5.49E1],"tree_param":{"num_deleted":"0","num_feature":"27","num_nodes":"15","size_leaf_vector":"1"}},{"base_weights":[2.514691E-1,-1.6525016E0,2.4342842E0,1.3477969E-1,-1.8059789E0,2.7496965E0,-1.0446136E0,-3.3261646E-2,1.5786966E-2,4.0352058E-2,-6.702241E-2,-3.702268E-2,6.6685915E-2],"categories":[],"categories_nodes":[],"categories_segments":[],"categories_sizes":[],"default_left":[0,0,0,0,0,0,0,0,0,0,0,0,0],"id":69,"left_children":[1,3,5,-1,7,9,11,-1,-1,-1,-1,-1,-1],"loss_changes":[7.912024E3,1.8378374E3,9.846172E2,0E0,1.7272017E3,9.481826E2,7.7104474E2,0E0,0E0,0E0,0E0,0E0,0E0],"parents":[2147483647,0,0,1,1,2,2,4,4,5,5,6,6],"right_children":[2,4,6,-1,8,10,12,-1,-1,-1,-1,-1,-1],"split_conditions":[1.07E0,-6E0,3.866E0,1.3477969E-1,4.2E0,2E0,1.52E1,-3.3261646E-2,1.5786966E-2,4.0352058E-2,-6.702241E-2,-3.702268E-2,6.6685915E-2],"split_indices":[19,8,23,0,2,25,2,0,0,0,0,0,0],"split_type":[0,0,0,0,0,0,0,0,0,0,0,0,0],"sum_hessian":[1.8958E3,1.0131E3,8.827E2,1.02E1,1.0029E3,8.101E2,7.26E1,8.382E2,1.647E2,7.973E2,1.28E1,5.86E1,1.4E1],"tree_param":{"num_deleted":"0","num_feature":"27","num_nodes":"13","size_leaf_vector":"1"}},{"base_weights":[-4.404414E-3,-2.0117712E0,2.3573556E0,5.2813807E0,-2.2080817E0,3.5590522E0,7.279977E-1,-1.4232909E-2,1.0673587E-1,-5.7347097E-2,-2.0455623E-2,4.463922E-2,1.02693036E-1,-1.05202354E-1,1.57045E-2],"categories":[],"categories_nodes":[],"categories_segments":[],"categories_sizes":[],"default_left":[0,0,0,0,0,0,0,0,0,0,0,0,0,0,0],"id":70,"left_children":[1,3,5,7,9,11,13,-1,-1,-1,-1,-1,-1,-1,-1],"loss_changes":[8.983958E3,1.5136919E3,1.6942358E3,4.5137207E2,1.3876396E3,5.841079E2,1.2699202E3,0E0,0E0,0E0,0E0,0E0,0E0,0E0,0E0],"parents":[2147483647,0,0,1,1,2,2,3,3,4,4,5,5,6,6],"right_children":[2,4,6,8,10,12,14,-1,-1,-1,-1,-1,-1,-1,-1],"split_conditions":[1.07E0,7.2E1,8.1154E1,2.4E0,-2.08E0,1.34E1,8.1226E1,-1.4232909E-2,1.0673587E-1,-5.7347097E-2,-2.0455623E-2,4.463922E-2,1.02693036E-1,-1.05202354E-1,1.57045E-2],"split_indices":[19,13,16,2,17,2,16,0,0,0,0,0,0,0,0],"split_type":[0,0,0,0,0,0,0,0,0,0,0,0,0,0,0],"sum_hessian":[1.8869E3,1.0203E3,8.666E2,2.4E1,9.963E2,4.96E2,3.706E2,7.2E0,1.68E1,2.737E2,7.226E2,4.603E2,3.57E1,1.37E1,3.569E2],"tree_param":{"num_deleted":"0","num_feature":"27","num_nodes":"15","size_leaf_vector":"1"}},{"base_weights":[1.0807794E-1,-1.9268703E0,2.1960013E0,-3.620576E0,-6.7976093E-1,1.3295373E0,4.0828385E0,-3.2722384E-2,-9.4007276E-2,-1.976062E-2,3.2371216E-2,6.563022E-2,3.187048E-3,1.1937727E-1,4.420432E-2],"categories":[],"categories_nodes":[],"categories_segments":[],"categories_sizes":[],"default_left":[0,0,0,0,0,0,0,0,0,0,0,0,0,0,0],"id":71,"left_children":[1,3,5,7,9,11,13,-1,-1,-1,-1,-1,-1,-1,-1],"loss_changes":[8.0645293E3,2.0206296E3,1.5095161E3,1.5533765E3,1.2505337E3,2.405589E3,1.0867114E3,0E0,0E0,0E0,0E0,0E0,0E0,0E0,0E0],"parents":[2147483647,0,0,1,1,2,2,3,3,4,4,5,5,6,6],"right_children":[2,4,6,8,10,12,14,-1,-1,-1,-1,-1,-1,-1,-1],"split_conditions":[3.29E-1,-9.663E0,1.2514E1,3.9E0,1.667E-1,-4.05E0,8.06E1,-3.2722384E-2,-9.4007276E-2,-1.976062E-2,3.2371216E-2,6.563022E-2,3.187048E-3,1.1937727E-1,4.420432E-2],"split_indices":[19,19,19,24,26,24,15,0,0,0,0,0,0,0,0],"split_type":[0,0,0,0,0,0,0,0,0,0,0,0,0,0,0],"sum_hessian":[1.89E3,9.573E2,9.327E2,4.027E2,5.546E2,6.439E2,2.888E2,2.911E2,1.116E2,4.469E2,1.077E2,1.55E2,4.889E2,4.31E1,2.457E2],"tree_param":{"num_deleted":"0","num_feature":"27","num_nodes":"15","size_leaf_vector":"1"}},{"base_weights":[2.559335E-1,-2.0911968E0,2.0466902E0,1.4719544E-1,-2.2623065E0,9.2891663E-1,4.423953E0,-5.400029E-2,-1.3055855E-2,-2.4133068E-2,2.524357E-2,4.5701113E-2,8.807521E-2],"categories":[],"categories_nodes":[],"categories_segments":[],"categories_sizes":[],"default_left":[0,0,0,0,0,0,0,0,0,0,0,0,0],"id":72,"left_children":[1,3,5,-1,7,9,11,-1,-1,-1,-1,-1,-1],"loss_changes":[7.877757E3,1.8527344E3,2.8076138E3,0E0,1.7025938E3,1.7206782E3,6.515371E2,0E0,0E0,0E0,0E0,0E0,0E0],"parents":[2147483647,0,0,1,1,2,2,4,4,5,5,6,6],"right_children":[2,4,6,-1,8,10,12,-1,-1,-1,-1,-1,-1],"split_conditions":[-2.649E1,-6E0,1.6829E2,1.4719544E-1,-1.4911E2,-2.2E0,2.7243E2,-5.400029E-2,-1.3055855E-2,-2.4133068E-2,2.524357E-2,4.5701113E-2,8.807521E-2],"split_indices":[1,8,1,0,1,17,1,0,0,0,0,0,0],"split_type":[0,0,0,0,0,0,0,0,0,0,0,0,0],"sum_hessian":[1.8661E3,8.073E2,1.0588E3,7.5E0,7.998E2,7.24E2,3.348E2,3.575E2,4.423E2,1.793E2,5.447E2,2.155E2,1.193E2],"tree_param":{"num_deleted":"0","num_feature":"27","num_nodes":"13","size_leaf_vector":"1"}},{"base_weights":[7.665739E-2,-2.5667503E0,1.8988649E0,1.4884871E-1,-2.7408693E0,8.7281245E-1,4.421789E0,-2.8093237E-2,-8.764744E-2,3.754171E-2,-2.696322E-4,-3.0528681E-2,6.626903E-2],"categories":[],"categories_nodes":[],"categories_segments":[],"categories_sizes":[],"default_left":[0,0,0,0,0,0,0,0,0,0,0,0,0],"id":73,"left_children":[1,3,5,-1,7,9,11,-1,-1,-1,-1,-1,-1],"loss_changes":[9.019669E3,1.8804404E3,2.8535095E3,0E0,1.8979546E3,1.2879023E3,7.433364E2,0E0,0E0,0E0,0E0,0E0,0E0],"parents":[2147483647,0,0,1,1,2,2,4,4,5,5,6,6],"right_children":[2,4,6,-1,8,10,12,-1,-1,-1,-1,-1,-1],"split_conditions":[-3.981E1,-6E0,1.7514E2,1.4884871E-1,7.85E0,-1.59E-2,-2.534E0,-2.8093237E-2,-8.764744E-2,3.754171E-2,-2.696322E-4,-3.0528681E-2,6.626903E-2],"split_indices":[1,8,1,0,24,4,0,0,0,0,0,0,0],"split_type":[0,0,0,0,0,0,0,0,0,0,0,0,0],"sum_hessian":[1.8644E3,7.601E2,1.1043E3,6.7000003E0,7.534E2,7.889E2,3.154E2,6.307E2,1.22700005E2,2.568E2,5.321E2,1.4E1,3.014E2],"tree_param":{"num_deleted":"0","num_feature":"27","num_nodes":"13","size_leaf_vector":"1"}},{"base_weights":[9.983669E-2,-2.5398853E0,1.9610981E0,-8.004549E0,-2.104482E0,1.3586074E0,5.3568635E0,-1.507159E-1,-5.2267764E-2,-5.0716374E-2,-1.0486147E-2,2.9888125E-2,-4.421866E-3,1.4300969E-1,5.458448E-2],"categories":[],"categories_nodes":[],"categories_segments":[],"categories_sizes":[],"default_left":[0,0,0,0,0,0,0,0,0,0,0,0,0,0,0],"id":74,"left_children":[1,3,5,7,9,11,13,-1,-1,-1,-1,-1,-1,-1,-1],"loss_changes":[9.286154E3,1.791706E3,2.2381582E3,5.0794653E2,1.5017295E3,1.2488661E3,1.00790283E3,0E0,0E0,0E0,0E0,0E0,0E0,0E0,0E0],"parents":[2147483647,0,0,1,1,2,2,3,3,4,4,5,5,6,6],"right_children":[2,4,6,8,10,12,14,-1,-1,-1,-1,-1,-1,-1,-1],"split_conditions":[-3.429E1,-3E-1,2.4276E2,-4.26E-2,-1.4911E2,8.1413E1,-2.2E0,-1.507159E-1,-5.2267764E-2,-5.0716374E-2,-1.0486147E-2,2.9888125E-2,-4.421866E-3,1.4300969E-1,5.458448E-2],"split_indices":[1,26,1,3,1,16,17,0,0,0,0,0,0,0,0],"split_type":[0,0,0,0,0,0,0,0,0,0,0,0,0,0,0],"sum_hessian":[1.8819E3,7.776E2,1.1043E3,5.22E1,7.254E2,9.427E2,1.616E2,2.77E1,2.45E1,3.367E2,3.887E2,6.411E2,3.016E2,3.11E1,1.305E2],"tree_param":{"num_deleted":"0","num_feature":"27","num_nodes":"15","size_leaf_vector":"1"}},{"base_weights":[6.46604E-2,-2.6057956E0,1.9467037E0,1.6229647E-1,-2.783229E0,1.0089651E0,4.0100603E0,3.5443243E-2,-4.4982143E-2,-1.7502261E-2,2.5931312E-2,6.920311E-2,2.3248442E-2],"categories":[],"categories_nodes":[],"categories_segments":[],"categories_sizes":[],"default_left":[0,0,0,0,0,0,0,0,0,0,0,0,0],"id":75,"left_children":[1,3,5,-1,7,9,11,-1,-1,-1,-1,-1,-1],"loss_changes":[9.449819E3,2.0961216E3,2.1175205E3,0E0,1.8546187E3,1.4814182E3,7.3372705E2,0E0,0E0,0E0,0E0,0E0,0E0],"parents":[2147483647,0,0,1,1,2,2,4,4,5,5,6,6],"right_children":[2,4,6,-1,8,10,12,-1,-1,-1,-1,-1,-1],"split_conditions":[-3.981E1,-6E0,1.6829E2,1.6229647E-1,-9.362E0,-1.72E0,-4.552E0,3.5443243E-2,-4.4982143E-2,-1.7502261E-2,2.5931312E-2,6.920311E-2,2.3248442E-2],"split_indices":[1,8,1,0,23,17,23,0,0,0,0,0,0],"split_type":[0,0,0,0,0,0,0,0,0,0,0,0,0],"sum_hessian":[1.8721E3,7.733E2,1.0988E3,6.3E0,7.67E2,7.596E2,3.392E2,5.75E1,7.095E2,2.07E2,5.526E2,2.378E2,1.014E2],"tree_param":{"num_deleted":"0","num_feature":"27","num_nodes":"13","size_leaf_vector":"1"}},{"base_weights":[2.0697322E-2,-1.5131108E0,1.8072566E0,-1.7240618E0,5.0267353E0,1.0192338E0,3.8216765E0,-2.0623658E-2,-9.1850445E-2,1.6860533E-1,-1.1036245E-2,7.52698E-3,7.2341055E-2,5.867755E-2,-9.065629E-2],"categories":[],"categories_nodes":[],"categories_segments":[],"categories_sizes":[],"default_left":[0,0,0,0,0,0,0,0,0,0,0,0,0,0,0],"id":76,"left_children":[1,3,5,7,9,11,13,-1,-1,-1,-1,-1,-1,-1,-1],"loss_changes":[5.135135E3,1.4261106E3,1.3583813E3,1.1266555E3,1.3769653E3,1.243335E3,1.0787529E3,0E0,0E0,0E0,0E0,0E0,0E0,0E0,0E0],"parents":[2147483647,0,0,1,1,2,2,3,3,4,4,5,5,6,6],"right_children":[2,4,6,8,10,12,14,-1,-1,-1,-1,-1,-1,-1,-1],"split_conditions":[1.07E0,1.14E1,7.143E-1,6.44E-2,-4.7E0,1.9026E1,5.27E-2,-2.0623658E-2,-9.1850445E-2,1.6860533E-1,-1.1036245E-2,7.52698E-3,7.2341055E-2,5.867755E-2,-9.065629E-2],"split_indices":[19,2,10,4,24,19,4,0,0,0,0,0,0,0,0],"split_type":[0,0,0,0,0,0,0,0,0,0,0,0,0,0,0],"sum_hessian":[1.8659E3,1.0043E3,8.616E2,9.758E2,2.85E1,6.237E2,2.379E2,9.341E2,4.17E1,1.09E1,1.76E1,5.635E2,6.02E1,2.316E2,6.3E0],"tree_param":{"num_deleted":"0","num_feature":"27","num_nodes":"15","size_leaf_vector":"1"}},{"base_weights":[5.7846107E-2,-2.1986065E0,1.7283903E0,-3.5974433E0,-3.593655E-1,5.1905054E-1,3.3291836E0,-3.677416E-2,-1.055886E-1,9.337856E-2,-2.1078238E-2,8.301702E-2,2.292793E-4,5.9654035E-2,1.5440748E-2],"categories":[],"categories_nodes":[],"categories_segments":[],"categories_sizes":[],"default_left":[0,0,0,0,0,0,0,0,0,0,0,0,0,0,0],"id":77,"left_children":[1,3,5,7,9,11,13,-1,-1,-1,-1,-1,-1,-1,-1],"loss_changes":[7.110092E3,2.0592908E3,2.091031E3,1.6566855E3,2.897634E3,1.6994388E3,9.6366797E2,0E0,0E0,0E0,0E0,0E0,0E0,0E0,0E0],"parents":[2147483647,0,0,1,1,2,2,3,3,4,4,5,5,6,6],"right_children":[2,4,6,8,10,12,14,-1,-1,-1,-1,-1,-1,-1,-1],"split_conditions":[-3.429E1,1.2E-2,1.2465E2,8.92E0,-8.768E0,-1.233E1,1.508E-1,-3.677416E-2,-1.055886E-1,9.337856E-2,-2.1078238E-2,8.301702E-2,2.292793E-4,5.9654035E-2,1.5440748E-2],"split_indices":[1,4,1,24,23,24,11,0,0,0,0,0,0,0,0],"split_type":[0,0,0,0,0,0,0,0,0,0,0,0,0,0,0],"sum_hessian":[1.8781E3,7.984E2,1.0797E3,4.513E2,3.471E2,6.181E2,4.616E2,3.69E2,8.23E1,4.6E1,3.011E2,4.86E1,5.695E2,3.207E2,1.409E2],"tree_param":{"num_deleted":"0","num_feature":"27","num_nodes":"15","size_leaf_vector":"1"}},{"base_weights":[1.1548684E-1,-1.6938467E0,1.3535587E0,-2.2270122E0,2.7373781E0,2.575522E0,-9.9666E-1,-2.1058083E-2,-7.3503E-2,-6.818598E-2,6.0592275E-2,2.1908915E-1,3.2755394E-2,-6.4481355E-2,1.412248E-3],"categories":[],"categories_nodes":[],"categories_segments":[],"categories_sizes":[],"default_left":[0,0,0,0,0,0,0,0,0,0,0,0,0,0,0],"id":78,"left_children":[1,3,5,7,9,11,13,-1,-1,-1,-1,-1,-1,-1,-1],"loss_changes":[4.220939E3,1.8335178E3,3.2226895E3,1.4638691E3,1.1176138E3,2.0378052E3,1.53806E3,0E0,0E0,0E0,0E0,0E0,0E0,0E0,0E0],"parents":[2147483647,0,0,1,1,2,2,3,3,4,4,5,5,6,6],"right_children":[2,4,6,8,10,12,14,-1,-1,-1,-1,-1,-1,-1,-1],"split_conditions":[-1.5E0,8E-1,1.496E0,1E0,-8.296E0,-2.5E1,-1.1E-2,-2.1058083E-2,-7.3503E-2,-6.818598E-2,6.0592275E-2,2.1908915E-1,3.2755394E-2,-6.4481355E-2,1.412248E-3],"split_indices":[20,10,23,25,22,8,21,0,0,0,0,0,0,0,0],"split_type":[0,0,0,0,0,0,0,0,0,0,0,0,0,0,0],"sum_hessian":[1.8761E3,7.616E2,1.1145E3,6.816E2,8E1,7.33E2,3.815E2,5.567E2,1.249E2,1.25E1,6.75E1,7.7E0,7.253E2,8.56E1,2.959E2],"tree_param":{"num_deleted":"0","num_feature":"27","num_nodes":"15","size_leaf_vector":"1"}},{"base_weights":[8.652746E-2,-2.4624648E0,1.8403641E0,1.4313589E-1,-2.6429858E0,1.0045878E0,3.8238578E0,-7.8452155E-2,-2.889504E-2,5.397025E-5,2.9767742E-2,-5.8697857E-2,5.800417E-2],"categories":[],"categories_nodes":[],"categories_segments":[],"categories_sizes":[],"default_left":[0,0,0,0,0,0,0,0,0,0,0,0,0],"id":79,"left_children":[1,3,5,-1,7,9,11,-1,-1,-1,-1,-1,-1],"loss_changes":[8.403394E3,1.870543E3,1.8302874E3,0E0,1.2441699E3,8.926283E2,9.608467E2,0E0,0E0,0E0,0E0,0E0,0E0],"parents":[2147483647,0,0,1,1,2,2,4,4,5,5,6,6],"right_children":[2,4,6,-1,8,10,12,-1,-1,-1,-1,-1,-1],"split_conditions":[-3.981E1,-6E0,1.6829E2,1.4313589E-1,-2.7557E2,1.08E-2,3.29E-1,-7.8452155E-2,-2.889504E-2,5.397025E-5,2.9767742E-2,-5.8697857E-2,5.800417E-2],"split_indices":[1,8,1,0,1,21,19,0,0,0,0,0,0],"split_type":[0,0,0,0,0,0,0,0,0,0,0,0,0],"sum_hessian":[1.8716E3,7.622E2,1.1094E3,7.5E0,7.547E2,7.848E2,3.246E2,1.153E2,6.394E2,4.185E2,3.663E2,1.12E1,3.134E2],"tree_param":{"num_deleted":"0","num_feature":"27","num_nodes":"13","size_leaf_vector":"1"}},{"base_weights":[-4.4261914E-4,-2.3552055E0,1.6321126E0,2.45589E0,-2.794346E0,1.0842508E0,5.849683E0,1.2352857E-1,-1.0727349E-2,-3.3404116E-2,-1.0966905E-1,2.706372E-2,-1.0368081E-2,8.745775E-2,-1.9988328E-2],"categories":[],"categories_nodes":[],"categories_segments":[],"categories_sizes":[],"default_left":[0,0,0,0,0,0,0,0,0,0,0,0,0,0,0],"id":80,"left_children":[1,3,5,7,9,11,13,-1,-1,-1,-1,-1,-1,-1,-1],"loss_changes":[7.205648E3,1.6491392E3,2.532112E3,1.3981786E3,1.3478198E3,1.5486788E3,4.266245E2,0E0,0E0,0E0,0E0,0E0,0E0,0E0,0E0],"parents":[2147483647,0,0,1,1,2,2,3,3,4,4,5,5,6,6],"right_children":[2,4,6,8,10,12,14,-1,-1,-1,-1,-1,-1,-1,-1],"split_conditions":[-4.184E1,-9.362E0,2.5941E2,8.04E1,5.24E0,8.1413E1,5.56E0,1.2352857E-1,-1.0727349E-2,-3.3404116E-2,-1.0966905E-1,2.706372E-2,-1.0368081E-2,8.745775E-2,-1.9988328E-2],"split_indices":[1,23,1,13,17,16,17,0,0,0,0,0,0,0,0],"split_type":[0,0,0,0,0,0,0,0,0,0,0,0,0,0,0],"sum_hessian":[1.8663E3,7.634E2,1.1029E3,6.23E1,7.011E2,9.806E2,1.223E2,1.85E1,4.38E1,6.556E2,4.55E1,6.674E2,3.132E2,1.161E2,6.2E0],"tree_param":{"num_deleted":"0","num_feature":"27","num_nodes":"15","size_leaf_vector":"1"}},{"base_weights":[1.6478005E-1,-1.6543698E0,2.051518E0,-3.1999698E0,-4.7559008E-1,2.2228384E0,-5.573512E0,-4.8759572E-2,6.1811548E-2,1.5413476E-2,-2.948242E-2,8.8084545E-3,4.128281E-2,-2.7404075E-2,-1.1008889E-1],"categories":[],"categories_nodes":[],"categories_segments":[],"categories_sizes":[],"default_left":[0,0,0,0,0,0,0,0,0,0,0,0,0,0,0],"id":81,"left_children":[1,3,5,7,9,11,13,-1,-1,-1,-1,-1,-1,-1,-1],"loss_changes":[6.424971E3,1.7305769E3,1.250231E3,9.9873975E2,1.4236248E3,1.0516895E3,1.1616412E2,0E0,0E0,0E0,0E0,0E0,0E0,0E0,0E0],"parents":[2147483647,0,0,1,1,2,2,3,3,4,4,5,5,6,6],"right_children":[2,4,6,8,10,12,14,-1,-1,-1,-1,-1,-1,-1,-1],"split_conditions":[3.29E-1,-9.37E0,2E0,9.52E1,8.1E1,3.476E0,3.3E-3,-4.8759572E-2,6.1811548E-2,1.5413476E-2,-2.948242E-2,8.8084545E-3,4.128281E-2,-2.7404075E-2,-1.1008889E-1],"split_indices":[19,19,25,13,12,22,21,0,0,0,0,0,0,0,0],"split_type":[0,0,0,0,0,0,0,0,0,0,0,0,0,0,0],"sum_hessian":[1.8639E3,9.492E2,9.147E2,4.077E2,5.415E2,8.974E2,1.73E1,3.945E2,1.32E1,2.763E2,2.652E2,2.869E2,6.105E2,9.7E0,7.6E0],"tree_param":{"num_deleted":"0","num_feature":"27","num_nodes":"15","size_leaf_vector":"1"}},{"base_weights":[6.54729E-2,-2.1365235E0,1.7369013E0,-2.3156066E0,1.0548537E-1,1.2082163E0,5.448597E0,-3.7073106E-2,4.062102E-2,6.460077E-2,1.2900189E-2,1.8481432E-1,5.5323575E-2],"categories":[],"categories_nodes":[],"categories_segments":[],"categories_sizes":[],"default_left":[0,0,0,0,0,0,0,0,0,0,0,0,0],"id":82,"left_children":[1,3,5,7,-1,9,11,-1,-1,-1,-1,-1,-1],"loss_changes":[7.0570054E3,1.5086736E3,2.1122024E3,1.4977524E3,0E0,9.120934E2,1.3445881E3,0E0,0E0,0E0,0E0,0E0,0E0],"parents":[2147483647,0,0,1,1,2,2,3,3,5,5,6,6],"right_children":[2,4,6,8,-1,10,12,-1,-1,-1,-1,-1,-1],"split_conditions":[-2.946E1,9.62E1,2.5941E2,5.03E-2,1.0548537E-1,7.22E1,-8E-1,-3.7073106E-2,4.062102E-2,6.460077E-2,1.2900189E-2,1.8481432E-1,5.5323575E-2],"split_indices":[1,14,1,6,0,13,2,0,0,0,0,0,0],"split_type":[0,0,0,0,0,0,0,0,0,0,0,0,0],"sum_hessian":[1.9093E3,8.234E2,1.0859E3,8.115E2,1.19E1,9.552E2,1.307E2,7.633E2,4.82E1,6.81E1,8.871E2,1.57E1,1.15E2],"tree_param":{"num_deleted":"0","num_feature":"27","num_nodes":"13","size_leaf_vector":"1"}},{"base_weights":[1.6247116E-1,-1.349243E0,1.668294E0,-3.0508504E0,-6.980737E-1,1.0031818E0,3.713111E0,7.022256E-2,-5.1820442E-2,-4.4293668E-2,-2.6863702E-3,-9.3665635E-3,3.0340238E-2,5.674902E-2,-7.811576E-2],"categories":[],"categories_nodes":[],"categories_segments":[],"categories_sizes":[],"default_left":[0,0,0,0,0,0,0,0,0,0,0,0,0,0,0],"id":83,"left_children":[1,3,5,7,9,11,13,-1,-1,-1,-1,-1,-1,-1,-1],"loss_changes":[4.354103E3,1.0492765E3,1.2879109E3,1.4936653E3,8.6926794E2,1.4375527E3,8.7099756E2,0E0,0E0,0E0,0E0,0E0,0E0,0E0,0E0],"parents":[2147483647,0,0,1,1,2,2,3,3,4,4,5,5,6,6],"right_children":[2,4,6,8,10,12,14,-1,-1,-1,-1,-1,-1,-1,-1],"split_conditions":[-1.08E-1,-1.96E0,7.5E-1,7.2E1,-1.99E-2,1.73E-2,5.27E-2,7.022256E-2,-5.1820442E-2,-4.4293668E-2,-2.6863702E-3,-9.3665635E-3,3.0340238E-2,5.674902E-2,-7.811576E-2],"split_indices":[0,17,10,12,4,6,4,0,0,0,0,0,0,0,0],"split_type":[0,0,0,0,0,0,0,0,0,0,0,0,0,0,0],"sum_hessian":[1.9047E3,9.507E2,9.54E2,2.59E2,6.917E2,7.244E2,2.296E2,1.77E1,2.413E2,1.135E2,5.782E2,2.991E2,4.253E2,2.233E2,6.3E0],"tree_param":{"num_deleted":"0","num_feature":"27","num_nodes":"15","size_leaf_vector":"1"}},{"base_weights":[-9.438176E-3,-2.2900007E0,1.5629486E0,2.436953E0,-2.6876733E0,9.2964333E-1,5.298407E0,-2.5165567E-2,8.159707E-2,-9.388682E-2,-3.2370944E-2,2.4367133E-2,-9.520049E-3,9.020513E-2,9.483456E-3],"categories":[],"categories_nodes":[],"categories_segments":[],"categories_sizes":[],"default_left":[0,0,0,0,0,0,0,0,0,0,0,0,0,0,0],"id":84,"left_children":[1,3,5,7,9,11,13,-1,-1,-1,-1,-1,-1,-1,-1],"loss_changes":[6.728539E3,1.4658906E3,2.6075173E3,9.346236E2,9.84604E2,1.264456E3,8.4930225E2,0E0,0E0,0E0,0E0,0E0,0E0,0E0,0E0],"parents":[2147483647,0,0,1,1,2,2,3,3,4,4,5,5,6,6],"right_children":[2,4,6,8,10,12,14,-1,-1,-1,-1,-1,-1,-1,-1],"split_conditions":[-3.981E1,-9.362E0,2.4276E2,1.508E-1,-3.2489E2,8.1413E1,-3.672E0,-2.5165567E-2,8.159707E-2,-9.388682E-2,-3.2370944E-2,2.4367133E-2,-9.520049E-3,9.020513E-2,9.483456E-3],"split_indices":[1,23,1,11,1,16,23,0,0,0,0,0,0,0,0],"split_type":[0,0,0,0,0,0,0,0,0,0,0,0,0,0,0],"sum_hessian":[1.8683E3,7.617E2,1.1066E3,5.75E1,7.042E2,9.505E2,1.561E2,2.65E1,3.1E1,5.25E1,6.517E2,6.303E2,3.202E2,1.232E2,3.29E1],"tree_param":{"num_deleted":"0","num_feature":"27","num_nodes":"15","size_leaf_vector":"1"}},{"base_weights":[5.032516E-2,-1.9869854E0,1.5251771E0,-5.263803E0,-1.3736709E0,1.0796524E0,4.492814E0,-8.6962506E-2,7.6838665E-2,1.2756868E-1,-2.1251502E-2,7.7875674E-2,1.0278237E-2,9.603777E-2,2.295982E-2],"categories":[],"categories_nodes":[],"categories_segments":[],"categories_sizes":[],"default_left":[0,0,0,0,0,0,0,0,0,0,0,0,0,0,0],"id":85,"left_children":[1,3,5,7,9,11,13,-1,-1,-1,-1,-1,-1,-1,-1],"loss_changes":[5.6441357E3,1.5561245E3,1.420936E3,1.4299038E3,1.1197141E3,1.4531373E3,9.153352E2,0E0,0E0,0E0,0E0,0E0,0E0,0E0,0E0],"parents":[2147483647,0,0,1,1,2,2,3,3,4,4,5,5,6,6],"right_children":[2,4,6,8,10,12,14,-1,-1,-1,-1,-1,-1,-1,-1],"split_conditions":[-3.429E1,-2.7557E2,2.5941E2,2.4E0,-5.417E-1,7.22E1,3.1286E2,-8.6962506E-2,7.6838665E-2,1.2756868E-1,-2.1251502E-2,7.7875674E-2,1.0278237E-2,9.603777E-2,2.295982E-2],"split_indices":[1,1,1,20,26,13,1,0,0,0,0,0,0,0,0],"split_type":[0,0,0,0,0,0,0,0,0,0,0,0,0,0,0],"sum_hessian":[1.8703E3,7.848E2,1.0855E3,1.189E2,6.659E2,9.486E2,1.369E2,1.106E2,8.3E0,6E0,6.599E2,6.26E1,8.86E2,7.12E1,6.57E1],"tree_param":{"num_deleted":"0","num_feature":"27","num_nodes":"15","size_leaf_vector":"1"}},{"base_weights":[1.1022001E-1,-1.3163261E0,2.585624E0,-4.96602E0,-8.388643E-1,-3.6572173E0,2.8948522E0,-8.705062E-2,3.7548125E-2,-4.2871047E-2,-3.989212E-3,3.428355E-2,-1.00136146E-1,3.2469355E-2,9.014705E-2],"categories":[],"categories_nodes":[],"categories_segments":[],"categories_sizes":[],"default_left":[0,0,0,0,0,0,0,0,0,0,0,0,0,0,0],"id":86,"left_children":[1,3,5,7,9,11,13,-1,-1,-1,-1,-1,-1,-1,-1],"loss_changes":[6.7042573E3,2.0823557E3,1.3825996E3,1.4247312E3,1.3192476E3,8.163419E2,1.2797822E3,0E0,0E0,0E0,0E0,0E0,0E0,0E0,0E0],"parents":[2147483647,0,0,1,1,2,2,3,3,4,4,5,5,6,6],"right_children":[2,4,6,8,10,12,14,-1,-1,-1,-1,-1,-1,-1,-1],"split_conditions":[6.597E1,-2.6894E2,-3.25E-1,1.3656E1,-2.96E0,-4.25E-1,1.28E1,-8.705062E-2,3.7548125E-2,-4.2871047E-2,-3.989212E-3,3.428355E-2,-1.00136146E-1,3.2469355E-2,9.014705E-2],"split_indices":[1,1,26,23,17,26,2,0,0,0,0,0,0,0,0],"split_type":[0,0,0,0,0,0,0,0,0,0,0,0,0,0,0],"sum_hessian":[1.8906E3,1.2006E3,6.9E2,1.345E2,1.0661E3,