{"learner":{"attributes":{"scikit_learn":"{\"_estimator_type\": \"regressor\"}"},"feature_names":[],"feature_types":[],"gradient_booster":{"model":{"cats":{"enc":[],"feature_segments":[],"sorted_idx":[]},"gbtree_model_param":{"num_parallel_tree":"1","num_trees":"250"},"iteration_indptr":[0,1,2,3,4,5,6,7,8,9,10,11,12,13,14,15,16,17,18,19,20,21,22,23,24,25,26,27,28,29,30,31,32,33,34,35,36,37,38,39,40,41,42,43,44,45,46,47,48,49,50,51,52,53,54,55,56,57,58,59,60,61,62,63,64,65,66,67,68,69,70,71,72,73,74,75,76,77,78,79,80,81,82,83,84,85,86,87,88,89,90,91,92,93,94,95,96,97,98,99,100,101,102,103,104,105,106,107,108,109,110,111,112,113,114,115,116,117,118,119,120,121,122,123,124,125,126,127,128,129,130,131,132,133,134,135,136,137,138,139,140,141,142,143,144,145,146,147,148,149,150,151,152,153,154,155,156,157,158,159,160,161,162,163,164,165,166,167,168,169,170,171,172,173,174,175,176,177,178,179,180,181,182,183,184,185,186,187,188,189,190,191,192,193,194,195,196,197,198,199,200,201,202,203,204,205,206,207,208,209,210,211,212,213,214,215,216,217,218,219,220,221,222,223,224,225,226,227,228,229,230,231,232,233,234,235,236,237,238,239,240,241,242,243,244,245,246,247,248,249,250],"tree_info":[0,0,0,0,0,0,0,0,0,0,0,0,0,0,0,0,0,0,0,0,0,0,0,0,0,0,0,0,0,0,0,0,0,0,0,0,0,0,0,0,0,0,0,0,0,0,0,0,0,0,0,0,0,0,0,0,0,0,0,0,0,0,0,0,0,0,0,0,0,0,0,0,0,0,0,0,0,0,0,0,0,0,0,0,0,0,0,0,0,0,0,0,0,0,0,0,0,0,0,0,0,0,0,0,0,0,0,0,0,0,0,0,0,0,0,0,0,0,0,0,0,0,0,0,0,0,0,0,0,0,0,0,0,0,0,0,0,0,0,0,0,0,0,0,0,0,0,0,0,0,0,0,0,0,0,0,0,0,0,0,0,0,0,0,0,0,0,0,0,0,0,0,0,0,0,0,0,0,0,0,0,0,0,0,0,0,0,0,0,0,0,0,0,0,0,0,0,0,0,0,0,0,0,0,0,0,0,0,0,0,0,0,0,0,0,0,0,0,0,0,0,0,0,0,0,0,0,0,0,0,0,0,0,0,0,0,0,0,0,0,0,0,0,0,0,0,0,0,0,0],"trees":[{"base_weights":[-3.593372E-1,-2.2271655E0,4.2744093E0,-4.375935E0,-8.1908125E-1,7.448578E-1,7.4084244E0,-5.507752E-2,7.175921E-2,2.1043627E-2,-3.1148149E-2,-4.4268675E-2,5.057614E-2,-1.707675E-2,8.889942E-2],"categories":[],"categories_nodes":[],"categories_segments":[],"categories_sizes":[],"default_left":[0,0,0,0,0,0,0,0,0,0,0,0,0,0,0],"id":0,"left_children":[1,3,5,7,9,11,13,-1,-1,-1,-1,-1,-1,-1,-1],"loss_changes":[1.3591407E4,3.3665776E3,4.9643887E3,5.2406494E3,4.390643E3,4.738905E3,2.8350303E3,0E0,0E0,0E0,0E0,0E0,0E0,0E0,0E0],"parents":[2147483647,0,0,1,1,2,2,3,3,4,4,5,5,6,6],"right_children":[2,4,6,8,10,12,14,-1,-1,-1,-1,-1,-1,-1,-1],"split_conditions":[8.52E1,8E1,8.26E1,9.04E1,-3.6E-1,4E-1,-4.1E-2,-5.507752E-2,7.175921E-2,2.1043627E-2,-3.1148149E-2,-4.4268675E-2,5.057614E-2,-1.707675E-2,8.889942E-2],"split_indices":[12,14,14,15,5,7,4,0,0,0,0,0,0,0,0],"split_type":[0,0,0,0,0,0,0,0,0,0,0,0,0,0,0],"sum_hessian":[1.5599E3,1.1136E3,4.463E2,4.367E2,6.769E2,2.128E2,2.335E2,4.037E2,3.3E1,2.954E2,3.815E2,9.63E1,1.165E2,2.86E1,2.049E2],"tree_param":{"num_deleted":"0","num_feature":"27","num_nodes":"15","size_leaf_vector":"1"}},{"base_weights":[3.199886E-1,-1.5807074E0,4.4669366E0,-5.0886006E0,-4.730479E-3,1.1791894E0,7.451907E0,-5.630289E-2,8.8927E-2,2.4565766E-2,-2.5481422E-2,-1.9975524E-2,5.124368E-2,9.3704484E-2,2.2321245E-2],"categories":[],"categories_nodes":[],"categories_segments":[],"categories_sizes":[],"default_left":[0,0,0,0,0,0,0,0,0,0,0,0,0,0,0],"id":1,"left_children":[1,3,5,7,9,11,13,-1,-1,-1,-1,-1,-1,-1,-1],"loss_changes":[1.2443695E4,5.98805E3,4.824669E3,2.1426055E3,4.524887E3,2.9476843E3,2.2255566E3,0E0,0E0,0E0,0E0,0E0,0E0,0E0,0E0],"parents":[2147483647,0,0,1,1,2,2,3,3,4,4,5,5,6,6],"right_children":[2,4,6,8,10,12,14,-1,-1,-1,-1,-1,-1,-1,-1],"split_conditions":[8.48E1,7.86E1,8.26E1,9.5E0,-6.4E-3,1.053E-1,1E0,-5.630289E-2,8.8927E-2,2.4565766E-2,-2.5481422E-2,-1.9975524E-2,5.124368E-2,9.3704484E-2,2.2321245E-2],"split_indices":[12,14,14,20,21,11,8,0,0,0,0,0,0,0,0],"split_type":[0,0,0,0,0,0,0,0,0,0,0,0,0,0,0],"sum_hessian":[1.5693E3,1.0782E3,4.911E2,3.308E2,7.474E2,2.37E2,2.541E2,3.241E2,6.7E0,3.799E2,3.675E2,1.317E2,1.053E2,1.893E2,6.48E1],"tree_param":{"num_deleted":"0","num_feature":"27","num_nodes":"15","size_leaf_vector":"1"}},{"base_weights":[-2.8343797E-1,-1.5502614E0,2.6578715E0,-3.439952E0,1.2205312E0,-1.08324175E1,3.1974654E0,-4.988461E-2,4.2182356E-2,-1.3394855E-3,1.10696144E-1,-2.3320366E-2,-1.4851253E-1,-2.4658514E-3,5.084677E-2],"categories":[],"categories_nodes":[],"categories_segments":[],"categories_sizes":[],"default_left":[0,0,0,0,0,0,0,0,0,0,0,0,0,0,0],"id":2,"left_children":[1,3,5,7,9,11,13,-1,-1,-1,-1,-1,-1,-1,-1],"loss_changes":[5.707203E3,5.6226855E3,3.5300288E3,7.007797E3,5.67885E3,4.2910474E2,2.7285103E3,0E0,0E0,0E0,0E0,0E0,0E0,0E0,0E0],"parents":[2147483647,0,0,1,1,2,2,3,3,4,4,5,5,6,6],"right_children":[2,4,6,8,10,12,14,-1,-1,-1,-1,-1,-1,-1,-1],"split_conditions":[2.836E0,8.28E1,-3.334E-1,1.1E1,4.96E-2,4.892E0,7.94E1,-4.988461E-2,4.2182356E-2,-1.3394855E-3,1.10696144E-1,-2.3320366E-2,-1.4851253E-1,-2.4658514E-3,5.084677E-2],"split_indices":[23,13,26,2,3,23,13,0,0,0,0,0,0,0,0],"split_type":[0,0,0,0,0,0,0,0,0,0,0,0,0,0,0],"sum_hessian":[1.5212E3,1.0649E3,4.563E2,6.324E2,4.325E2,1.39E1,4.424E2,5.331E2,9.93E1,3.834E2,4.91E1,6.6E0,7.3E0,1.518E2,2.906E2],"tree_param":{"num_deleted":"0","num_feature":"27","num_nodes":"15","size_leaf_vector":"1"}},{"base_weights":[-2.6431057E-1,-4.132249E0,1.5208468E0,-5.5352874E0,1.7724208E0,-3.0473258E0,2.5822499E0,-1.05923064E-1,-4.0201493E-2,-4.234958E-2,7.1311615E-2,-1.2932631E-1,-2.0849433E-2,2.9593984E-2,-1.4145477E-1],"categories":[],"categories_nodes":[],"categories_segments":[],"categories_sizes":[],"default_left":[0,0,0,0,0,0,0,0,0,0,0,0,0,0,0],"id":3,"left_children":[1,3,5,7,9,11,13,-1,-1,-1,-1,-1,-1,-1,-1],"loss_changes":[1.100432E4,4.2173447E3,5.32892E3,2.953253E3,3.2245054E3,1.8867083E3,4.6973013E3,0E0,0E0,0E0,0E0,0E0,0E0,0E0,0E0],"parents":[2147483647,0,0,1,1,2,2,3,3,4,4,5,5,6,6],"right_children":[2,4,6,8,10,12,14,-1,-1,-1,-1,-1,-1,-1,-1],"split_conditions":[7.92E1,4.96E-2,7.64E1,0E0,7.8E1,8E1,8.76E-2,-1.05923064E-1,-4.0201493E-2,-4.234958E-2,7.1311615E-2,-1.2932631E-1,-2.0849433E-2,2.9593984E-2,-1.4145477E-1],"split_indices":[14,3,15,8,13,14,21,0,0,0,0,0,0,0,0],"split_type":[0,0,0,0,0,0,0,0,0,0,0,0,0,0,0],"sum_hessian":[1.5842E3,4.982E2,1.086E3,4.028E2,9.54E1,2.03E2,8.83E2,9.41E1,3.087E2,4.51E1,5.03E1,1.39E1,1.891E2,8.707E2,1.23E1],"tree_param":{"num_deleted":"0","num_feature":"27","num_nodes":"15","size_leaf_vector":"1"}},{"base_weights":[-1.3861705E-1,-1.8720269E0,4.215392E0,-5.111302E0,2.6908997E-1,-2.0870261E0,5.138403E0,-6.115075E-2,4.471518E-2,3.4178395E-2,-2.2235984E-2,4.9844313E-2,-7.109531E-2,1.793151E-1,4.528789E-2],"categories":[],"categories_nodes":[],"categories_segments":[],"categories_sizes":[],"default_left":[0,0,0,0,0,0,0,0,0,0,0,0,0,0,0],"id":4,"left_children":[1,3,5,7,9,11,13,-1,-1,-1,-1,-1,-1,-1,-1],"loss_changes":[1.1853574E4,7.7961157E3,2.655233E3,3.786912E3,5.1391387E3,2.2189165E3,3.0759443E3,0E0,0E0,0E0,0E0,0E0,0E0,0E0,0E0],"parents":[2147483647,0,0,1,1,2,2,3,3,4,4,5,5,6,6],"right_children":[2,4,6,8,10,12,14,-1,-1,-1,-1,-1,-1,-1,-1],"split_conditions":[8.52E1,8E1,7.5E1,9.04E1,-3.6E-1,-3.981E0,-1.432E1,-6.115075E-2,4.471518E-2,3.4178395E-2,-2.2235984E-2,4.9844313E-2,-7.109531E-2,1.793151E-1,4.528789E-2],"split_indices":[12,14,15,15,5,19,19,0,0,0,0,0,0,0,0],"split_type":[0,0,0,0,0,0,0,0,0,0,0,0,0,0,0],"sum_hessian":[1.5604E3,1.1181E3,4.423E2,4.422E2,6.759E2,5.57E1,3.866E2,4.07E2,3.52E1,2.986E2,3.773E2,2.29E1,3.28E1,1.47E1,3.719E2],"tree_param":{"num_deleted":"0","num_feature":"27","num_nodes":"15","size_leaf_vector":"1"}},{"base_weights":[-2.3943497E-1,-3.29116E0,3.5241246E0,-6.1173277E0,-6.4577043E-1,1.9922925E0,7.627319E0,-8.7014146E-2,-3.591856E-2,-1.5963854E-2,5.596446E-2,-1.9833026E-2,3.625405E-2,-2.1946574E-2,8.901614E-2],"categories":[],"categories_nodes":[],"categories_segments":[],"categories_sizes":[],"default_left":[0,0,0,0,0,0,0,0,0,0,0,0,0,0,0],"id":5,"left_children":[1,3,5,7,9,11,13,-1,-1,-1,-1,-1,-1,-1,-1],"loss_changes":[1.8040012E4,6.4636104E3,4.3460195E3,2.454337E3,2.575567E3,3.19429E3,2.0718428E3,0E0,0E0,0E0,0E0,0E0,0E0,0E0,0E0],"parents":[2147483647,0,0,1,1,2,2,3,3,4,4,5,5,6,6],"right_children":[2,4,6,8,10,12,14,-1,-1,-1,-1,-1,-1,-1,-1],"split_conditions":[8.1026E1,8.04E1,8.68E1,7.9626E1,4E0,-2E0,-9E0,-8.7014146E-2,-3.591856E-2,-1.5963854E-2,5.596446E-2,-1.9833026E-2,3.625405E-2,-2.1946574E-2,8.901614E-2],"split_indices":[16,13,14,16,2,18,2,0,0,0,0,0,0,0,0],"split_type":[0,0,0,0,0,0,0,0,0,0,0,0,0,0,0],"sum_hessian":[1.5607E3,8.622E2,6.985E2,4.137E2,4.485E2,5.14E2,1.845E2,2.103E2,2.034E2,3.934E2,5.5100002E1,1.45E2,3.69E2,1.77E1,1.668E2],"tree_param":{"num_deleted":"0","num_feature":"27","num_nodes":"15","size_leaf_vector":"1"}},{"base_weights":[8.871195E-2,-2.836735E0,2.9118795E0,-2.0361304E0,-7.2597966E0,4.5150787E-1,4.253388E0,-8.16976E-2,-1.228761E-2,7.7607766E-2,-8.423683E-2,7.638277E-2,-6.052596E-3,-9.03833E-3,5.8694426E-2],"categories":[],"categories_nodes":[],"categories_segments":[],"categories_sizes":[],"default_left":[0,0,0,0,0,0,0,0,0,0,0,0,0,0,0],"id":6,"left_children":[1,3,5,7,9,11,13,-1,-1,-1,-1,-1,-1,-1,-1],"loss_changes":[1.3068667E4,2.6785298E3,2.6480083E3,3.2562322E3,1.9964976E3,2.139668E3,3.9835146E3,0E0,0E0,0E0,0E0,0E0,0E0,0E0,0E0],"parents":[2147483647,0,0,1,1,2,2,3,3,4,4,5,5,6,6],"right_children":[2,4,6,8,10,12,14,-1,-1,-1,-1,-1,-1,-1,-1],"split_conditions":[8.16E1,2.816E-1,-2E0,-1E0,-2E0,-8.51E-2,-4.44E-2,-8.16976E-2,-1.228761E-2,7.7607766E-2,-8.423683E-2,7.638277E-2,-6.052596E-3,-9.03833E-3,5.8694426E-2],"split_indices":[14,11,18,8,8,3,11,0,0,0,0,0,0,0,0],"split_type":[0,0,0,0,0,0,0,0,0,0,0,0,0,0,0],"sum_hessian":[1.5724E3,7.722E2,8.002E2,6.6E2,1.122E2,2.847E2,5.155E2,7.61E1,5.839E2,4.8E0,1.074E2,3.29E1,2.518E2,1.158E2,3.997E2],"tree_param":{"num_deleted":"0","num_feature":"27","num_nodes":"15","size_leaf_vector":"1"}},{"base_weights":[1.1472837E-1,-2.0084476E0,4.7173038E0,-4.458313E0,9.125352E-1,2.4292886E0,7.6765175E0,-6.987353E-2,-1.108561E-2,-1.2320553E-2,3.9473087E-2,-3.1488262E-2,4.259356E-2,3.6012188E-2,1.2028274E-1],"categories":[],"categories_nodes":[],"categories_segments":[],"categories_sizes":[],"default_left":[0,0,0,0,0,0,0,0,0,0,0,0,0,0,0],"id":7,"left_children":[1,3,5,7,9,11,13,-1,-1,-1,-1,-1,-1,-1,-1],"loss_changes":[1.5639211E4,7.8587563E3,3.32762E3,4.73121E3,3.1613074E3,2.849401E3,3.4873506E3,0E0,0E0,0E0,0E0,0E0,0E0,0E0,0E0],"parents":[2147483647,0,0,1,1,2,2,3,3,4,4,5,5,6,6],"right_children":[2,4,6,8,10,12,14,-1,-1,-1,-1,-1,-1,-1,-1],"split_conditions":[8.48E1,8.068E1,8.44E1,8.18E1,5.28E-1,7.66E1,2.496E0,-6.987353E-2,-1.108561E-2,-1.2320553E-2,3.9473087E-2,-3.1488262E-2,4.259356E-2,3.6012188E-2,1.2028274E-1],"split_indices":[12,16,14,13,23,15,23,0,0,0,0,0,0,0,0],"split_type":[0,0,0,0,0,0,0,0,0,0,0,0,0,0,0],"sum_hessian":[1.5906E3,1.0904E3,5.002E2,5.916E2,4.988E2,2.872E2,2.13E2,3.447E2,2.469E2,2.919E2,2.069E2,6.78E1,2.194E2,1.1E2,1.03E2],"tree_param":{"num_deleted":"0","num_feature":"27","num_nodes":"15","size_leaf_vector":"1"}},{"base_weights":[1.3612539E-1,-3.007168E0,3.8347156E0,-4.701329E0,2.8819926E-2,1.173136E-1,5.293778E0,-3.6693234E-2,-1.0490581E-1,-4.1255977E-2,1.8904531E-2,-3.550236E-2,5.24228E-2,1.6257891E-2,7.571095E-2],"categories":[],"categories_nodes":[],"categories_segments":[],"categories_sizes":[],"default_left":[0,0,0,0,0,0,0,0,0,0,0,0,0,0,0],"id":8,"left_children":[1,3,5,7,9,11,13,-1,-1,-1,-1,-1,-1,-1,-1],"loss_changes":[1.8163016E4,4.3452227E3,3.8895137E3,3.1756494E3,2.306129E3,3.809226E3,3.9562744E3,0E0,0E0,0E0,0E0,0E0,0E0,0E0,0E0],"parents":[2147483647,0,0,1,1,2,2,3,3,4,4,5,5,6,6],"right_children":[2,4,6,8,10,12,14,-1,-1,-1,-1,-1,-1,-1,-1],"split_conditions":[8.0902E1,8.26E1,-2E0,2.816E-1,7.9304E1,2.836E0,-3.34E-2,-3.6693234E-2,-1.0490581E-1,-4.1255977E-2,1.8904531E-2,-3.550236E-2,5.24228E-2,1.6257891E-2,7.571095E-2],"split_indices":[16,14,18,11,16,23,26,0,0,0,0,0,0,0,0],"split_type":[0,0,0,0,0,0,0,0,0,0,0,0,0,0,0],"sum_hessian":[1.5524E3,8.397E2,7.127E2,5.372E2,3.025E2,2.024E2,5.103E2,4.54E2,8.32E1,9.17E1,2.108E2,1.188E2,8.36E1,1.879E2,3.224E2],"tree_param":{"num_deleted":"0","num_feature":"27","num_nodes":"15","size_leaf_vector":"1"}},{"base_weights":[7.01113E-1,-1.6525558E0,3.3337693E0,-4.015526E0,1.4966589E0,-3.5855338E-1,5.1984134E0,-5.3196594E-2,-5.295653E-4,5.980817E-3,1.0460197E-1,-3.0167006E-2,5.1099136E-2,2.117109E-2,7.701843E-2],"categories":[],"categories_nodes":[],"categories_segments":[],"categories_sizes":[],"default_left":[0,0,0,0,0,0,0,0,0,0,0,0,0,0,0],"id":9,"left_children":[1,3,5,7,9,11,13,-1,-1,-1,-1,-1,-1,-1,-1],"loss_changes":[9.653977E3,6.1585273E3,5.0694785E3,2.208401E3,2.8086824E3,3.5534128E3,3.4801143E3,0E0,0E0,0E0,0E0,0E0,0E0,0E0,0E0],"parents":[2147483647,0,0,1,1,2,2,3,3,4,4,5,5,6,6],"right_children":[2,4,6,8,10,12,14,-1,-1,-1,-1,-1,-1,-1,-1],"split_conditions":[8.22E1,8.26E1,7.88E1,8.48E1,9E1,1.1E1,8.06E1,-5.3196594E-2,-5.295653E-4,5.980817E-3,1.0460197E-1,-3.0167006E-2,5.1099136E-2,2.117109E-2,7.701843E-2],"split_indices":[14,13,13,12,12,2,15,0,0,0,0,0,0,0,0],"split_type":[0,0,0,0,0,0,0,0,0,0,0,0,0,0,0],"sum_hessian":[1.5486E3,8.186E2,7.3E2,4.669E2,3.517E2,2.463E2,4.837E2,3.585E2,1.084E2,3.232E2,2.85E1,1.675E2,7.88E1,2.102E2,2.735E2],"tree_param":{"num_deleted":"0","num_feature":"27","num_nodes":"15","size_leaf_vector":"1"}},{"base_weights":[-4.7039747E-1,-4.094594E0,1.9265362E0,-7.32662E0,-9.316365E-1,2.1724693E-1,5.599309E0,4.0862095E-2,-8.200296E-2,-2.98014E-2,3.203646E-2,-3.010306E-2,2.6141984E-2,-4.2835917E-2,6.8230666E-2],"categories":[],"categories_nodes":[],"categories_segments":[],"categories_sizes":[],"default_left":[0,0,0,0,0,0,0,0,0,0,0,0,0,0,0],"id":10,"left_children":[1,3,5,7,9,11,13,-1,-1,-1,-1,-1,-1,-1,-1],"loss_changes":[1.3694917E4,6.379535E3,5.955209E3,2.55758E3,2.6406108E3,4.8573926E3,3.283125E3,0E0,0E0,0E0,0E0,0E0,0E0,0E0,0E0],"parents":[2147483647,0,0,1,1,2,2,3,3,4,4,5,5,6,6],"right_children":[2,4,6,8,10,12,14,-1,-1,-1,-1,-1,-1,-1,-1],"split_conditions":[8.0356E1,8.04E1,3.4E0,0E0,8.32E1,-4.664E0,-4.64E0,4.0862095E-2,-8.200296E-2,-2.98014E-2,3.203646E-2,-3.010306E-2,2.6141984E-2,-4.2835917E-2,6.8230666E-2],"split_indices":[16,13,20,9,12,23,17,0,0,0,0,0,0,0,0],"split_type":[0,0,0,0,0,0,0,0,0,0,0,0,0,0,0],"sum_hessian":[1.567E3,6.224E2,9.446E2,3.046E2,3.178E2,6.482E2,2.964E2,1.6E1,2.886E2,2.146E2,1.032E2,2.751E2,3.731E2,2.77E1,2.687E2],"tree_param":{"num_deleted":"0","num_feature":"27","num_nodes":"15","size_leaf_vector":"1"}},{"base_weights":[-1.4886422E-1,-2.3960564E0,2.5766885E0,7.94834E0,-2.6922734E0,1.6663015E0,7.5732703E0,-4.2950376E-3,1.6295323E-1,-3.2505058E-2,3.1215247E-2,2.1554645E-2,-7.567649E-2,-7.453683E-2,1.02297835E-1],"categories":[],"categories_nodes":[],"categories_segments":[],"categories_sizes":[],"default_left":[0,0,0,0,0,0,0,0,0,0,0,0,0,0,0],"id":11,"left_children":[1,3,5,7,9,11,13,-1,-1,-1,-1,-1,-1,-1,-1],"loss_changes":[9.722502E3,2.771898E3,3.2008804E3,1.7324243E3,2.4049507E3,2.5189214E3,4.287591E3,0E0,0E0,0E0,0E0,0E0,0E0,0E0,0E0],"parents":[2147483647,0,0,1,1,2,2,3,3,4,4,5,5,6,6],"right_children":[2,4,6,8,10,12,14,-1,-1,-1,-1,-1,-1,-1,-1],"split_conditions":[8.26E1,-2.9215E2,9.08E1,2.29E-2,9.7E0,5.84E0,-2.167E-1,-4.2950376E-3,1.6295323E-1,-3.2505058E-2,3.1215247E-2,2.1554645E-2,-7.567649E-2,-7.453683E-2,1.02297835E-1],"split_indices":[14,1,14,4,20,5,26,0,0,0,0,0,0,0,0],"split_type":[0,0,0,0,0,0,0,0,0,0,0,0,0,0,0],"sum_hessian":[1.5774E3,8.649E2,7.125E2,2.05E1,8.444E2,6.083E2,1.042E2,1.23E1,8.2E0,7.809E2,6.35E1,5.838E2,2.45E1,1.32E1,9.1E1],"tree_param":{"num_deleted":"0","num_feature":"27","num_nodes":"15","size_leaf_vector":"1"}},{"base_weights":[-2.9937182E-2,-3.1484149E0,3.4355695E0,-5.782055E0,-6.279132E-1,4.8878407E0,-8.614524E-1,4.2069495E-2,-6.70956E-2,-2.0165632E-2,4.2115975E-2,2.3801293E-2,8.3506435E-2,3.7905131E-3,-1.13096625E-1],"categories":[],"categories_nodes":[],"categories_segments":[],"categories_sizes":[],"default_left":[0,0,0,0,0,0,0,0,0,0,0,0,0,0,0],"id":12,"left_children":[1,3,5,7,9,11,13,-1,-1,-1,-1,-1,-1,-1,-1],"loss_changes":[1.7129836E4,5.519925E3,4.7061113E3,3.2479072E3,2.7891436E3,4.614245E3,2.4531648E3,0E0,0E0,0E0,0E0,0E0,0E0,0E0,0E0],"parents":[2147483647,0,0,1,1,2,2,3,3,4,4,5,5,6,6],"right_children":[2,4,6,8,10,12,14,-1,-1,-1,-1,-1,-1,-1,-1],"split_conditions":[8.0862E1,8.04E1,7E-1,0E0,8.5E1,8.34E1,1.44E1,4.2069495E-2,-6.70956E-2,-2.0165632E-2,4.2115975E-2,2.3801293E-2,8.3506435E-2,3.7905131E-3,-1.13096625E-1],"split_indices":[16,13,10,9,12,12,24,0,0,0,0,0,0,0,0],"split_type":[0,0,0,0,0,0,0,0,0,0,0,0,0,0,0],"sum_hessian":[1.5751E3,8.293E2,7.458E2,4.024E2,4.269E2,5.569E2,1.889E2,2.76E1,3.748E2,3.35E2,9.19E1,3.17E2,2.399E2,1.728E2,1.61E1],"tree_param":{"num_deleted":"0","num_feature":"27","num_nodes":"15","size_leaf_vector":"1"}},{"base_weights":[-1.7960303E-1,-2.0879729E0,4.004783E0,-5.906429E0,-5.405685E-1,5.012765E0,-5.1223454E0,1.1387566E-2,-6.995427E-2,1.70566E-2,-2.330689E-2,-2.3566699E-2,6.256466E-2,-9.182686E-2,2.756273E-2],"categories":[],"categories_nodes":[],"categories_segments":[],"categories_sizes":[],"default_left":[0,0,0,0,0,0,0,0,0,0,0,0,0,0,0],"id":13,"left_children":[1,3,5,7,9,11,13,-1,-1,-1,-1,-1,-1,-1,-1],"loss_changes":[1.2767651E4,6.4705254E3,4.7357607E3,2.0957725E3,3.0333596E3,3.717667E3,1.6923865E3,0E0,0E0,0E0,0E0,0E0,0E0,0E0,0E0],"parents":[2147483647,0,0,1,1,2,2,3,3,4,4,5,5,6,6],"right_children":[2,4,6,8,10,12,14,-1,-1,-1,-1,-1,-1,-1,-1],"split_conditions":[8.48E1,7.86E1,7.96E-2,-5.68E0,-3.84E-1,7.5E1,7.94E1,1.1387566E-2,-6.995427E-2,1.70566E-2,-2.330689E-2,-2.3566699E-2,6.256466E-2,-9.182686E-2,2.756273E-2],"split_indices":[12,14,21,5,5,15,13,0,0,0,0,0,0,0,0],"split_type":[0,0,0,0,0,0,0,0,0,0,0,0,0,0,0],"sum_hessian":[1.5887E3,1.0928E3,4.959E2,3.111E2,7.817E2,4.486E2,4.73E1,3.62E1,2.749E2,3.443E2,4.374E2,5.79E1,3.907E2,3.12E1,1.61E1],"tree_param":{"num_deleted":"0","num_feature":"27","num_nodes":"15","size_leaf_vector":"1"}},{"base_weights":[9.2699625E-2,-3.073076E0,3.6020384E0,-6.0276766E0,1.3300374E-2,2.1358104E0,9.157948E0,4.624129E-2,-6.907608E-2,-1.844822E-2,7.008182E-2,-1.6857198E-2,3.455969E-2,6.90699E-2,1.6530995E-1],"categories":[],"categories_nodes":[],"categories_segments":[],"categories_sizes":[],"default_left":[0,0,0,0,0,0,0,0,0,0,0,0,0,0,0],"id":14,"left_children":[1,3,5,7,9,11,13,-1,-1,-1,-1,-1,-1,-1,-1],"loss_changes":[1.7389365E4,7.505117E3,5.949427E3,3.346709E3,5.11658E3,2.8137288E3,2.0442607E3,0E0,0E0,0E0,0E0,0E0,0E0,0E0,0E0],"parents":[2147483647,0,0,1,1,2,2,3,3,4,4,5,5,6,6],"right_children":[2,4,6,8,10,12,14,-1,-1,-1,-1,-1,-1,-1,-1],"split_conditions":[8.0862E1,8.04E1,8.76E1,0E0,8.58E1,-2E0,9E0,4.624129E-2,-6.907608E-2,-1.844822E-2,7.008182E-2,-1.6857198E-2,3.455969E-2,6.90699E-2,1.6530995E-1],"split_indices":[16,13,14,9,12,18,2,0,0,0,0,0,0,0,0],"split_type":[0,0,0,0,0,0,0,0,0,0,0,0,0,0,0],"sum_hessian":[1.5553E3,8.18E2,7.373E2,4.155E2,4.025E2,5.888E2,1.485E2,2.49E1,3.906E2,3.209E2,8.16E1,1.45E2,4.438E2,1.177E2,3.08E1],"tree_param":{"num_deleted":"0","num_feature":"27","num_nodes":"15","size_leaf_vector":"1"}},{"base_weights":[-2.4663442E-1,-2.9907842E0,2.7549484E0,-6.3620634E0,6.5319456E-2,1.8613416E0,8.945892E0,-8.975983E-2,-3.5409454E-2,-1.1827864E-2,4.7140513E-2,2.6013013E-2,-5.0928064E-2,1.696184E-1,4.292699E-2],"categories":[],"categories_nodes":[],"categories_segments":[],"categories_sizes":[],"default_left":[0,0,0,0,0,0,0,0,0,0,0,0,0,0,0],"id":15,"left_children":[1,3,5,7,9,11,13,-1,-1,-1,-1,-1,-1,-1,-1],"loss_changes":[1.2873697E4,8.412133E3,4.0479614E3,2.561129E3,2.426797E3,3.1252822E3,3.0195205E3,0E0,0E0,0E0,0E0,0E0,0E0,0E0,0E0],"parents":[2147483647,0,0,1,1,2,2,3,3,4,4,5,5,6,6],"right_children":[2,4,6,8,10,12,14,-1,-1,-1,-1,-1,-1,-1,-1],"split_conditions":[8.0902E1,8.04E1,1.1E1,7.966E1,2E0,6E0,9.179E1,-8.975983E-2,-3.5409454E-2,-1.1827864E-2,4.7140513E-2,2.6013013E-2,-5.0928064E-2,1.696184E-1,4.292699E-2],"split_indices":[16,13,2,16,2,7,1,0,0,0,0,0,0,0,0],"split_type":[0,0,0,0,0,0,0,0,0,0,0,0,0,0,0],"sum_hessian":[1.553E3,8.113E2,7.417E2,3.832E2,4.281E2,6.538E2,8.79E1,2.04E2,1.792E2,3.403E2,8.78E1,5.975E2,5.63E1,2.9E1,5.89E1],"tree_param":{"num_deleted":"0","num_feature":"27","num_nodes":"15","size_leaf_vector":"1"}},{"base_weights":[-1.904698E-2,-1.7675589E0,3.9675689E0,-5.2292333E0,-2.6883665E-1,1.1044862E0,7.2619567E0,-1.0149974E-1,-3.3356193E-2,9.283147E-3,-4.2835683E-2,2.5347296E-2,-6.574206E-2,-1.4602002E-2,8.698261E-2],"categories":[],"categories_nodes":[],"categories_segments":[],"categories_sizes":[],"default_left":[0,0,0,0,0,0,0,0,0,0,0,0,0,0,0],"id":16,"left_children":[1,3,5,7,9,11,13,-1,-1,-1,-1,-1,-1,-1,-1],"loss_changes":[1.0752071E4,5.5555366E3,4.395769E3,2.828457E3,3.4879482E3,2.737631E3,2.3983242E3,0E0,0E0,0E0,0E0,0E0,0E0,0E0,0E0],"parents":[2147483647,0,0,1,1,2,2,3,3,4,4,5,5,6,6],"right_children":[2,4,6,8,10,12,14,-1,-1,-1,-1,-1,-1,-1,-1],"split_conditions":[8.52E1,7.86E1,8.32E1,0E0,2.052E-1,7.96E-2,7.62E1,-1.0149974E-1,-3.3356193E-2,9.283147E-3,-4.2835683E-2,2.5347296E-2,-6.574206E-2,-1.4602002E-2,8.698261E-2],"split_indices":[12,14,13,8,11,21,15,0,0,0,0,0,0,0,0],"split_type":[0,0,0,0,0,0,0,0,0,0,0,0,0,0,0],"sum_hessian":[1.5325E3,1.0672E3,4.653E2,3.187E2,7.485E2,2.525E2,2.128E2,8.84E1,2.303E2,5.786E2,1.699E2,2.164E2,3.61E1,2.64E1,1.864E2],"tree_param":{"num_deleted":"0","num_feature":"27","num_nodes":"15","size_leaf_vector":"1"}},{"base_weights":[-2.9522737E-2,-2.8541968E0,3.1997397E0,-5.3167515E0,-3.8530317E-1,2.357198E0,1.0496405E1,-1.2843192E-1,-4.3969925E-2,-2.0847151E-2,5.5795908E-2,1.47906365E-2,9.319126E-2,4.7155622E-2,1.6744007E-1],"categories":[],"categories_nodes":[],"categories_segments":[],"categories_sizes":[],"default_left":[0,0,0,0,0,0,0,0,0,0,0,0,0,0,0],"id":17,"left_children":[1,3,5,7,9,11,13,-1,-1,-1,-1,-1,-1,-1,-1],"loss_changes":[1.3996704E4,4.965951E3,4.278536E3,2.7544434E3,4.0458284E3,3.924634E3,2.1339282E3,0E0,0E0,0E0,0E0,0E0,0E0,0E0,0E0],"parents":[2147483647,0,0,1,1,2,2,3,3,4,4,5,5,6,6],"right_children":[2,4,6,8,10,12,14,-1,-1,-1,-1,-1,-1,-1,-1],"split_conditions":[8.0862E1,8.06E1,9.06E1,-1.1318E1,8.56E1,1.1E1,1.364E-1,-1.2843192E-1,-4.3969925E-2,-2.0847151E-2,5.5795908E-2,1.47906365E-2,9.319126E-2,4.7155622E-2,1.6744007E-1],"split_indices":[16,13,15,19,12,2,11,0,0,0,0,0,0,0,0],"split_type":[0,0,0,0,0,0,0,0,0,0,0,0,0,0,0],"sum_hessian":[1.5245E3,8.135E2,7.11E2,4.044E2,4.091E2,6.433E2,6.77E1,4.31E1,3.613E2,3.214E2,8.77E1,5.72E2,7.13E1,3.82E1,2.95E1],"tree_param":{"num_deleted":"0","num_feature":"27","num_nodes":"15","size_leaf_vector":"1"}},{"base_weights":[4.5364085E-3,-2.8330417E0,2.6379943E0,-4.835224E0,-8.853628E-2,1.2916512E0,8.5314665E0,-2.5232E-2,-7.214886E-2,-7.957042E-2,1.2579467E-2,2.9341407E-2,-2.8502792E-2,1.1531973E-1,2.050533E-2],"categories":[],"categories_nodes":[],"categories_segments":[],"categories_sizes":[],"default_left":[0,0,0,0,0,0,0,0,0,0,0,0,0,0,0],"id":18,"left_children":[1,3,5,7,9,11,13,-1,-1,-1,-1,-1,-1,-1,-1],"loss_changes":[1.1858704E4,4.1953555E3,6.4759673E3,2.230002E3,3.3610698E3,4.3782725E3,2.604247E3,0E0,0E0,0E0,0E0,0E0,0E0,0E0,0E0],"parents":[2147483647,0,0,1,1,2,2,3,3,4,4,5,5,6,6],"right_children":[2,4,6,8,10,12,14,-1,-1,-1,-1,-1,-1,-1,-1],"split_conditions":[8.072E1,8.18E1,8.78E1,-8E-2,7.52E1,7E-1,1.268E1,-2.5232E-2,-7.214886E-2,-7.957042E-2,1.2579467E-2,2.9341407E-2,-2.8502792E-2,1.1531973E-1,2.050533E-2],"split_indices":[16,13,14,17,15,10,1,0,0,0,0,0,0,0,0],"split_type":[0,0,0,0,0,0,0,0,0,0,0,0,0,0,0],"sum_hessian":[1.577E3,7.589E2,8.181E2,4.366E2,3.223E2,6.709E2,1.472E2,2.159E2,2.207E2,4.36E1,2.787E2,4.85E2,1.859E2,1.012E2,4.6E1],"tree_param":{"num_deleted":"0","num_feature":"27","num_nodes":"15","size_leaf_vector":"1"}},{"base_weights":[1.7908062E-1,-1.6329914E0,4.669246E0,-4.3530245E0,2.40471E-1,-3.2681358E0,5.755313E0,6.0010176E-2,-4.8986513E-2,3.392678E-2,-2.1115324E-2,-6.4660646E-2,4.0829357E-2,-6.1994996E-3,7.407764E-2],"categories":[],"categories_nodes":[],"categories_segments":[],"categories_sizes":[],"default_left":[0,0,0,0,0,0,0,0,0,0,0,0,0,0,0],"id":19,"left_children":[1,3,5,7,9,11,13,-1,-1,-1,-1,-1,-1,-1,-1],"loss_changes":[1.2627336E4,5.641634E3,3.9398232E3,2.1344277E3,4.704641E3,1.3836616E3,3.737538E3,0E0,0E0,0E0,0E0,0E0,0E0,0E0,0E0],"parents":[2147483647,0,0,1,1,2,2,3,3,4,4,5,5,6,6],"right_children":[2,4,6,8,10,12,14,-1,-1,-1,-1,-1,-1,-1,-1],"split_conditions":[8.52E1,8E1,7.5E1,-1.3548E1,-3.6E-1,2E-1,7.72E1,6.0010176E-2,-4.8986513E-2,3.392678E-2,-2.1115324E-2,-6.4660646E-2,4.0829357E-2,-6.1994996E-3,7.407764E-2],"split_indices":[12,14,15,22,5,24,14,0,0,0,0,0,0,0,0],"split_type":[0,0,0,0,0,0,0,0,0,0,0,0,0,0,0],"sum_hessian":[1.5423E3,1.1011E3,4.412E2,4.464E2,6.547E2,5.19E1,3.893E2,1.56E1,4.308E2,2.795E2,3.752E2,3.7E1,1.49E1,7.41E1,3.152E2],"tree_param":{"num_deleted":"0","num_feature":"27","num_nodes":"15","size_leaf_vector":"1"}},{"base_weights":[2.5184044E-1,-2.4057438E0,3.3349755E0,-6.840912E0,-8.814989E-1,8.574984E-1,5.2835817E0,-1.0099761E-1,-3.16044E-2,8.548863E-4,-8.173107E-2,-1.1762901E-2,6.818881E-2,2.2799488E-2,7.5671375E-2],"categories":[],"categories_nodes":[],"categories_segments":[],"categories_sizes":[],"default_left":[0,0,0,0,0,0,0,0,0,0,0,0,0,0,0],"id":20,"left_children":[1,3,5,7,9,11,13,-1,-1,-1,-1,-1,-1,-1,-1],"loss_changes":[1.2993927E4,5.7295825E3,3.520811E3,2.3149453E3,4.388708E3,3.8707478E3,2.559959E3,0E0,0E0,0E0,0E0,0E0,0E0,0E0,0E0],"parents":[2147483647,0,0,1,1,2,2,3,3,4,4,5,5,6,6],"right_children":[2,4,6,8,10,12,14,-1,-1,-1,-1,-1,-1,-1,-1],"split_conditions":[8.0862E1,7.72E1,-8.3E-3,8.16E1,4.3E0,8.68E1,8.16E1,-1.0099761E-1,-3.16044E-2,8.548863E-4,-8.173107E-2,-1.1762901E-2,6.818881E-2,2.2799488E-2,7.5671375E-2],"split_indices":[16,14,26,13,5,12,14,0,0,0,0,0,0,0,0],"split_type":[0,0,0,0,0,0,0,0,0,0,0,0,0,0,0],"sum_hessian":[1.576E3,8.47E2,7.29E2,2.122E2,6.348E2,3.241E2,4.049E2,1.13E2,9.92E1,5.632E2,7.16E1,2.438E2,8.03E1,1.695E2,2.354E2],"tree_param":{"num_deleted":"0","num_feature":"27","num_nodes":"15","size_leaf_vector":"1"}},{"base_weights":[-1.12881616E-1,-1.8894285E0,4.1120944E0,1.1348459E0,-2.967812E0,-1.1343845E0,5.493627E0,-5.8482313E-3,6.0220253E-2,-8.67191E-3,-4.858816E-2,9.4725326E-2,-3.5054043E-2,1.0168388E-1,3.6089923E-2],"categories":[],"categories_nodes":[],"categories_segments":[],"categories_sizes":[],"default_left":[0,0,0,0,0,0,0,0,0,0,0,0,0,0,0],"id":21,"left_children":[1,3,5,7,9,11,13,-1,-1,-1,-1,-1,-1,-1,-1],"loss_changes":[1.1707826E4,3.597284E3,3.3780293E3,2.383744E3,3.0382007E3,2.5456514E3,3.0270693E3,0E0,0E0,0E0,0E0,0E0,0E0,0E0,0E0],"parents":[2147483647,0,0,1,1,2,2,3,3,4,4,5,5,6,6],"right_children":[2,4,6,8,10,12,14,-1,-1,-1,-1,-1,-1,-1,-1],"split_conditions":[8.52E1,-4.26E-2,7.66E1,7.98E1,-8E-1,-2.2825E2,2.742E0,-5.8482313E-3,6.0220253E-2,-8.67191E-3,-4.858816E-2,9.4725326E-2,-3.5054043E-2,1.0168388E-1,3.6089923E-2],"split_indices":[12,3,15,12,20,1,0,0,0,0,0,0,0,0,0],"split_type":[0,0,0,0,0,0,0,0,0,0,0,0,0,0,0],"sum_hessian":[1.5497E3,1.0929E3,4.568E2,2.872E2,8.057E2,9.54E1,3.614E2,2.145E2,7.27E1,3.709E2,4.348E2,1.45E1,8.09E1,1.048E2,2.566E2],"tree_param":{"num_deleted":"0","num_feature":"27","num_nodes":"15","size_leaf_vector":"1"}},{"base_weights":[-1.5246119E-1,-3.119771E0,1.2918156E0,-5.5199685E0,5.651526E-1,8.365385E-2,4.0232463E0,7.6712154E-2,-6.290449E-2,-2.054235E-2,6.9441654E-2,9.649946E-3,-4.217795E-2,1.4801863E-1,2.944289E-2],"categories":[],"categories_nodes":[],"categories_segments":[],"categories_sizes":[],"default_left":[0,0,0,0,0,0,0,0,0,0,0,0,0,0,0],"id":22,"left_children":[1,3,5,7,9,11,13,-1,-1,-1,-1,-1,-1,-1,-1],"loss_changes":[6.8430693E3,4.638341E3,3.543768E3,2.808871E3,3.4374294E3,2.7280073E3,3.7357344E3,0E0,0E0,0E0,0E0,0E0,0E0,0E0,0E0],"parents":[2147483647,0,0,1,1,2,2,3,3,4,4,5,5,6,6],"right_children":[2,4,6,8,10,12,14,-1,-1,-1,-1,-1,-1,-1,-1],"split_conditions":[7.94E1,8.28E1,2E0,-5.68E0,1.83E-2,3.662E0,-1.4542E2,7.6712154E-2,-6.290449E-2,-2.054235E-2,6.9441654E-2,9.649946E-3,-4.217795E-2,1.4801863E-1,2.944289E-2],"split_indices":[14,13,18,17,3,5,1,0,0,0,0,0,0,0,0],"split_type":[0,0,0,0,0,0,0,0,0,0,0,0,0,0,0],"sum_hessian":[1.5871E3,5.177E2,1.0694E3,3.12E2,2.057E2,7.45E2,3.244E2,1.18E1,3.002E2,1.479E2,5.78E1,6.218E2,1.232E2,2.64E1,2.98E2],"tree_param":{"num_deleted":"0","num_feature":"27","num_nodes":"15","size_leaf_vector":"1"}},{"base_weights":[1.2727866E-1,-1.1938292E0,3.383089E0,-2.547541E0,1.7249354E0,8.816765E-1,5.866614E0,-4.5228068E-2,-3.6934651E-3,7.337745E-3,9.94988E-2,-7.244394E-2,1.923819E-2,-1.6376134E-2,7.328723E-2],"categories":[],"categories_nodes":[],"categories_segments":[],"categories_sizes":[],"default_left":[0,0,0,0,0,0,0,0,0,0,0,0,0,0,0],"id":23,"left_children":[1,3,5,7,9,11,13,-1,-1,-1,-1,-1,-1,-1,-1],"loss_changes":[6.7880415E3,4.4589185E3,2.803815E3,3.1389106E3,2.857079E3,1.9146597E3,2.2550703E3,0E0,0E0,0E0,0E0,0E0,0E0,0E0,0E0],"parents":[2147483647,0,0,1,1,2,2,3,3,4,4,5,5,6,6],"right_children":[2,4,6,8,10,12,14,-1,-1,-1,-1,-1,-1,-1,-1],"split_conditions":[8.52E1,8.42E1,8.2E1,8.2E1,9.06E1,-5.19E-2,7.62E1,-4.5228068E-2,-3.6934651E-3,7.337745E-3,9.94988E-2,-7.244394E-2,1.923819E-2,-1.6376134E-2,7.328723E-2],"split_indices":[12,13,13,15,15,4,15,0,0,0,0,0,0,0,0],"split_type":[0,0,0,0,0,0,0,0,0,0,0,0,0,0,0],"sum_hessian":[1.5685E3,1.118E3,4.505E2,7.642E2,3.538E2,2.278E2,2.227E2,4.091E2,3.551E2,3.19E2,3.48E1,2.2E1,2.058E2,3.27E1,1.9E2],"tree_param":{"num_deleted":"0","num_feature":"27","num_nodes":"15","size_leaf_vector":"1"}},{"base_weights":[1.6417611E-2,-2.6098864E0,2.7058659E0,-5.3897295E0,5.019305E-1,1.4977686E0,7.923522E0,-8.750771E-2,-3.4373723E-2,-5.929196E-3,6.3324474E-2,3.6310584E-3,5.2852925E-2,1.0356031E-1,2.011108E-2],"categories":[],"categories_nodes":[],"categories_segments":[],"categories_sizes":[],"default_left":[0,0,0,0,0,0,0,0,0,0,0,0,0,0,0],"id":24,"left_children":[1,3,5,7,9,11,13,-1,-1,-1,-1,-1,-1,-1,-1],"loss_changes":[1.1279735E4,7.002733E3,4.914204E3,2.5989375E3,2.3887485E3,2.7008208E3,1.8248789E3,0E0,0E0,0E0,0E0,0E0,0E0,0E0,0E0],"parents":[2147483647,0,0,1,1,2,2,3,3,4,4,5,5,6,6],"right_children":[2,4,6,8,10,12,14,-1,-1,-1,-1,-1,-1,-1,-1],"split_conditions":[8.0847E1,8.1E1,8.78E1,7.88E1,2.6E0,5.1E0,1.268E1,-8.750771E-2,-3.4373723E-2,-5.929196E-3,6.3324474E-2,3.6310584E-3,5.2852925E-2,1.0356031E-1,2.011108E-2],"split_indices":[16,13,14,14,2,20,1,0,0,0,0,0,0,0,0],"split_type":[0,0,0,0,0,0,0,0,0,0,0,0,0,0,0],"sum_hessian":[1.587E3,8.03E2,7.84E2,4.222E2,3.808E2,6.418E2,1.422E2,1.59E2,2.632E2,3.237E2,5.71E1,4.934E2,1.484E2,1.014E2,4.08E1],"tree_param":{"num_deleted":"0","num_feature":"27","num_nodes":"15","size_leaf_vector":"1"}},{"base_weights":[-5.737762E-1,-2.21635E0,3.5772166E0,-4.415318E0,2.9823378E-1,4.5837945E-1,6.5155826E0,-1.997063E-3,-6.5265626E-2,-3.541021E-2,1.8363236E-2,-4.158528E-2,3.803704E-2,7.812118E-2,-6.066705E-2],"categories":[],"categories_nodes":[],"categories_segments":[],"categories_sizes":[],"default_left":[0,0,0,0,0,0,0,0,0,0,0,0,0,0,0],"id":25,"left_children":[1,3,5,7,9,11,13,-1,-1,-1,-1,-1,-1,-1,-1],"loss_changes":[1.0831969E4,6.2945483E3,4.1152437E3,5.016242E3,3.038716E3,3.3736694E3,3.4428994E3,0E0,0E0,0E0,0E0,0E0,0E0,0E0,0E0],"parents":[2147483647,0,0,1,1,2,2,3,3,4,4,5,5,6,6],"right_children":[2,4,6,8,10,12,14,-1,-1,-1,-1,-1,-1,-1,-1],"split_conditions":[8.52E1,8.068E1,8.24E1,-5.6E0,-8.122E0,4E-1,7.96E-2,-1.997063E-3,-6.5265626E-2,-3.541021E-2,1.8363236E-2,-4.158528E-2,3.803704E-2,7.812118E-2,-6.066705E-2],"split_indices":[12,16,14,2,23,7,21,0,0,0,0,0,0,0,0],"split_type":[0,0,0,0,0,0,0,0,0,0,0,0,0,0,0],"sum_hessian":[1.5779E3,1.1322E3,4.457E2,6.02E2,5.302E2,2.19E2,2.267E2,1.927E2,4.093E2,1.491E2,3.811E2,9.12E1,1.278E2,2.098E2,1.69E1],"tree_param":{"num_deleted":"0","num_feature":"27","num_nodes":"15","size_leaf_vector":"1"}},{"base_weights":[6.199278E-1,-1.8506453E0,3.1911776E0,-3.158685E0,2.9860535E0,1.7670614E0,8.876739E0,-5.781952E-2,-1.1590154E-2,-4.2257406E-2,7.418145E-2,-8.9605903E-4,4.0216938E-2,-3.1685138E-3,1.0538069E-1],"categories":[],"categories_nodes":[],"categories_segments":[],"categories_sizes":[],"default_left":[0,0,0,0,0,0,0,0,0,0,0,0,0,0,0],"id":26,"left_children":[1,3,5,7,9,11,13,-1,-1,-1,-1,-1,-1,-1,-1],"loss_changes":[9.979709E3,5.120684E3,6.151509E3,3.165399E3,5.4014473E3,2.4934468E3,2.0075674E3,0E0,0E0,0E0,0E0,0E0,0E0,0E0,0E0],"parents":[2147483647,0,0,1,1,2,2,3,3,4,4,5,5,6,6],"right_children":[2,4,6,8,10,12,14,-1,-1,-1,-1,-1,-1,-1,-1],"split_conditions":[8.0862E1,8.52E1,8.78E1,8E1,7.9E1,1E0,7.8E1,-5.781952E-2,-1.1590154E-2,-4.2257406E-2,7.418145E-2,-8.9605903E-4,4.0216938E-2,-3.1685138E-3,1.0538069E-1],"split_indices":[16,12,14,14,13,18,12,0,0,0,0,0,0,0,0],"split_type":[0,0,0,0,0,0,0,0,0,0,0,0,0,0,0],"sum_hessian":[1.5614E3,7.97E2,7.644E2,6.287E2,1.683E2,6.165E2,1.479E2,2.781E2,3.506E2,6.31E1,1.052E2,3.344E2,2.821E2,2.03E1,1.276E2],"tree_param":{"num_deleted":"0","num_feature":"27","num_nodes":"15","size_leaf_vector":"1"}},{"base_weights":[2.6357636E-2,-2.857614E0,3.135318E0,-4.1526675E0,2.793361E0,1.5552987E0,7.394852E0,-8.088119E-3,-5.949808E-2,-5.681327E-2,4.6484325E-2,-7.909367E-2,2.0575726E-2,1.6347922E-2,8.76459E-2],"categories":[],"categories_nodes":[],"categories_segments":[],"categories_sizes":[],"default_left":[0,0,0,0,0,0,0,0,0,0,0,0,0,0,0],"id":27,"left_children":[1,3,5,7,9,11,13,-1,-1,-1,-1,-1,-1,-1,-1],"loss_changes":[1.4247621E4,6.0907344E3,5.0891494E3,3.7316162E3,2.4102163E3,2.458579E3,1.3235459E3,0E0,0E0,0E0,0E0,0E0,0E0,0E0,0E0],"parents":[2147483647,0,0,1,1,2,2,3,3,4,4,5,5,6,6],"right_children":[2,4,6,8,10,12,14,-1,-1,-1,-1,-1,-1,-1,-1],"split_conditions":[8.0882E1,8.6E1,8.66E1,-5.4E0,7.8804E1,7.24E1,-4.44E-2,-8.088119E-3,-5.949808E-2,-5.681327E-2,4.6484325E-2,-7.909367E-2,2.0575726E-2,1.6347922E-2,8.76459E-2],"split_indices":[16,12,14,2,16,14,11,0,0,0,0,0,0,0,0],"split_type":[0,0,0,0,0,0,0,0,0,0,0,0,0,0,0],"sum_hessian":[1.5791E3,8.194E2,7.597E2,6.677E2,1.517E2,5.591E2,2.006E2,2.231E2,4.446E2,2.44E1,1.273E2,2.24E1,5.367E2,3.56E1,1.65E2],"tree_param":{"num_deleted":"0","num_feature":"27","num_nodes":"15","size_leaf_vector":"1"}},{"base_weights":[1.07336864E-1,-1.6683747E0,4.533808E0,-3.9062111E0,1.4366077E0,-1.1863972E0,5.75526E0,-6.5698594E-2,-1.1514159E-2,3.6247056E-2,-1.433199E-2,-5.6644164E-2,7.83501E-2,3.0515986E-2,8.725692E-2],"categories":[],"categories_nodes":[],"categories_segments":[],"categories_sizes":[],"default_left":[0,0,0,0,0,0,0,0,0,0,0,0,0,0,0],"id":28,"left_children":[1,3,5,7,9,11,13,-1,-1,-1,-1,-1,-1,-1,-1],"loss_changes":[1.2225356E4,7.7425957E3,3.145082E3,4.481716E3,2.8225984E3,3.3804766E3,2.6987334E3,0E0,0E0,0E0,0E0,0E0,0E0,0E0,0E0],"parents":[2147483647,0,0,1,1,2,2,3,3,4,4,5,5,6,6],"right_children":[2,4,6,8,10,12,14,-1,-1,-1,-1,-1,-1,-1,-1],"split_conditions":[8.52E1,8.0862E1,7.72E1,8.06E1,1.09E-1,8.94E1,-6.5E-3,-6.5698594E-2,-1.1514159E-2,3.6247056E-2,-1.433199E-2,-5.6644164E-2,7.83501E-2,3.0515986E-2,8.725692E-2],"split_indices":[12,16,14,13,19,12,4,0,0,0,0,0,0,0,0],"split_type":[0,0,0,0,0,0,0,0,0,0,0,0,0,0,0],"sum_hessian":[1.5456E3,1.1053E3,4.403E2,6.416E2,4.637E2,7.75E1,3.628E2,3.337E2,3.079E2,2.655E2,1.982E2,5.32E1,2.43E1,1.864E2,1.764E2],"tree_param":{"num_deleted":"0","num_feature":"27","num_nodes":"15","size_leaf_vector":"1"}},{"base_weights":[-2.0580189E-1,-1.8979675E0,3.9251704E0,-4.5557675E0,-2.726089E-1,-3.156521E0,5.082728E0,-9.834557E-2,-3.5239935E-2,2.4516474E-2,-1.5897715E-2,-7.680799E-2,7.064118E-2,-2.4465097E-2,6.24077E-2],"categories":[],"categories_nodes":[],"categories_segments":[],"categories_sizes":[],"default_left":[0,0,0,0,0,0,0,0,0,0,0,0,0,0,0],"id":29,"left_children":[1,3,5,7,9,11,13,-1,-1,-1,-1,-1,-1,-1,-1],"loss_changes":[1.1094116E4,4.8557285E3,3.8610898E3,2.235255E3,2.4222314E3,3.2251785E3,3.0913838E3,0E0,0E0,0E0,0E0,0E0,0E0,0E0,0E0],"parents":[2147483647,0,0,1,1,2,2,3,3,4,4,5,5,6,6],"right_children":[2,4,6,8,10,12,14,-1,-1,-1,-1,-1,-1,-1,-1],"split_conditions":[8.52E1,8E1,7.5E1,-2.74E-2,-1.036E0,1.5E-3,-9.09E-2,-9.834557E-2,-3.5239935E-2,2.4516474E-2,-1.5897715E-2,-7.680799E-2,7.064118E-2,-2.4465097E-2,6.24077E-2],"split_indices":[12,14,15,4,5,4,11,0,0,0,0,0,0,0,0],"split_type":[0,0,0,0,0,0,0,0,0,0,0,0,0,0,0],"sum_hessian":[1.5768E3,1.1205E3,4.563E2,4.218E2,6.987E2,6.29E1,3.934E2,6.93E1,3.525E2,2.252E2,4.735E2,4.48E1,1.81E1,4.62E1,3.472E2],"tree_param":{"num_deleted":"0","num_feature":"27","num_nodes":"15","size_leaf_vector":"1"}},{"base_weights":[1.7380242E-1,-1.7342145E0,2.0816927E0,-4.862332E0,-4.3469754E-1,1.0248919E0,6.631386E0,-5.8113523E-2,9.7764E-2,-3.4427945E-2,1.9034253E-2,1.9603055E-2,-3.8566258E-2,-2.2537567E-2,8.809661E-2],"categories":[],"categories_nodes":[],"categories_segments":[],"categories_sizes":[],"default_left":[0,0,0,0,0,0,0,0,0,0,0,0,0,0,0],"id":30,"left_children":[1,3,5,7,9,11,13,-1,-1,-1,-1,-1,-1,-1,-1],"loss_changes":[5.7673345E3,3.210515E3,3.774091E3,2.995732E3,3.8292036E3,2.8029045E3,2.6828037E3,0E0,0E0,0E0,0E0,0E0,0E0,0E0,0E0],"parents":[2147483647,0,0,1,1,2,2,3,3,4,4,5,5,6,6],"right_children":[2,4,6,8,10,12,14,-1,-1,-1,-1,-1,-1,-1,-1],"split_conditions":[8.18E1,7.88E1,3.1E0,1E0,-8.3E-3,4.592E0,-3.21E-2,-5.8113523E-2,9.7764E-2,-3.4427945E-2,1.9034253E-2,1.9603055E-2,-3.8566258E-2,-2.2537567E-2,8.809661E-2],"split_indices":[13,14,20,10,26,19,4,0,0,0,0,0,0,0,0],"split_type":[0,0,0,0,0,0,0,0,0,0,0,0,0,0,0],"sum_hessian":[1.5744E3,7.874E2,7.87E2,2.271E2,5.603E2,6.436E2,1.434E2,2.178E2,9.3E0,2.451E2,3.152E2,5.453E2,9.83E1,2.61E1,1.173E2],"tree_param":{"num_deleted":"0","num_feature":"27","num_nodes":"15","size_leaf_vector":"1"}},{"base_weights":[6.0024893E-1,-2.2126405E0,3.4916563E0,-4.4819183E0,-9.476783E-3,2.8235085E0,9.415016E0,-6.69366E-2,-1.0040376E-2,-8.981805E-3,8.5475415E-2,2.0460505E-2,7.225591E-2,1.294055E-1,1.4154666E-6],"categories":[],"categories_nodes":[],"categories_segments":[],"categories_sizes":[],"default_left":[0,0,0,0,0,0,0,0,0,0,0,0,0,0,0],"id":31,"left_children":[1,3,5,7,9,11,13,-1,-1,-1,-1,-1,-1,-1,-1],"loss_changes":[1.2910654E4,4.0258262E3,2.9641367E3,2.825255E3,3.037426E3,2.4102646E3,2.3446943E3,0E0,0E0,0E0,0E0,0E0,0E0,0E0,0E0],"parents":[2147483647,0,0,1,1,2,2,3,3,4,4,5,5,6,6],"right_children":[2,4,6,8,10,12,14,-1,-1,-1,-1,-1,-1,-1,-1],"split_conditions":[8.0852E1,8.04E1,9.06E1,7.5E-2,1.1275E1,9.2E0,9.38E1,-6.69366E-2,-1.0040376E-2,-8.981805E-3,8.5475415E-2,2.0460505E-2,7.225591E-2,1.294055E-1,1.4154666E-6],"split_indices":[16,13,15,26,19,2,15,0,0,0,0,0,0,0,0],"split_type":[0,0,0,0,0,0,0,0,0,0,0,0,0,0,0],"sum_hessian":[1.5777E3,8.003E2,7.774E2,3.917E2,4.086E2,7.052E2,7.22E1,2.44E2,1.477E2,3.742E2,3.44E1,5.964E2,1.088E2,5.25E1,1.97E1],"tree_param":{"num_deleted":"0","num_feature":"27","num_nodes":"15","size_leaf_vector":"1"}},{"base_weights":[7.9677336E-2,-1.2875896E0,3.5105567E0,4.1806328E-1,-3.4205925E0,4.3177385E0,-4.7077684E0,-6.3834995E-2,1.0409327E-2,3.6056545E-2,-4.7208276E-2,-3.696278E-2,5.3589802E-2,-7.4706525E-2,8.257426E-2],"categories":[],"categories_nodes":[],"categories_segments":[],"categories_sizes":[],"default_left":[0,0,0,0,0,0,0,0,0,0,0,0,0,0,0],"id":32,"left_children":[1,3,5,7,9,11,13,-1,-1,-1,-1,-1,-1,-1,-1],"loss_changes":[7.435909E3,4.1316084E3,3.097378E3,2.5595117E3,4.2519346E3,3.105226E3,1.7084221E3,0E0,0E0,0E0,0E0,0E0,0E0,0E0,0E0],"parents":[2147483647,0,0,1,1,2,2,3,3,4,4,5,5,6,6],"right_children":[2,4,6,8,10,12,14,-1,-1,-1,-1,-1,-1,-1,-1],"split_conditions":[8.52E1,-8E-1,9.67E-2,7.1E1,-4.16E-2,-7.7E-2,2E1,-6.3834995E-2,1.0409327E-2,3.6056545E-2,-4.7208276E-2,-3.696278E-2,5.3589802E-2,-7.4706525E-2,8.257426E-2],"split_indices":[12,20,3,12,3,11,2,0,0,0,0,0,0,0,0],"split_type":[0,0,0,0,0,0,0,0,0,0,0,0,0,0,0],"sum_hessian":[1.5754E3,1.1287E3,4.467E2,6.294E2,4.993E2,4.089E2,3.78E1,4.81E1,5.813E2,7.17E1,4.276E2,4.09E1,3.68E2,3.32E1,4.6E0],"tree_param":{"num_deleted":"0","num_feature":"27","num_nodes":"15","size_leaf_vector":"1"}},{"base_weights":[7.173129E-2,-1.4137672E0,3.6706562E0,-4.6452613E0,-3.636896E-3,4.3854847E0,-6.5830007E0,6.7373976E-2,-5.203437E-2,-9.602476E-3,3.1143839E-2,-6.8633705E-3,5.613933E-2,4.368206E-2,-9.581688E-2],"categories":[],"categories_nodes":[],"categories_segments":[],"categories_sizes":[],"default_left":[0,0,0,0,0,0,0,0,0,0,0,0,0,0,0],"id":33,"left_children":[1,3,5,7,9,11,13,-1,-1,-1,-1,-1,-1,-1,-1],"loss_changes":[8.47588E3,5.1143774E3,3.5384893E3,1.8437422E3,2.2526357E3,2.4406895E3,1.1684098E3,0E0,0E0,0E0,0E0,0E0,0E0,0E0,0E0],"parents":[2147483647,0,0,1,1,2,2,3,3,4,4,5,5,6,6],"right_children":[2,4,6,8,10,12,14,-1,-1,-1,-1,-1,-1,-1,-1],"split_conditions":[8.52E1,7.86E1,8.48E-2,-2.109E1,6.044E0,-2E0,7.7E1,6.7373976E-2,-5.203437E-2,-9.602476E-3,3.1143839E-2,-6.8633705E-3,5.613933E-2,4.368206E-2,-9.581688E-2],"split_indices":[12,14,21,24,23,18,14,0,0,0,0,0,0,0,0],"split_type":[0,0,0,0,0,0,0,0,0,0,0,0,0,0,0],"sum_hessian":[1.5756E3,1.1174E3,4.582E2,3.36E2,7.814E2,4.31E2,2.72E1,1E1,3.26E2,6.006E2,1.808E2,7.73E1,3.537E2,5E0,2.22E1],"tree_param":{"num_deleted":"0","num_feature":"27","num_nodes":"15","size_leaf_vector":"1"}},{"base_weights":[2.4504921E-1,-1.847179E0,2.6658752E0,-2.1717715E0,1.165595E1,7.080871E-1,5.046784E0,-6.1711673E-2,-1.40344845E-2,1.4251995E-1,1.0832619E-2,5.517923E-2,-7.811166E-3,-3.497367E-2,6.0043674E-2],"categories":[],"categories_nodes":[],"categories_segments":[],"categories_sizes":[],"default_left":[0,0,0,0,0,0,0,0,0,0,0,0,0,0,0],"id":34,"left_children":[1,3,5,7,9,11,13,-1,-1,-1,-1,-1,-1,-1,-1],"loss_changes":[7.878032E3,3.7842983E3,3.34244E3,2.4890571E3,4.162417E2,2.785495E3,2.3490312E3,0E0,0E0,0E0,0E0,0E0,0E0,0E0,0E0],"parents":[2147483647,0,0,1,1,2,2,3,3,4,4,5,5,6,6],"right_children":[2,4,6,8,10,12,14,-1,-1,-1,-1,-1,-1,-1,-1],"split_conditions":[8.22E1,9.38E1,8.32E1,7.6E1,1.2796E1,-1.612E0,-1.429E-1,-6.1711673E-2,-1.40344845E-2,1.4251995E-1,1.0832619E-2,5.517923E-2,-7.811166E-3,-3.497367E-2,6.0043674E-2],"split_indices":[14,12,12,15,19,5,11,0,0,0,0,0,0,0,0],"split_type":[0,0,0,0,0,0,0,0,0,0,0,0,0,0,0],"sum_hessian":[1.5456E3,8.297E2,7.159E2,8.143E2,1.54E1,3.964E2,3.195E2,1.344E2,6.799E2,1.14E1,4E0,9.16E1,3.048E2,2.68E1,2.927E2],"tree_param":{"num_deleted":"0","num_feature":"27","num_nodes":"15","size_leaf_vector":"1"}},{"base_weights":[-1.7126842E-1,-2.9194477E0,2.830543E0,-4.2035055E0,2.222002E0,1.8772179E0,8.269275E0,-2.5426963E-2,-6.763697E-2,-1.0085229E-2,9.2550725E-2,1.4373871E-2,9.9408545E-2,9.793241E-2,-4.210712E-2],"categories":[],"categories_nodes":[],"categories_segments":[],"categories_sizes":[],"default_left":[0,0,0,0,0,0,0,0,0,0,0,0,0,0,0],"id":35,"left_children":[1,3,5,7,9,11,13,-1,-1,-1,-1,-1,-1,-1,-1],"loss_changes":[1.3090804E4,5.5146636E3,3.8558867E3,2.6651982E3,3.7357822E3,2.3476987E3,1.9907954E3,0E0,0E0,0E0,0E0,0E0,0E0,0E0,0E0],"parents":[2147483647,0,0,1,1,2,2,3,3,4,4,5,5,6,6],"right_children":[2,4,6,8,10,12,14,-1,-1,-1,-1,-1,-1,-1,-1],"split_conditions":[8.0862E1,8.52E1,9.2E0,4.2E-3,3.1E-3,9.36E1,1.171E-1,-2.5426963E-2,-6.763697E-2,-1.0085229E-2,9.2550725E-2,1.4373871E-2,9.9408545E-2,9.793241E-2,-4.210712E-2],"split_indices":[16,12,2,6,4,13,3,0,0,0,0,0,0,0,0],"split_type":[0,0,0,0,0,0,0,0,0,0,0,0,0,0,0],"sum_hessian":[1.5769E3,8.233E2,7.536E2,6.595E2,1.638E2,6.469E2,1.067E2,3.904E2,2.691E2,1.143E2,4.95E1,6.156E2,3.13E1,9.76E1,9.1E0],"tree_param":{"num_deleted":"0","num_feature":"27","num_nodes":"15","size_leaf_vector":"1"}},{"base_weights":[2.9811084E-1,-2.5087578E0,3.2288587E0,-4.803313E0,3.9221522E-1,1.2993898E0,6.597144E0,-7.1804956E-2,-2.2052139E-2,-1.2787564E-2,6.161753E-2,6.7888657E-3,1.1083015E-1,4.091039E-2,1.1137712E-1],"categories":[],"categories_nodes":[],"categories_segments":[],"categories_sizes":[],"default_left":[0,0,0,0,0,0,0,0,0,0,0,0,0,0,0],"id":36,"left_children":[1,3,5,7,9,11,13,-1,-1,-1,-1,-1,-1,-1,-1],"loss_changes":[1.3023533E4,5.394267E3,4.989361E3,2.573208E3,3.3801294E3,2.985691E3,2.9113545E3,0E0,0E0,0E0,0E0,0E0,0E0,0E0,0E0],"parents":[2147483647,0,0,1,1,2,2,3,3,4,4,5,5,6,6],"right_children":[2,4,6,8,10,12,14,-1,-1,-1,-1,-1,-1,-1,-1],"split_conditions":[8.0862E1,8.16E1,1.088E0,7.966E1,8.56E1,1.8238E1,8.2472E1,-7.1804956E-2,-2.2052139E-2,-1.2787564E-2,6.161753E-2,6.7888657E-3,1.1083015E-1,4.091039E-2,1.1137712E-1],"split_indices":[16,13,5,16,12,22,16,0,0,0,0,0,0,0,0],"split_type":[0,0,0,0,0,0,0,0,0,0,0,0,0,0,0],"sum_hessian":[1.5733E3,8.04E2,7.693E2,4.471E2,3.569E2,4.935E2,2.758E2,2.392E2,2.0790001E2,2.793E2,7.76E1,4.676E2,2.59E1,1.776E2,9.82E1],"tree_param":{"num_deleted":"0","num_feature":"27","num_nodes":"15","size_leaf_vector":"1"}},{"base_weights":[-1.5933156E-1,-1.8186541E0,4.01259E0,-2.0492435E0,8.647431E0,-4.4356036E0,5.0435786E0,-3.663701E-3,-4.1056927E-2,1.7914765E-1,-2.0600498E-2,-6.6763185E-2,7.2987266E-2,-2.0092864E-2,6.1255615E-2],"categories":[],"categories_nodes":[],"categories_segments":[],"categories_sizes":[],"default_left":[0,0,0,0,0,0,0,0,0,0,0,0,0,0,0],"id":37,"left_children":[1,3,5,7,9,11,13,-1,-1,-1,-1,-1,-1,-1,-1],"loss_changes":[1.0964771E4,2.8221838E3,4.0375234E3,3.683977E3,2.570164E3,1.4784889E3,2.7216484E3,0E0,0E0,0E0,0E0,0E0,0E0,0E0,0E0],"parents":[2147483647,0,0,1,1,2,2,3,3,4,4,5,5,6,6],"right_children":[2,4,6,8,10,12,14,-1,-1,-1,-1,-1,-1,-1,-1],"split_conditions":[8.52E1,1.1E1,-7.14E-2,-8E-1,1.2E1,1.14E1,-3E0,-3.663701E-3,-4.1056927E-2,1.7914765E-1,-2.0600498E-2,-6.6763185E-2,7.2987266E-2,-2.0092864E-2,6.1255615E-2],"split_indices":[12,2,11,20,2,20,18,0,0,0,0,0,0,0,0],"split_type":[0,0,0,0,0,0,0,0,0,0,0,0,0,0,0],"sum_hessian":[1.5737E3,1.1279E3,4.458E2,1.1075E3,2.04E1,4.67E1,3.991E2,5.979E2,5.096E2,9.4E0,1.1E1,4.14E1,5.3E0,4.66E1,3.525E2],"tree_param":{"num_deleted":"0","num_feature":"27","num_nodes":"15","size_leaf_vector":"1"}},{"base_weights":[-1.9328147E-1,-3.625824E0,2.152199E0,-6.5588202E0,-1.9400747E0,-3.4913835E-1,4.296145E0,4.697227E-2,-7.687217E-2,-4.312256E-2,5.9368587E-3,1.7835073E-2,-6.595304E-2,3.472762E-2,1.0835594E-1],"categories":[],"categories_nodes":[],"categories_segments":[],"categories_sizes":[],"default_left":[0,0,0,0,0,0,0,0,0,0,0,0,0,0,0],"id":38,"left_children":[1,3,5,7,9,11,13,-1,-1,-1,-1,-1,-1,-1,-1],"loss_changes":[1.2895193E4,3.1508535E3,5.111576E3,2.6648047E3,2.4169353E3,5.713331E3,2.73575E3,0E0,0E0,0E0,0E0,0E0,0E0,0E0,0E0],"parents":[2147483647,0,0,1,1,2,2,3,3,4,4,5,5,6,6],"right_children":[2,4,6,8,10,12,14,-1,-1,-1,-1,-1,-1,-1,-1],"split_conditions":[8.0356E1,7.86E1,-8.4E-3,-5.44E0,8.04E1,6.667E-1,9.8E0,4.697227E-2,-7.687217E-2,-4.312256E-2,5.9368587E-3,1.7835073E-2,-6.595304E-2,3.472762E-2,1.0835594E-1],"split_indices":[16,14,26,17,15,10,20,0,0,0,0,0,0,0,0],"split_type":[0,0,0,0,0,0,0,0,0,0,0,0,0,0,0],"sum_hessian":[1.5919E3,6.451E2,9.468E2,2.302E2,4.149E2,4.389E2,5.079E2,1.66E1,2.136E2,2.164E2,1.985E2,3.294E2,1.095E2,4.508E2,5.71E1],"tree_param":{"num_deleted":"0","num_feature":"27","num_nodes":"15","size_leaf_vector":"1"}},{"base_weights":[9.124325E-2,-3.02481E0,1.6103845E0,-4.759714E0,-1.5065293E-1,5.1293427E-1,3.6427877E0,-3.517255E-2,-1.1944216E-1,-2.3075532E-2,6.042561E-2,4.497665E-4,9.86356E-2,1.3470388E-2,7.0613876E-2],"categories":[],"categories_nodes":[],"categories_segments":[],"categories_sizes":[],"default_left":[0,0,0,0,0,0,0,0,0,0,0,0,0,0,0],"id":39,"left_children":[1,3,5,7,9,11,13,-1,-1,-1,-1,-1,-1,-1,-1],"loss_changes":[7.256766E3,2.5019585E3,2.288911E3,2.664415E3,2.540326E3,2.8854595E3,2.6855913E3,0E0,0E0,0E0,0E0,0E0,0E0,0E0,0E0],"parents":[2147483647,0,0,1,1,2,2,3,3,4,4,5,5,6,6],"right_children":[2,4,6,8,10,12,14,-1,-1,-1,-1,-1,-1,-1,-1],"split_conditions":[7.94E1,1.84E-2,1E0,6.8E-3,7.78E1,9.06E1,1.74E-1,-3.517255E-2,-1.1944216E-1,-2.3075532E-2,6.042561E-2,4.497665E-4,9.86356E-2,1.3470388E-2,7.0613876E-2],"split_indices":[14,21,18,21,14,15,23,0,0,0,0,0,0,0,0],"split_type":[0,0,0,0,0,0,0,0,0,0,0,0,0,0,0],"sum_hessian":[1.5229E3,4.975E2,1.0254E3,3.082E2,1.893E2,6.699E2,3.555E2,2.649E2,4.33E1,1.428E2,4.65E1,6.419E2,2.8E1,2.114E2,1.441E2],"tree_param":{"num_deleted":"0","num_feature":"27","num_nodes":"15","size_leaf_vector":"1"}},{"base_weights":[-1.02462724E-1,-3.3157887E0,1.900573E0,-4.4435043E0,1.2282393E0,1.450586E0,9.069374E0,-5.98002E-2,-1.8158274E-2,9.8107606E-2,-6.7352955E-3,2.3865907E-2,-1.6686672E-2,-3.444677E-2,1.0966203E-1],"categories":[],"categories_nodes":[],"categories_segments":[],"categories_sizes":[],"default_left":[0,0,0,0,0,0,0,0,0,0,0,0,0,0,0],"id":40,"left_children":[1,3,5,7,9,11,13,-1,-1,-1,-1,-1,-1,-1,-1],"loss_changes":[9.997316E3,3.0831968E3,3.0216187E3,1.7363516E3,1.9617909E3,2.478808E3,1.3153301E3,0E0,0E0,0E0,0E0,0E0,0E0,0E0,0E0],"parents":[2147483647,0,0,1,1,2,2,3,3,4,4,5,5,6,6],"right_children":[2,4,6,8,10,12,14,-1,-1,-1,-1,-1,-1,-1,-1],"split_conditions":[8.02E1,4.96E-2,9.3E1,2.2E0,-4.276E0,7E-1,-4.07E-2,-5.98002E-2,-1.8158274E-2,9.8107606E-2,-6.7352955E-3,2.3865907E-2,-1.6686672E-2,-3.444677E-2,1.0966203E-1],"split_indices":[14,3,14,7,5,10,21,0,0,0,0,0,0,0,0],"split_type":[0,0,0,0,0,0,0,0,0,0,0,0,0,0,0],"sum_hessian":[1.5434E3,5.914E2,9.52E2,4.739E2,1.175E2,9.014E2,5.06E1,3.071E2,1.668E2,1.79E1,9.96E1,7.019E2,1.995E2,5.3E0,4.53E1],"tree_param":{"num_deleted":"0","num_feature":"27","num_nodes":"15","size_leaf_vector":"1"}},{"base_weights":[3.6389795E-1,-2.5131679E0,3.3777194E0,-4.3064976E0,6.38037E-1,2.3223555E0,7.8356133E0,-5.8067072E-2,-1.157675E-2,-1.8339697E-2,4.4996373E-2,2.6831162E-4,4.8502076E-2,6.123514E-2,1.7018302E-1],"categories":[],"categories_nodes":[],"categories_segments":[],"categories_sizes":[],"default_left":[0,0,0,0,0,0,0,0,0,0,0,0,0,0,0],"id":41,"left_children":[1,3,5,7,9,11,13,-1,-1,-1,-1,-1,-1,-1,-1],"loss_changes":[1.3552231E4,4.534446E3,3.4995059E3,2.1828252E3,2.7278323E3,3.4613735E3,1.8507432E3,0E0,0E0,0E0,0E0,0E0,0E0,0E0,0E0],"parents":[2147483647,0,0,1,1,2,2,3,3,4,4,5,5,6,6],"right_children":[2,4,6,8,10,12,14,-1,-1,-1,-1,-1,-1,-1,-1],"split_conditions":[8.0852E1,8.28E1,8.78E1,1.084E-1,-2.6E0,1E0,7.826E0,-5.8067072E-2,-1.157675E-2,-1.8339697E-2,4.4996373E-2,2.6831162E-4,4.8502076E-2,6.123514E-2,1.7018302E-1],"split_indices":[16,13,14,26,20,18,0,0,0,0,0,0,0,0,0],"split_type":[0,0,0,0,0,0,0,0,0,0,0,0,0,0,0],"sum_hessian":[1.5531E3,7.95E2,7.581E2,5.055E2,2.895E2,6.191E2,1.39E2,3.507E2,1.548E2,1.774E2,1.121E2,3.2E2,2.991E2,1.217E2,1.73E1],"tree_param":{"num_deleted":"0","num_feature":"27","num_nodes":"15","size_leaf_vector":"1"}},{"base_weights":[-2.0787118E-2,-2.4748235E0,2.775653E0,-5.2461896E0,2.928373E-1,1.0176575E0,6.147768E0,-7.265084E-2,-2.6273534E-2,-1.4550365E-2,5.7102818E-2,5.2265547E-2,-4.9813967E-3,4.779181E-2,1.5341128E-1],"categories":[],"categories_nodes":[],"categories_segments":[],"categories_sizes":[],"default_left":[0,0,0,0,0,0,0,0,0,0,0,0,0,0,0],"id":42,"left_children":[1,3,5,7,9,11,13,-1,-1,-1,-1,-1,-1,-1,-1],"loss_changes":[1.063254E4,6.3369014E3,4.261893E3,1.9559307E3,3.823243E3,2.9765588E3,2.8829873E3,0E0,0E0,0E0,0E0,0E0,0E0,0E0,0E0],"parents":[2147483647,0,0,1,1,2,2,3,3,4,4,5,5,6,6],"right_children":[2,4,6,8,10,12,14,-1,-1,-1,-1,-1,-1,-1,-1],"split_conditions":[8.0862E1,8.04E1,1.268E0,1E0,8.56E1,-3.04E0,2.2154E2,-7.265084E-2,-2.6273534E-2,-1.4550365E-2,5.7102818E-2,5.2265547E-2,-4.9813967E-3,4.779181E-2,1.5341128E-1],"split_indices":[16,13,5,7,12,5,1,0,0,0,0,0,0,0,0],"split_type":[0,0,0,0,0,0,0,0,0,0,0,0,0,0,0],"sum_hessian":[1.5394E3,8.202E2,7.192E2,4.076E2,4.126E2,4.77E2,2.422E2,2.362E2,1.714E2,3.143E2,9.83E1,1.251E2,3.519E2,2.14E2,2.82E1],"tree_param":{"num_deleted":"0","num_feature":"27","num_nodes":"15","size_leaf_vector":"1"}},{"base_weights":[1.618992E-1,-1.8107097E0,3.8352315E0,-2.74912E0,3.1989264E0,1.6577935E0,8.01302E0,-5.9084684E-2,-1.3020238E-2,-2.2070559E-2,6.256498E-2,1.5888391E-4,6.651072E-2,-4.4226523E-2,8.979875E-2],"categories":[],"categories_nodes":[],"categories_segments":[],"categories_sizes":[],"default_left":[0,0,0,0,0,0,0,0,0,0,0,0,0,0,0],"id":43,"left_children":[1,3,5,7,9,11,13,-1,-1,-1,-1,-1,-1,-1,-1],"loss_changes":[1.149471E4,4.897034E3,4.9751655E3,3.8581177E3,2.6423877E3,2.9449478E3,1.9554932E3,0E0,0E0,0E0,0E0,0E0,0E0,0E0,0E0],"parents":[2147483647,0,0,1,1,2,2,3,3,4,4,5,5,6,6],"right_children":[2,4,6,8,10,12,14,-1,-1,-1,-1,-1,-1,-1,-1],"split_conditions":[8.144E1,8.72E1,1.088E0,7.88E1,-2.3E-3,3.3E0,-5.16E0,-5.9084684E-2,-1.3020238E-2,-2.2070559E-2,6.256498E-2,1.5888391E-4,6.651072E-2,-4.4226523E-2,8.979875E-2],"split_indices":[16,13,5,14,4,20,17,0,0,0,0,0,0,0,0],"split_type":[0,0,0,0,0,0,0,0,0,0,0,0,0,0,0],"sum_hessian":[1.5766E3,1.0274E3,5.492E2,8.672E2,1.602E2,3.656E2,1.836E2,2.799E2,5.873E2,5.69E1,1.033E2,2.767E2,8.89E1,9.3E0,1.743E2],"tree_param":{"num_deleted":"0","num_feature":"27","num_nodes":"15","size_leaf_vector":"1"}},{"base_weights":[-2.987934E-1,-4.3953924E0,1.2952399E0,-5.479733E0,4.063222E0,-1.1185109E-1,4.5976357E0,-6.787049E-2,-5.4414542E-3,-4.665166E-3,1.06889024E-1,-3.9022706E-2,1.1318491E-2,-5.57935E-2,5.879626E-2],"categories":[],"categories_nodes":[],"categories_segments":[],"categories_sizes":[],"default_left":[0,0,0,0,0,0,0,0,0,0,0,0,0,0,0],"id":44,"left_children":[1,3,5,7,9,11,13,-1,-1,-1,-1,-1,-1,-1,-1],"loss_changes":[1.02843545E4,4.1563E3,5.274206E3,2.220662E3,1.5507802E3,3.6271208E3,4.0615244E3,0E0,0E0,0E0,0E0,0E0,0E0,0E0,0E0],"parents":[2147483647,0,0,1,1,2,2,3,3,4,4,5,5,6,6],"right_children":[2,4,6,8,10,12,14,-1,-1,-1,-1,-1,-1,-1,-1],"split_conditions":[7.86E1,8.8E1,8.52E1,1.572E0,-4.3E-3,7.9605E1,-5.04E0,-6.787049E-2,-5.4414542E-3,-4.665166E-3,1.06889024E-1,-3.9022706E-2,1.1318491E-2,-5.57935E-2,5.879626E-2],"split_indices":[14,12,12,5,4,16,17,0,0,0,0,0,0,0,0],"split_type":[0,0,0,0,0,0,0,0,0,0,0,0,0,0,0],"sum_hessian":[1.5656E3,4.361E2,1.1295E3,3.881E2,4.8E1,7.954E2,3.341E2,3.135E2,7.46E1,3.08E1,1.72E1,1.943E2,6.011E2,3.23E1,3.018E2],"tree_param":{"num_deleted":"0","num_feature":"27","num_nodes":"15","size_leaf_vector":"1"}},{"base_weights":[1.1686461E-1,-2.789916E0,2.0112236E0,-3.059985E-1,-5.5005965E0,5.06076E-1,4.434073E0,-1.8208647E-2,8.4815495E-2,-7.016757E-2,3.519821E-2,1.843553E-2,-2.7614059E-2,-3.8771916E-2,5.449082E-2],"categories":[],"categories_nodes":[],"categories_segments":[],"categories_sizes":[],"default_left":[0,0,0,0,0,0,0,0,0,0,0,0,0,0,0],"id":45,"left_children":[1,3,5,7,9,11,13,-1,-1,-1,-1,-1,-1,-1,-1],"loss_changes":[8.73903E3,4.208393E3,3.492167E3,4.2756104E3,3.7391787E3,2.5058374E3,2.787191E3,0E0,0E0,0E0,0E0,0E0,0E0,0E0,0E0],"parents":[2147483647,0,0,1,1,2,2,3,3,4,4,5,5,6,6],"right_children":[2,4,6,8,10,12,14,-1,-1,-1,-1,-1,-1,-1,-1],"split_conditions":[8.0348E1,2.98E0,8.48E1,8.56E1,8.84E1,6.473E1,-7.7E-2,-1.8208647E-2,8.4815495E-2,-7.016757E-2,3.519821E-2,1.843553E-2,-2.7614059E-2,-3.8771916E-2,5.449082E-2],"split_indices":[16,22,12,12,12,1,11,0,0,0,0,0,0,0,0],"split_type":[0,0,0,0,0,0,0,0,0,0,0,0,0,0,0],"sum_hessian":[1.577E3,6.213E2,9.557E2,3.271E2,2.942E2,5.932E2,3.625E2,2.826E2,4.45E1,2.565E2,3.77E1,4.24E2,1.692E2,3.38E1,3.287E2],"tree_param":{"num_deleted":"0","num_feature":"27","num_nodes":"15","size_leaf_vector":"1"}},{"base_weights":[2.8980592E-1,-1.4930167E0,2.4851463E0,-2.58535E0,3.9056375E0,1.7477273E0,9.426243E0,-1.8077755E-2,-8.823563E-2,1.2133168E-1,1.4233572E-2,7.494342E-2,1.0122407E-2,1.18624724E-1,-4.7528174E-2],"categories":[],"categories_nodes":[],"categories_segments":[],"categories_sizes":[],"default_left":[0,0,0,0,0,0,0,0,0,0,0,0,0,0,0],"id":46,"left_children":[1,3,5,7,9,11,13,-1,-1,-1,-1,-1,-1,-1,-1],"loss_changes":[6.19567E3,5.204756E3,3.5479438E3,3.5332979E3,2.8978787E3,2.7012358E3,2.3054614E3,0E0,0E0,0E0,0E0,0E0,0E0,0E0,0E0],"parents":[2147483647,0,0,1,1,2,2,3,3,4,4,5,5,6,6],"right_children":[2,4,6,8,10,12,14,-1,-1,-1,-1,-1,-1,-1,-1],"split_conditions":[8.24E1,1.1E1,4.8E0,1.23E1,3.56E0,-2.6894E2,5.036E0,-1.8077755E-2,-8.823563E-2,1.2133168E-1,1.4233572E-2,7.494342E-2,1.0122407E-2,1.18624724E-1,-4.7528174E-2],"split_indices":[13,2,20,24,19,1,5,0,0,0,0,0,0,0,0],"split_type":[0,0,0,0,0,0,0,0,0,0,0,0,0,0,0],"sum_hessian":[1.5733E3,8.691E2,7.042E2,7.25E2,1.441E2,6.422E2,6.2E1,6.44E2,8.1E1,3.02E1,1.139E2,7.18E1,5.704E2,5.45E1,7.5E0],"tree_param":{"num_deleted":"0","num_feature":"27","num_nodes":"15","size_leaf_vector":"1"}},{"base_weights":[3.0929927E-2,-2.442939E0,2.5492072E0,-3.4541333E0,2.945394E0,1.4536389E0,7.4724865E0,2.3174114E-3,-4.8459277E-2,-1.6820924E-2,7.469918E-2,8.619536E-4,4.395126E-2,5.4712E-2,1.5607786E-1],"categories":[],"categories_nodes":[],"categories_segments":[],"categories_sizes":[],"default_left":[0,0,0,0,0,0,0,0,0,0,0,0,0,0,0],"id":47,"left_children":[1,3,5,7,9,11,13,-1,-1,-1,-1,-1,-1,-1,-1],"loss_changes":[9.971852E3,4.450254E3,4.224171E3,3.2191382E3,2.661358E3,2.5456052E3,1.9629375E3,0E0,0E0,0E0,0E0,0E0,0E0,0E0,0E0],"parents":[2147483647,0,0,1,1,2,2,3,3,4,4,5,5,6,6],"right_children":[2,4,6,8,10,12,14,-1,-1,-1,-1,-1,-1,-1,-1],"split_conditions":[8.0862E1,8.72E1,8.78E1,-3.79E-2,1.374E-1,1.496E0,7.826E0,2.3174114E-3,-4.8459277E-2,-1.6820924E-2,7.469918E-2,8.619536E-4,4.395126E-2,5.4712E-2,1.5607786E-1],"split_indices":[16,12,14,3,11,23,0,0,0,0,0,0,0,0,0],"split_type":[0,0,0,0,0,0,0,0,0,0,0,0,0,0,0],"sum_hessian":[1.5907E3,8.025E2,7.882E2,6.772E2,1.253E2,6.5E2,1.382E2,1.758E2,5.014E2,6.25E1,6.28E1,4.42E2,2.08E2,1.151E2,2.31E1],"tree_param":{"num_deleted":"0","num_feature":"27","num_nodes":"15","size_leaf_vector":"1"}},{"base_weights":[-3.0449694E-1,-2.595941E0,2.174002E0,-4.8962493E0,-3.4663957E-1,-1.8885341E0,3.3221123E0,6.9397785E-2,-5.807494E-2,-1.6366642E-2,4.657829E-2,5.0331485E-2,-3.6310203E-2,-8.0086E-3,4.5620352E-2],"categories":[],"categories_nodes":[],"categories_segments":[],"categories_sizes":[],"default_left":[0,0,0,0,0,0,0,0,0,0,0,0,0,0,0],"id":48,"left_children":[1,3,5,7,9,11,13,-1,-1,-1,-1,-1,-1,-1,-1],"loss_changes":[8.940519E3,4.222269E3,3.560055E3,3.8566865E3,2.6042798E3,2.004405E3,2.7729673E3,0E0,0E0,0E0,0E0,0E0,0E0,0E0,0E0],"parents":[2147483647,0,0,1,1,2,2,3,3,4,4,5,5,6,6],"right_children":[2,4,6,8,10,12,14,-1,-1,-1,-1,-1,-1,-1,-1],"split_conditions":[8.0862E1,8.04E1,7.8E1,0E0,1.93E-2,8.1154E1,-4.44E-2,6.9397785E-2,-5.807494E-2,-1.6366642E-2,4.657829E-2,5.0331485E-2,-3.6310203E-2,-8.0086E-3,4.5620352E-2],"split_indices":[16,13,12,9,3,16,11,0,0,0,0,0,0,0,0],"split_type":[0,0,0,0,0,0,0,0,0,0,0,0,0,0,0],"sum_hessian":[1.5643E3,8.127E2,7.516E2,3.989E2,4.138E2,1.649E2,5.867E2,2.25E1,3.764E2,3.322E2,8.16E1,3.04E1,1.345E2,1.274E2,4.593E2],"tree_param":{"num_deleted":"0","num_feature":"27","num_nodes":"15","size_leaf_vector":"1"}},{"base_weights":[-1.1979915E-1,-2.8233767E0,1.4919542E0,-3.7832768E0,2.2075322E0,7.1746274E-3,4.4843116E0,-1.2197647E-1,-3.366668E-2,-2.1849653E-2,9.040714E-2,1.1061615E-2,-3.310994E-2,5.9873335E-2,-1.5804144E-2],"categories":[],"categories_nodes":[],"categories_segments":[],"categories_sizes":[],"default_left":[0,0,0,0,0,0,0,0,0,0,0,0,0,0,0],"id":49,"left_children":[1,3,5,7,9,11,13,-1,-1,-1,-1,-1,-1,-1,-1],"loss_changes":[7.0006875E3,2.9389243E3,4.472924E3,1.8377832E3,2.949394E3,2.376366E3,2.792058E3,0E0,0E0,0E0,0E0,0E0,0E0,0E0,0E0],"parents":[2147483647,0,0,1,1,2,2,3,3,4,4,5,5,6,6],"right_children":[2,4,6,8,10,12,14,-1,-1,-1,-1,-1,-1,-1,-1],"split_conditions":[7.94E1,8.74E1,8.48E1,-1.4579E1,2.3283E2,1.89E0,3.6E0,-1.2197647E-1,-3.366668E-2,-2.1849653E-2,9.040714E-2,1.1061615E-2,-3.310994E-2,5.9873335E-2,-1.5804144E-2],"split_indices":[13,12,12,19,1,0,5,0,0,0,0,0,0,0,0],"split_type":[0,0,0,0,0,0,0,0,0,0,0,0,0,0,0],"sum_hessian":[1.5968E3,5.95E2,1.0018E3,5.007E2,9.43E1,6.729E2,3.289E2,2.21E1,4.786E2,5.9E1,3.53E1,5.08E2,1.649E2,2.683E2,6.06E1],"tree_param":{"num_deleted":"0","num_feature":"27","num_nodes":"15","size_leaf_vector":"1"}},{"base_weights":[-2.1254714E-1,-2.5661707E0,2.6413748E0,-5.4159136E0,-5.978218E-1,8.5584015E-1,6.106938E0,-6.598639E-2,6.594136E-2,3.0435003E-2,-2.4771934E-2,-1.141954E-3,8.236025E-2,1.3142864E-2,8.1918314E-2],"categories":[],"categories_nodes":[],"categories_segments":[],"categories_sizes":[],"default_left":[0,0,0,0,0,0,0,0,0,0,0,0,0,0,0],"id":50,"left_children":[1,3,5,7,9,11,13,-1,-1,-1,-1,-1,-1,-1,-1],"loss_changes":[1.0635078E4,4.8498013E3,4.4031216E3,4.5296006E3,3.4110083E3,3.3305635E3,2.1669746E3,0E0,0E0,0E0,0E0,0E0,0E0,0E0,0E0],"parents":[2147483647,0,0,1,1,2,2,3,3,4,4,5,5,6,6],"right_children":[2,4,6,8,10,12,14,-1,-1,-1,-1,-1,-1,-1,-1],"split_conditions":[8.097E1,7.94E1,2.156E0,8.9E1,-7.18E-1,9.06E1,-1.44E0,-6.598639E-2,6.594136E-2,3.0435003E-2,-2.4771934E-2,-1.141954E-3,8.236025E-2,1.3142864E-2,8.1918314E-2],"split_indices":[16,14,23,12,5,15,17,0,0,0,0,0,0,0,0],"split_type":[0,0,0,0,0,0,0,0,0,0,0,0,0,0,0],"sum_hessian":[1.5733E3,8.625E2,7.108E2,3.488E2,5.137E2,4.732E2,2.376E2,3.23E2,2.58E1,1.725E2,3.412E2,4.214E2,5.18E1,6.94E1,1.682E2],"tree_param":{"num_deleted":"0","num_feature":"27","num_nodes":"15","size_leaf_vector":"1"}},{"base_weights":[-5.273458E-2,-1.4711581E0,3.190356E0,-3.6194315E0,5.4013586E-1,3.8190928E0,-5.905073E0,1.5924009E-2,-4.2842682E-2,2.3017887E-2,-2.2345625E-2,-1.1706943E-2,5.1926512E-2,-1.20667845E-1,2.007401E-2],"categories":[],"categories_nodes":[],"categories_segments":[],"categories_sizes":[],"default_left":[0,0,0,0,0,0,0,0,0,0,0,0,0,0,0],"id":51,"left_children":[1,3,5,7,9,11,13,-1,-1,-1,-1,-1,-1,-1,-1],"loss_changes":[7.252707E3,4.7486816E3,2.855831E3,1.5876958E3,2.6800366E3,2.8399019E3,1.6410461E3,0E0,0E0,0E0,0E0,0E0,0E0,0E0,0E0],"parents":[2147483647,0,0,1,1,2,2,3,3,4,4,5,5,6,6],"right_children":[2,4,6,8,10,12,14,-1,-1,-1,-1,-1,-1,-1,-1],"split_conditions":[8.48E1,8.14E1,9.84E-2,-5.68E0,3E-1,7.9887E1,8.0778E1,1.5924009E-2,-4.2842682E-2,2.3017887E-2,-2.2345625E-2,-1.1706943E-2,5.1926512E-2,-1.20667845E-1,2.007401E-2],"split_indices":[12,14,3,5,20,16,16,0,0,0,0,0,0,0,0],"split_type":[0,0,0,0,0,0,0,0,0,0,0,0,0,0,0],"sum_hessian":[1.5666E3,1.0918E3,4.748E2,5.26E2,5.658E2,4.468E2,2.8E1,5.1E1,4.75E2,3.482E2,2.176E2,9.02E1,3.566E2,1.46E1,1.34E1],"tree_param":{"num_deleted":"0","num_feature":"27","num_nodes":"15","size_leaf_vector":"1"}},{"base_weights":[1.6845877E-1,-1.8527802E0,2.4416E0,-2.5806756E0,2.3965254E0,1.727765E0,1.1154714E1,-1.5891086E-2,-6.247373E-2,-3.970766E-2,7.704443E-2,7.088614E-3,6.428758E-2,4.1951705E-2,1.5856813E-1],"categories":[],"categories_nodes":[],"categories_segments":[],"categories_sizes":[],"default_left":[0,0,0,0,0,0,0,0,0,0,0,0,0,0,0],"id":52,"left_children":[1,3,5,7,9,11,13,-1,-1,-1,-1,-1,-1,-1,-1],"loss_changes":[7.167388E3,2.5855447E3,4.469857E3,2.5156978E3,4.1173457E3,3.2039526E3,1.3571138E3,0E0,0E0,0E0,0E0,0E0,0E0,0E0,0E0],"parents":[2147483647,0,0,1,1,2,2,3,3,4,4,5,5,6,6],"right_children":[2,4,6,8,10,12,14,-1,-1,-1,-1,-1,-1,-1,-1],"split_conditions":[8.0862E1,8.72E1,9.04E1,3.25E-2,1.374E-1,5.5E-2,-4.4E-1,-1.5891086E-2,-6.247373E-2,-3.970766E-2,7.704443E-2,7.088614E-3,6.428758E-2,4.1951705E-2,1.5856813E-1],"split_indices":[16,12,14,3,11,3,17,0,0,0,0,0,0,0,0],"split_type":[0,0,0,0,0,0,0,0,0,0,0,0,0,0,0],"sum_hessian":[1.5501E3,8.21E2,7.291E2,7.026E2,1.184E2,6.794E2,4.97E1,5.494E2,1.532E2,5.38E1,6.46E1,5.582E2,1.212E2,2.26E1,2.71E1],"tree_param":{"num_deleted":"0","num_feature":"27","num_nodes":"15","size_leaf_vector":"1"}},{"base_weights":[-1.7502246E-3,-2.194196E0,2.088501E0,-2.472533E0,1.23242065E-1,-4.6718073E-1,4.2980556E0,-3.6156446E-2,8.865908E-3,3.719011E-2,-2.1260919E-2,2.0443833E-2,7.3967434E-2],"categories":[],"categories_nodes":[],"categories_segments":[],"categories_sizes":[],"default_left":[0,0,0,0,0,0,0,0,0,0,0,0,0],"id":53,"left_children":[1,3,5,7,-1,9,11,-1,-1,-1,-1,-1,-1],"loss_changes":[7.2588594E3,3.2108992E3,4.5889346E3,2.7125127E3,0E0,2.5490874E3,2.8613066E3,0E0,0E0,0E0,0E0,0E0,0E0],"parents":[2147483647,0,0,1,1,2,2,3,3,5,5,6,6],"right_children":[2,4,6,8,-1,10,12,-1,-1,-1,-1,-1,-1],"split_conditions":[8.16E1,9.38E1,8.0862E1,8.1718E1,1.23242065E-1,-2.7E-2,8.48E1,-3.6156446E-2,8.865908E-3,3.719011E-2,-2.1260919E-2,2.0443833E-2,7.3967434E-2],"split_indices":[14,12,16,16,0,6,12,0,0,0,0,0,0],"split_type":[0,0,0,0,0,0,0,0,0,0,0,0,0],"sum_hessian":[1.574E3,7.681E2,8.059E2,7.574E2,1.07E1,3.755E2,4.304E2,5.747E2,1.827E2,1.041E2,2.714E2,2.457E2,1.847E2],"tree_param":{"num_deleted":"0","num_feature":"27","num_nodes":"13","size_leaf_vector":"1"}},{"base_weights":[-1.3110188E-1,-2.2406247E0,2.7952452E0,-4.4937043E0,-3.788075E-1,4.2069614E-1,6.47004E0,-3.3597734E-2,-1.1523314E-1,4.3119647E-2,-1.562056E-2,-6.1081707E-2,1.3171163E-2,9.256901E-2,-9.6014765E-4],"categories":[],"categories_nodes":[],"categories_segments":[],"categories_sizes":[],"default_left":[0,0,0,0,0,0,0,0,0,0,0,0,0,0,0],"id":54,"left_children":[1,3,5,7,9,11,13,-1,-1,-1,-1,-1,-1,-1,-1],"loss_changes":[9.722913E3,3.830102E3,5.7445044E3,3.20496E3,2.6996843E3,2.285234E3,4.3734707E3,0E0,0E0,0E0,0E0,0E0,0E0,0E0,0E0],"parents":[2147483647,0,0,1,1,2,2,3,3,4,4,5,5,6,6],"right_children":[2,4,6,8,10,12,14,-1,-1,-1,-1,-1,-1,-1,-1],"split_conditions":[8.28E1,8.0371E1,8.42E1,2.816E-1,-5.9E0,-2.917E-1,7.7E0,-3.3597734E-2,-1.1523314E-1,4.3119647E-2,-1.562056E-2,-6.1081707E-2,1.3171163E-2,9.256901E-2,-9.6014765E-4],"split_indices":[14,16,12,11,20,26,20,0,0,0,0,0,0,0,0],"split_type":[0,0,0,0,0,0,0,0,0,0,0,0,0,0,0],"sum_hessian":[1.565E3,9.101E2,6.549E2,4.086E2,5.015E2,4.012E2,2.537E2,3.528E2,5.58E1,9.76E1,4.039E2,4.44E1,3.568E2,1.809E2,7.28E1],"tree_param":{"num_deleted":"0","num_feature":"27","num_nodes":"15","size_leaf_vector":"1"}},{"base_weights":[-1.8442306E-1,-3.518154E0,1.493509E0,-6.3445826E0,-1.7642162E0,4.343231E-1,5.654648E0,-1.08636074E-1,-4.254113E-2,1.2706982E-2,-3.776867E-2,-4.6571635E-2,1.30846165E-2,5.571058E-3,7.4926995E-2],"categories":[],"categories_nodes":[],"categories_segments":[],"categories_sizes":[],"default_left":[0,0,0,0,0,0,0,0,0,0,0,0,0,0,0],"id":55,"left_children":[1,3,5,7,9,11,13,-1,-1,-1,-1,-1,-1,-1,-1],"loss_changes":[8.51343E3,2.4699702E3,4.4514985E3,1.58519E3,1.8821206E3,3.4472961E3,1.725335E3,0E0,0E0,0E0,0E0,0E0,0E0,0E0,0E0],"parents":[2147483647,0,0,1,1,2,2,3,3,4,4,5,5,6,6],"right_children":[2,4,6,8,10,12,14,-1,-1,-1,-1,-1,-1,-1,-1],"split_conditions":[8.0128E1,7.84E1,6.234E0,0E0,-1.8E0,7.64E1,8.0862E1,-1.08636074E-1,-4.254113E-2,1.2706982E-2,-3.776867E-2,-4.6571635E-2,1.30846165E-2,5.571058E-3,7.4926995E-2],"split_indices":[16,14,23,8,2,15,16,0,0,0,0,0,0,0,0],"split_type":[0,0,0,0,0,0,0,0,0,0,0,0,0,0,0],"sum_hessian":[1.5123E3,5.045E2,1.0078E3,1.882E2,3.163E2,8.077E2,2.001E2,5.73E1,1.309E2,1.242E2,1.921E2,1.138E2,6.939E2,5.08E1,1.493E2],"tree_param":{"num_deleted":"0","num_feature":"27","num_nodes":"15","size_leaf_vector":"1"}},{"base_weights":[-1.4685428E-1,-1.5998272E0,3.3597784E0,-4.8493505E0,-2.7944097E-1,3.9240298E0,-9.783655E0,-7.060857E-2,-1.0291096E-2,4.396831E-2,-1.6873125E-2,-1.8571569E-2,5.1866915E-2,-1.1956597E-1,1.3001433E-4],"categories":[],"categories_nodes":[],"categories_segments":[],"categories_sizes":[],"default_left":[0,0,0,0,0,0,0,0,0,0,0,0,0,0,0],"id":56,"left_children":[1,3,5,7,9,11,13,-1,-1,-1,-1,-1,-1,-1,-1],"loss_changes":[8.005442E3,4.7583125E3,3.6051948E3,2.4899805E3,5.01393E3,2.9643325E3,3.7940808E2,0E0,0E0,0E0,0E0,0E0,0E0,0E0,0E0],"parents":[2147483647,0,0,1,1,2,2,3,3,4,4,5,5,6,6],"right_children":[2,4,6,8,10,12,14,-1,-1,-1,-1,-1,-1,-1,-1],"split_conditions":[8.52E1,7.9626E1,1.171E-1,8.18E1,-2.98E0,7.72E1,5E0,-7.060857E-2,-1.0291096E-2,4.396831E-2,-1.6873125E-2,-1.8571569E-2,5.1866915E-2,-1.1956597E-1,1.3001433E-4],"split_indices":[12,16,3,13,5,14,18,0,0,0,0,0,0,0,0],"split_type":[0,0,0,0,0,0,0,0,0,0,0,0,0,0,0],"sum_hessian":[1.561E3,1.1056E3,4.554E2,3.156E2,7.9E2,4.4E2,1.54E1,2.033E2,1.123E2,1.795E2,6.105E2,7.26E1,3.674E2,1.21E1,3.3E0],"tree_param":{"num_deleted":"0","num_feature":"27","num_nodes":"15","size_leaf_vector":"1"}},{"base_weights":[1.867561E-1,-2.1534088E0,2.7089884E0,-4.853836E0,4.2318052E-1,-9.145407E0,3.1125674E0,-8.624205E-2,-3.5425752E-2,-1.35380225E-2,6.080053E-2,5.35827E-2,-1.2557882E-1,1.8885052E-2,5.873343E-2],"categories":[],"categories_nodes":[],"categories_segments":[],"categories_sizes":[],"default_left":[0,0,0,0,0,0,0,0,0,0,0,0,0,0,0],"id":57,"left_children":[1,3,5,7,9,11,13,-1,-1,-1,-1,-1,-1,-1,-1],"loss_changes":[9.318718E3,5.70995E3,3.7760132E3,1.8467744E3,4.1203096E3,1.4993381E3,2.4045596E3,0E0,0E0,0E0,0E0,0E0,0E0,0E0,0E0],"parents":[2147483647,0,0,1,1,2,2,3,3,4,4,5,5,6,6],"right_children":[2,4,6,8,10,12,14,-1,-1,-1,-1,-1,-1,-1,-1],"split_conditions":[8.0862E1,8.04E1,7.24E1,7.72E1,8.56E1,6.8E1,3.008E0,-8.624205E-2,-3.5425752E-2,-1.35380225E-2,6.080053E-2,5.35827E-2,-1.2557882E-1,1.8885052E-2,5.873343E-2],"split_indices":[16,13,14,14,12,14,23,0,0,0,0,0,0,0,0],"split_type":[0,0,0,0,0,0,0,0,0,0,0,0,0,0,0],"sum_hessian":[1.5689E3,8.142E2,7.547E2,3.954E2,4.188E2,2.13E1,7.334E2,1.039E2,2.915E2,3.21E2,9.78E1,3.2E0,1.81E1,5.003E2,2.331E2],"tree_param":{"num_deleted":"0","num_feature":"27","num_nodes":"15","size_leaf_vector":"1"}},{"base_weights":[2.7450132E-1,-4.0017695E0,1.750626E0,-6.372264E0,1.438661E0,-6.128737E-1,2.8365808E0,-9.8869026E-2,-3.3529982E-2,-2.6000079E-2,5.602756E-2,-3.2262754E-2,2.0375896E-2,1.5954947E-2,6.2724784E-2],"categories":[],"categories_nodes":[],"categories_segments":[],"categories_sizes":[],"default_left":[0,0,0,0,0,0,0,0,0,0,0,0,0,0,0],"id":58,"left_children":[1,3,5,7,9,11,13,-1,-1,-1,-1,-1,-1,-1,-1],"loss_changes":[9.838962E3,5.2051714E3,2.9810264E3,2.6878955E3,2.0834563E3,2.468197E3,3.2934595E3,0E0,0E0,0E0,0E0,0E0,0E0,0E0,0E0],"parents":[2147483647,0,0,1,1,2,2,3,3,4,4,5,5,6,6],"right_children":[2,4,6,8,10,12,14,-1,-1,-1,-1,-1,-1,-1,-1],"split_conditions":[7.966E1,8.26E1,7.92E1,7.86E1,8.02E1,6.14E-1,2E0,-9.8869026E-2,-3.3529982E-2,-2.6000079E-2,5.602756E-2,-3.2262754E-2,2.0375896E-2,1.5954947E-2,6.2724784E-2],"split_indices":[16,12,13,14,13,5,18,0,0,0,0,0,0,0,0],"split_type":[0,0,0,0,0,0,0,0,0,0,0,0,0,0,0],"sum_hessian":[1.5482E3,3.951E2,1.1531E3,2.746E2,1.205E2,3.637E2,7.894E2,1.281E2,1.465E2,6.16E1,5.89E1,1.836E2,1.801E2,5.739E2,2.155E2],"tree_param":{"num_deleted":"0","num_feature":"27","num_nodes":"15","size_leaf_vector":"1"}},{"base_weights":[2.4697946E-1,-1.2865885E0,3.758705E0,-4.4545083E0,-4.0613215E-2,8.03038E0,2.6750443E0,-8.3960645E-2,-2.4008851E-2,1.0266561E-1,-4.193271E-3,1.0704388E-1,-3.3356454E-2,-5.7653498E-2,3.7517395E-2],"categories":[],"categories_nodes":[],"categories_segments":[],"categories_sizes":[],"default_left":[0,0,0,0,0,0,0,0,0,0,0,0,0,0,0],"id":59,"left_children":[1,3,5,7,9,11,13,-1,-1,-1,-1,-1,-1,-1,-1],"loss_changes":[8.473722E3,4.324281E3,2.1066216E3,2.3488838E3,2.96184E3,2.7525962E3,3.3014058E3,0E0,0E0,0E0,0E0,0E0,0E0,0E0,0E0],"parents":[2147483647,0,0,1,1,2,2,3,3,4,4,5,5,6,6],"right_children":[2,4,6,8,10,12,14,-1,-1,-1,-1,-1,-1,-1,-1],"split_conditions":[8.48E1,7.9626E1,-2.8E0,7.72E1,-2.9952E1,1.12E1,-2.2E0,-8.3960645E-2,-2.4008851E-2,1.0266561E-1,-4.193271E-3,1.0704388E-1,-3.3356454E-2,-5.7653498E-2,3.7517395E-2],"split_indices":[12,16,7,14,0,2,7,0,0,0,0,0,0,0,0],"split_type":[0,0,0,0,0,0,0,0,0,0,0,0,0,0,0],"sum_hessian":[1.564E3,1.0908E3,4.732E2,3.043E2,7.865E2,8.93E1,3.839E2,1.044E2,1.999E2,2.32E1,7.633E2,7.38E1,1.55E1,3.84E1,3.455E2],"tree_param":{"num_deleted":"0","num_feature":"27","num_nodes":"15","size_leaf_vector":"1"}},{"base_weights":[-5.2061614E-2,-2.3374116E0,2.51893E0,-6.215948E0,-9.0476024E-1,1.2063724E0,7.965625E0,-7.331289E-2,2.5134351E-2,-3.161651E-2,1.0425077E-2,-1.4724595E-3,4.0316913E-2,1.010204E-1,1.807869E-3],"categories":[],"categories_nodes":[],"categories_segments":[],"categories_sizes":[],"default_left":[0,0,0,0,0,0,0,0,0,0,0,0,0,0,0],"id":60,"left_children":[1,3,5,7,9,11,13,-1,-1,-1,-1,-1,-1,-1,-1],"loss_changes":[9.390756E3,4.673305E3,5.3295576E3,1.9531172E3,2.6352278E3,2.2605396E3,2.1435986E3,0E0,0E0,0E0,0E0,0E0,0E0,0E0,0E0],"parents":[2147483647,0,0,1,1,2,2,3,3,4,4,5,5,6,6],"right_children":[2,4,6,8,10,12,14,-1,-1,-1,-1,-1,-1,-1,-1],"split_conditions":[8.0862E1,7.72E1,8.78E1,7.4E0,8.04E1,1.212E0,1.268E1,-7.331289E-2,2.5134351E-2,-3.161651E-2,1.0425077E-2,-1.4724595E-3,4.0316913E-2,1.010204E-1,1.807869E-3],"split_indices":[16,14,14,7,13,5,1,0,0,0,0,0,0,0,0],"split_type":[0,0,0,0,0,0,0,0,0,0,0,0,0,0,0],"sum_hessian":[1.5883E3,8.411E2,7.472E2,2.224E2,6.187E2,6.07E2,1.402E2,2.013E2,2.11E1,2.883E2,3.304E2,4.094E2,1.976E2,1.116E2,2.86E1],"tree_param":{"num_deleted":"0","num_feature":"27","num_nodes":"15","size_leaf_vector":"1"}},{"base_weights":[1.4015073E-1,-2.3262198E0,1.5675915E0,-6.2424464E0,-9.9561113E-1,3.2906598E-1,4.067224E0,-4.2358674E-2,-1.1600116E-1,-3.690247E-2,1.4318948E-2,-3.1671E-2,1.8084241E-2,-1.8724678E-2,5.8981344E-2],"categories":[],"categories_nodes":[],"categories_segments":[],"categories_sizes":[],"default_left":[0,0,0,0,0,0,0,0,0,0,0,0,0,0,0],"id":61,"left_children":[1,3,5,7,9,11,13,-1,-1,-1,-1,-1,-1,-1,-1],"loss_changes":[5.464061E3,2.9345024E3,3.0358684E3,1.3023896E3,2.7161177E3,3.2878533E3,3.3021338E3,0E0,0E0,0E0,0E0,0E0,0E0,0E0,0E0],"parents":[2147483647,0,0,1,1,2,2,3,3,4,4,5,5,6,6],"right_children":[2,4,6,8,10,12,14,-1,-1,-1,-1,-1,-1,-1,-1],"split_conditions":[7.94E1,7.7E1,8.48E1,7.56E1,4E-1,7.86E1,-2E0,-4.2358674E-2,-1.1600116E-1,-3.690247E-2,1.4318948E-2,-3.1671E-2,1.8084241E-2,-1.8724678E-2,5.8981344E-2],"split_indices":[13,12,12,12,7,14,18,0,0,0,0,0,0,0,0],"split_type":[0,0,0,0,0,0,0,0,0,0,0,0,0,0,0],"sum_hessian":[1.5419E3,5.641E2,9.778E2,1.384E2,4.257E2,6.576E2,3.202E2,1.043E2,3.41E1,2.025E2,2.232E2,1.928E2,4.648E2,7.14E1,2.488E2],"tree_param":{"num_deleted":"0","num_feature":"27","num_nodes":"15","size_leaf_vector":"1"}},{"base_weights":[1.4650737E-1,-1.2285737E0,3.2243686E0,-2.992025E0,1.4473876E0,-4.2735085E0,3.7464614E0,4.224868E-3,-4.7260955E-2,1.06319515E-2,1.8573894E-1,7.597457E-2,-8.449794E-2,1.17155515E-1,3.100953E-2],"categories":[],"categories_nodes":[],"categories_segments":[],"categories_sizes":[],"default_left":[0,0,0,0,0,0,0,0,0,0,0,0,0,0,0],"id":62,"left_children":[1,3,5,7,9,11,13,-1,-1,-1,-1,-1,-1,-1,-1],"loss_changes":[6.7697085E3,5.2405557E3,2.0129556E3,3.7069912E3,2.9273862E3,1.9100729E3,2.3910317E3,0E0,0E0,0E0,0E0,0E0,0E0,0E0,0E0],"parents":[2147483647,0,0,1,1,2,2,3,3,4,4,5,5,6,6],"right_children":[2,4,6,8,10,12,14,-1,-1,-1,-1,-1,-1,-1,-1],"split_conditions":[8.48E1,8.0954E1,-4E0,-5.4E0,1.16E1,-4.59E-2,-2.2E0,4.224868E-3,-4.7260955E-2,1.06319515E-2,1.8573894E-1,7.597457E-2,-8.449794E-2,1.17155515E-1,3.100953E-2],"split_indices":[12,16,18,2,2,21,2,0,0,0,0,0,0,0,0],"split_type":[0,0,0,0,0,0,0,0,0,0,0,0,0,0,0],"sum_hessian":[1.5899E3,1.101E3,4.889E2,6.633E2,4.377E2,2.95E1,4.594E2,2.155E2,4.478E2,4.324E2,5.3E0,6.4E0,2.31E1,3.28E1,4.266E2],"tree_param":{"num_deleted":"0","num_feature":"27","num_nodes":"15","size_leaf_vector":"1"}},{"base_weights":[2.9333658E-3,-1.371955E0,2.9867787E0,-3.0480258E0,1.2237446E0,4.7199467E-1,5.189876E0,-5.764273E-2,-1.5667131E-2,1.4006327E-1,7.4995533E-3,-8.493164E-2,1.8562444E-2,-6.748353E-2,6.0448535E-2],"categories":[],"categories_nodes":[],"categories_segments":[],"categories_sizes":[],"default_left":[0,0,0,0,0,0,0,0,0,0,0,0,0,0,0],"id":63,"left_children":[1,3,5,7,9,11,13,-1,-1,-1,-1,-1,-1,-1,-1],"loss_changes":[6.372521E3,4.6448477E3,2.70242E3,2.4956123E3,2.5247148E3,2.830685E3,2.391372E3,0E0,0E0,0E0,0E0,0E0,0E0,0E0,0E0],"parents":[2147483647,0,0,1,1,2,2,3,3,4,4,5,5,6,6],"right_children":[2,4,6,8,10,12,14,-1,-1,-1,-1,-1,-1,-1,-1],"split_conditions":[8.48E1,8.0954E1,8.24E1,7.86E1,7.22E1,-9.2E-1,7.38E1,-5.764273E-2,-1.5667131E-2,1.4006327E-1,7.4995533E-3,-8.493164E-2,1.8562444E-2,-6.748353E-2,6.0448535E-2],"split_indices":[12,16,14,14,13,0,13,0,0,0,0,0,0,0,0],"split_type":[0,0,0,0,0,0,0,0,0,0,0,0,0,0,0],"sum_hessian":[1.5434E3,1.0584E3,4.85E2,6.426E2,4.158E2,2.293E2,2.557E2,2.328E2,4.098E2,1.07E1,4.051E2,2.7E1,2.023E2,1.23E1,2.434E2],"tree_param":{"num_deleted":"0","num_feature":"27","num_nodes":"15","size_leaf_vector":"1"}},{"base_weights":[-2.7657926E-1,-2.4075503E0,1.9446054E0,-1.5006837E0,-6.550737E0,4.5766369E-1,5.004744E0,-7.6246426E-2,-9.137924E-3,-1.0332952E-2,-8.5444E-2,-6.344148E-3,6.0637802E-2,2.0129235E-2,8.486348E-2],"categories":[],"categories_nodes":[],"categories_segments":[],"categories_sizes":[],"default_left":[0,0,0,0,0,0,0,0,0,0,0,0,0,0,0],"id":64,"left_children":[1,3,5,7,9,11,13,-1,-1,-1,-1,-1,-1,-1,-1],"loss_changes":[7.3597515E3,2.9316738E3,3.4544072E3,2.343784E3,1.3615107E3,3.069503E3,2.400463E3,0E0,0E0,0E0,0E0,0E0,0E0,0E0,0E0],"parents":[2147483647,0,0,1,1,2,2,3,3,4,4,5,5,6,6],"right_children":[2,4,6,8,10,12,14,-1,-1,-1,-1,-1,-1,-1,-1],"split_conditions":[8.0862E1,2.816E-1,2.156E0,7.7616E1,0E0,8.96E1,8.8E-1,-7.6246426E-2,-9.137924E-3,-1.0332952E-2,-8.5444E-2,-6.344148E-3,6.0637802E-2,2.0129235E-2,8.486348E-2],"split_indices":[16,11,23,16,8,12,17,0,0,0,0,0,0,0,0],"split_type":[0,0,0,0,0,0,0,0,0,0,0,0,0,0,0],"sum_hessian":[1.545E3,7.883E2,7.567E2,6.523E2,1.36E2,5.131E2,2.436E2,5.53E1,5.97E2,3.52E1,1.008E2,4.323E2,8.08E1,1.307E2,1.129E2],"tree_param":{"num_deleted":"0","num_feature":"27","num_nodes":"15","size_leaf_vector":"1"}},{"base_weights":[8.085643E-2,-1.2678045E0,3.2435248E0,-3.1974837E-1,-4.103137E0,2.1300213E0,7.9902773E0,2.5360484E-3,-5.9842568E-2,1.7786754E-3,-5.7143837E-2,-7.648585E-2,2.696905E-2,1.9345095E-2,1.4975452E-1],"categories":[],"categories_nodes":[],"categories_segments":[],"categories_sizes":[],"default_left":[0,0,0,0,0,0,0,0,0,0,0,0,0,0,0],"id":65,"left_children":[1,3,5,7,9,11,13,-1,-1,-1,-1,-1,-1,-1,-1],"loss_changes":[6.787353E3,2.9927305E3,2.4295166E3,2.6466296E3,1.7712725E3,1.9978971E3,3.450142E3,0E0,0E0,0E0,0E0,0E0,0E0,0E0,0E0],"parents":[2147483647,0,0,1,1,2,2,3,3,4,4,5,5,6,6],"right_children":[2,4,6,8,10,12,14,-1,-1,-1,-1,-1,-1,-1,-1],"split_conditions":[8.5E1,6.667E-1,3.52E0,1.2129E2,-6.708E0,-5E0,8.32E1,2.5360484E-3,-5.9842568E-2,1.7786754E-3,-5.7143837E-2,-7.648585E-2,2.696905E-2,1.9345095E-2,1.4975452E-1],"split_indices":[12,10,17,1,0,18,13,0,0,0,0,0,0,0,0],"split_type":[0,0,0,0,0,0,0,0,0,0,0,0,0,0,0],"sum_hessian":[1.5815E3,1.1108E3,4.707E2,8.366E2,2.742E2,3.871E2,8.36E1,7.63E2,7.36E1,7.16E1,2.026E2,1.59E1,3.712E2,4.69E1,3.67E1],"tree_param":{"num_deleted":"0","num_feature":"27","num_nodes":"15","size_leaf_vector":"1"}},{"base_weights":[-1.04138486E-1,-1.354666E0,3.0219064E0,-2.9931846E0,1.1999311E0,-4.0301075E0,3.9275947E0,-5.3316884E-2,-1.1349878E-2,6.1637154E-3,1.3164125E-1,2.390558E-2,-6.830892E-2,-5.6251355E-2,4.4220753E-2],"categories":[],"categories_nodes":[],"categories_segments":[],"categories_sizes":[],"default_left":[0,0,0,0,0,0,0,0,0,0,0,0,0,0,0],"id":66,"left_children":[1,3,5,7,9,11,13,-1,-1,-1,-1,-1,-1,-1,-1],"loss_changes":[6.132303E3,4.7066426E3,2.9418328E3,2.8263477E3,3.0373247E3,9.772586E2,1.5965654E3,0E0,0E0,0E0,0E0,0E0,0E0,0E0,0E0],"parents":[2147483647,0,0,1,1,2,2,3,3,4,4,5,5,6,6],"right_children":[2,4,6,8,10,12,14,-1,-1,-1,-1,-1,-1,-1,-1],"split_conditions":[8.52E1,8.097E1,-7.14E-2,8E1,9.12E1,1.014E0,-5E0,-5.3316884E-2,-1.1349878E-2,6.1637154E-3,1.3164125E-1,2.390558E-2,-6.830892E-2,-5.6251355E-2,4.4220753E-2],"split_indices":[12,16,11,14,14,22,18,0,0,0,0,0,0,0,0],"split_type":[0,0,0,0,0,0,0,0,0,0,0,0,0,0,0],"sum_hessian":[1.5585E3,1.1152E3,4.433E2,6.789E2,4.363E2,4.85E1,3.948E2,3.08E2,3.709E2,4.2E2,1.63E1,1.44E1,3.41E1,1.32E1,3.816E2],"tree_param":{"num_deleted":"0","num_feature":"27","num_nodes":"15","size_leaf_vector":"1"}},{"base_weights":[-1.8550196E-1,-2.6730762E0,1.1116014E0,-3.5219896E0,6.140635E0,4.4261637E0,2.7398503E-1,-4.914887E-2,-1.8274407E-3,-2.89001E-2,9.556823E-2,5.6942526E-2,-5.3390704E-2,-7.2681094E-3,4.904318E-2],"categories":[],"categories_nodes":[],"categories_segments":[],"categories_sizes":[],"default_left":[0,0,0,0,0,0,0,0,0,0,0,0,0,0,0],"id":67,"left_children":[1,3,5,7,9,11,13,-1,-1,-1,-1,-1,-1,-1,-1],"loss_changes":[5.1298936E3,4.183622E3,2.8965457E3,2.135065E3,1.5541268E3,2.4523325E3,3.7502212E3,0E0,0E0,0E0,0E0,0E0,0E0,0E0,0E0],"parents":[2147483647,0,0,1,1,2,2,3,3,4,4,5,5,6,6],"right_children":[2,4,6,8,10,12,14,-1,-1,-1,-1,-1,-1,-1,-1],"split_conditions":[7.96E1,9.04E1,-2.024E0,3.11E-2,-5E-2,6.22E-2,8.2472E1,-4.914887E-2,-1.8274407E-3,-2.89001E-2,9.556823E-2,5.6942526E-2,-5.3390704E-2,-7.2681094E-3,4.904318E-2],"split_indices":[14,15,5,6,26,6,16,0,0,0,0,0,0,0,0],"split_type":[0,0,0,0,0,0,0,0,0,0,0,0,0,0,0],"sum_hessian":[1.5803E3,5.398E2,1.0405E3,4.951E2,4.47E1,2.056E2,8.349E2,3.565E2,1.386E2,1.19E1,3.28E1,1.858E2,1.98E1,6.89E2,1.459E2],"tree_param":{"num_deleted":"0","num_feature":"27","num_nodes":"15","size_leaf_vector":"1"}},{"base_weights":[-5.9851503E-1,-4.2100654E0,4.916591E-1,-6.369678E0,-3.2723626E-1,-1.1183493E0,2.5010138E0,8.397772E-2,-7.251258E-2,-5.4165993E-2,3.341202E-2,2.5863806E-2,-2.0522058E-2,5.9787193E-3,5.549855E-2],"categories":[],"categories_nodes":[],"categories_segments":[],"categories_sizes":[],"default_left":[0,0,0,0,0,0,0,0,0,0,0,0,0,0,0],"id":68,"left_children":[1,3,5,7,9,11,13,-1,-1,-1,-1,-1,-1,-1,-1],"loss_changes":[6.212501E3,3.056791E3,3.9428345E3,2.7331367E3,2.5102126E3,2.2150444E3,3.017644E3,0E0,0E0,0E0,0E0,0E0,0E0,0E0,0E0],"parents":[2147483647,0,0,1,1,2,2,3,3,4,4,5,5,6,6],"right_children":[2,4,6,8,10,12,14,-1,-1,-1,-1,-1,-1,-1,-1],"split_conditions":[7.9452E1,8.18E1,8.3E1,-6.56E0,7.86E1,-3.65E-2,5E-2,8.397772E-2,-7.251258E-2,-5.4165993E-2,3.341202E-2,2.5863806E-2,-2.0522058E-2,5.9787193E-3,5.549855E-2],"split_indices":[16,15,14,17,14,21,26,0,0,0,0,0,0,0,0],"split_type":[0,0,0,0,0,0,0,0,0,0,0,0,0,0,0],"sum_hessian":[1.5703E3,3.608E2,1.2095E3,2.298E2,1.31E2,6.727E2,5.368E2,8.3E0,2.215E2,5.4E1,7.7E1,1.298E2,5.429E2,3.277E2,2.091E2],"tree_param":{"num_deleted":"0","num_feature":"27","num_nodes":"15","size_leaf_vector":"1"}},{"base_weights":[1.2452555E-1,-1.8628622E0,4.001616E0,-8.8685083E-1,-7.5598702E0,3.0985684E0,1.2644629E1,-3.1937826E-2,5.8442075E-3,-1.20762214E-1,-5.1713184E-2,-9.916342E-3,4.5912247E-2,1.4644E-1,1.7123561E-2],"categories":[],"categories_nodes":[],"categories_segments":[],"categories_sizes":[],"default_left":[0,0,0,0,0,0,0,0,0,0,0,0,0,0,0],"id":69,"left_children":[1,3,5,7,9,11,13,-1,-1,-1,-1,-1,-1,-1,-1],"loss_changes":[1.2160378E4,5.7692725E3,3.9790264E3,2.9277722E3,1.3186348E3,2.7897603E3,7.737529E2,0E0,0E0,0E0,0E0,0E0,0E0,0E0,0E0],"parents":[2147483647,0,0,1,1,2,2,3,3,4,4,5,5,6,6],"right_children":[2,4,6,8,10,12,14,-1,-1,-1,-1,-1,-1,-1,-1],"split_conditions":[8.143E1,2.816E-1,9.08E1,7.96E1,7.9304E1,-2E0,1.26E1,-3.1937826E-2,5.8442075E-3,-1.20762214E-1,-5.1713184E-2,-9.916342E-3,4.5912247E-2,1.4644E-1,1.7123561E-2],"split_indices":[16,11,14,14,16,18,2,0,0,0,0,0,0,0,0],"split_type":[0,0,0,0,0,0,0,0,0,0,0,0,0,0,0],"sum_hessian":[1.5684E3,1.0386E3,5.298E2,8.916E2,1.47E2,4.858E2,4.4E1,3.499E2,5.417E2,4.78E1,9.92E1,1.239E2,3.619E2,3.69E1,7.1E0],"tree_param":{"num_deleted":"0","num_feature":"27","num_nodes":"15","size_leaf_vector":"1"}},{"base_weights":[-1.4148074E-1,-2.6297514E0,2.546742E0,-4.8133507E0,-3.9904872E-1,1.0072951E0,5.677977E0,7.606734E-2,-5.301159E-2,-1.039023E-2,7.173831E-2,2.9019343E-2,-3.43837E-2,3.265515E-2,9.505235E-2],"categories":[],"categories_nodes":[],"categories_segments":[],"categories_sizes":[],"default_left":[0,0,0,0,0,0,0,0,0,0,0,0,0,0,0],"id":70,"left_children":[1,3,5,7,9,11,13,-1,-1,-1,-1,-1,-1,-1,-1],"loss_changes":[1.0593109E4,3.9957056E3,3.641649E3,2.0491826E3,1.9161333E3,4.1690264E3,2.095481E3,0E0,0E0,0E0,0E0,0E0,0E0,0E0,0E0],"parents":[2147483647,0,0,1,1,2,2,3,3,4,4,5,5,6,6],"right_children":[2,4,6,8,10,12,14,-1,-1,-1,-1,-1,-1,-1,-1],"split_conditions":[8.0852E1,8.04E1,1.268E0,-6.56E0,1.3063E1,7E-1,8.232E1,7.606734E-2,-5.301159E-2,-1.039023E-2,7.173831E-2,2.9019343E-2,-3.43837E-2,3.265515E-2,9.505235E-2],"split_indices":[16,13,5,17,19,10,16,0,0,0,0,0,0,0,0],"split_type":[0,0,0,0,0,0,0,0,0,0,0,0,0,0,0],"sum_hessian":[1.5737E3,8.173E2,7.564E2,4.101E2,4.072E2,5.115E2,2.449E2,9.1E0,4.01E2,3.799E2,2.73E1,3.618E2,1.497E2,1.505E2,9.44E1],"tree_param":{"num_deleted":"0","num_feature":"27","num_nodes":"15","size_leaf_vector":"1"}},{"base_weights":[2.3615451E-1,-1.9426029E0,2.52816E0,-2.9911568E0,1.9579256E0,4.666003E0,1.1865015E-1,-1.3548153E-2,-5.7943925E-2,-2.8601669E-2,6.860438E-2,3.560576E-2,1.26832E-1,-5.970142E-2,2.0763762E-2],"categories":[],"categories_nodes":[],"categories_segments":[],"categories_sizes":[],"default_left":[0,0,0,0,0,0,0,0,0,0,0,0,0,0,0],"id":71,"left_children":[1,3,5,7,9,11,13,-1,-1,-1,-1,-1,-1,-1,-1],"loss_changes":[8.018257E3,3.3970735E3,4.026857E3,2.860706E3,4.094366E3,3.586836E3,4.296763E3,0E0,0E0,0E0,0E0,0E0,0E0,0E0,0E0],"parents":[2147483647,0,0,1,1,2,2,3,3,4,4,5,5,6,6],"right_children":[2,4,6,8,10,12,14,-1,-1,-1,-1,-1,-1,-1,-1],"split_conditions":[8.0862E1,8.5E1,2.397E1,6.7E-3,4E-1,1.73E0,-9.1E-3,-1.3548153E-2,-5.7943925E-2,-2.8601669E-2,6.860438E-2,3.560576E-2,1.26832E-1,-5.970142E-2,2.0763762E-2],"split_indices":[16,12,1,6,7,19,6,0,0,0,0,0,0,0,0],"split_type":[0,0,0,0,0,0,0,0,0,0,0,0,0,0,0],"sum_hessian":[1.5958E3,8.185E2,7.773E2,6.46E2,1.725E2,4.094E2,3.679E2,4.022E2,2.438E2,8.72E1,8.53E1,3.611E2,4.83E1,8.69E1,2.81E2],"tree_param":{"num_deleted":"0","num_feature":"27","num_nodes":"15","size_leaf_vector":"1"}},{"base_weights":[-2.5625932E-1,-1.6836206E0,3.123406E0,-5.070877E0,-2.9101536E-1,2.59397E0,1.3337905E1,-6.4935744E-2,-1.13087585E-2,-1.3079648E-2,3.0715622E-2,1.2759452E-2,7.289363E-2,-4.6141066E-2,1.8257119E-1],"categories":[],"categories_nodes":[],"categories_segments":[],"categories_sizes":[],"default_left":[0,0,0,0,0,0,0,0,0,0,0,0,0,0,0],"id":72,"left_children":[1,3,5,7,9,11,13,-1,-1,-1,-1,-1,-1,-1,-1],"loss_changes":[7.6055063E3,5.21862E3,2.3602686E3,1.593126E3,2.5863647E3,2.7093406E3,2.155813E3,0E0,0E0,0E0,0E0,0E0,0E0,0E0,0E0],"parents":[2147483647,0,0,1,1,2,2,3,3,4,4,5,5,6,6],"right_children":[2,4,6,8,10,12,14,-1,-1,-1,-1,-1,-1,-1,-1],"split_conditions":[8.52E1,7.9605E1,9E0,8.18E1,8.66E1,8.78E1,7.9452E1,-6.4935744E-2,-1.13087585E-2,-1.3079648E-2,3.0715622E-2,1.2759452E-2,7.289363E-2,-4.6141066E-2,1.8257119E-1],"split_indices":[12,16,7,12,14,14,16,0,0,0,0,0,0,0,0],"split_type":[0,0,0,0,0,0,0,0,0,0,0,0,0,0,0],"sum_hessian":[1.5662E3,1.1029E3,4.633E2,3.175E2,7.854E2,4.464E2,1.69E1,2.381E2,7.94E1,6.066E2,1.788E2,3.489E2,9.75E1,3.4E0,1.35E1],"tree_param":{"num_deleted":"0","num_feature":"27","num_nodes":"15","size_leaf_vector":"1"}},{"base_weights":[-1.872401E-1,-6.3158077E-1,3.4381397E0,-1.5330226E0,2.3406036E0,-2.043716E0,5.954367E0,3.346485E-4,-3.4427024E-2,5.9735175E-2,3.1927775E-3,2.2967678E-2,-9.0269506E-2,7.103184E-2,-3.2502953E-2],"categories":[],"categories_nodes":[],"categories_segments":[],"categories_sizes":[],"default_left":[0,0,0,0,0,0,0,0,0,0,0,0,0,0,0],"id":73,"left_children":[1,3,5,7,9,11,13,-1,-1,-1,-1,-1,-1,-1,-1],"loss_changes":[2.4836555E3,3.6929084E3,2.3830254E3,3.0251965E3,2.26823E3,1.7447048E3,1.1587944E3,0E0,0E0,0E0,0E0,0E0,0E0,0E0,0E0],"parents":[2147483647,0,0,1,1,2,2,3,3,4,4,5,5,6,6],"right_children":[2,4,6,8,10,12,14,-1,-1,-1,-1,-1,-1,-1,-1],"split_conditions":[8.96E1,4.82E0,6.43E-2,5E-1,-2.21E-2,3.302E0,2.19E-2,3.346485E-4,-3.4427024E-2,5.9735175E-2,3.1927775E-3,2.2967678E-2,-9.0269506E-2,7.103184E-2,-3.2502953E-2],"split_indices":[12,23,11,20,21,23,4,0,0,0,0,0,0,0,0],"split_type":[0,0,0,0,0,0,0,0,0,0,0,0,0,0,0],"sum_hessian":[1.5301E3,1.3667E3,1.634E2,1.0505E3,3.162E2,5.17E1,1.117E2,5.688E2,4.817E2,1.127E2,2.035E2,3.37E1,1.8E1,1.019E2,9.8E0],"tree_param":{"num_deleted":"0","num_feature":"27","num_nodes":"15","size_leaf_vector":"1"}},{"base_weights":[-2.6390886E-1,-3.2588124E0,7.8039515E-1,-4.4827046E0,1.5716628E0,-1.9849014E0,2.0646708E0,-2.4352001E-2,-7.2166204E-2,-6.795784E-2,3.6705185E-2,-5.1831383E-2,2.1012949E-2,1.4031419E-2,7.095585E-2],"categories":[],"categories_nodes":[],"categories_segments":[],"categories_sizes":[],"default_left":[0,0,0,0,0,0,0,0,0,0,0,0,0,0,0],"id":74,"left_children":[1,3,5,7,9,11,13,-1,-1,-1,-1,-1,-1,-1,-1],"loss_changes":[5.0451777E3,2.5001934E3,4.2716787E3,1.7203794E3,1.5733245E3,4.802457E3,2.721732E3,0E0,0E0,0E0,0E0,0E0,0E0,0E0,0E0],"parents":[2147483647,0,0,1,1,2,2,3,3,4,4,5,5,6,6],"right_children":[2,4,6,8,10,12,14,-1,-1,-1,-1,-1,-1,-1,-1],"split_conditions":[7.9626E1,8.46E1,-7.136E0,3.1E-3,-8.146E0,5.444E0,8.2938E1,-2.4352001E-2,-7.2166204E-2,-6.795784E-2,3.6705185E-2,-5.1831383E-2,2.1012949E-2,1.4031419E-2,7.095585E-2],"split_indices":[16,13,23,4,22,22,16,0,0,0,0,0,0,0,0],"split_type":[0,0,0,0,0,0,0,0,0,0,0,0,0,0,0],"sum_hessian":[1.6041E3,4.12E2,1.1921E3,3.29E2,8.3E1,3.772E2,8.149E2,1.861E2,1.429E2,1.41E1,6.89E1,2.133E2,1.639E2,7.188E2,9.61E1],"tree_param":{"num_deleted":"0","num_feature":"27","num_nodes":"15","size_leaf_vector":"1"}},{"base_weights":[-3.7531394E-1,-3.536516E0,1.2676437E0,-5.4274063E0,-1.2825062E0,3.2804158E-2,3.7045228E0,-2.9796941E-2,-8.023933E-2,-2.7179213E-2,4.6400312E-2,7.924697E-2,-3.954305E-3,-4.6860233E-2,4.641997E-2],"categories":[],"categories_nodes":[],"categories_segments":[],"categories_sizes":[],"default_left":[0,0,0,0,0,0,0,0,0,0,0,0,0,0,0],"id":75,"left_children":[1,3,5,7,9,11,13,-1,-1,-1,-1,-1,-1,-1,-1],"loss_changes":[8.107235E3,2.2399326E3,3.0927256E3,1.6382266E3,2.0554282E3,2.2354546E3,2.4807139E3,0E0,0E0,0E0,0E0,0E0,0E0,0E0,0E0],"parents":[2147483647,0,0,1,1,2,2,3,3,4,4,5,5,6,6],"right_children":[2,4,6,8,10,12,14,-1,-1,-1,-1,-1,-1,-1,-1],"split_conditions":[8.0146E1,8.04E1,8.52E1,-8.6E-3,2.71E-2,-5.984E0,7.44E1,-2.9796941E-2,-8.023933E-2,-2.7179213E-2,4.6400312E-2,7.924697E-2,-3.954305E-3,-4.6860233E-2,4.641997E-2],"split_indices":[16,13,12,4,6,5,15,0,0,0,0,0,0,0,0],"split_type":[0,0,0,0,0,0,0,0,0,0,0,0,0,0,0],"sum_hessian":[1.5517E3,5.287E2,1.023E3,2.837E2,2.45E2,6.823E2,3.407E2,1.442E2,1.395E2,2.004E2,4.46E1,3.07E1,6.516E2,2.9E1,3.117E2],"tree_param":{"num_deleted":"0","num_feature":"27","num_nodes":"15","size_leaf_vector":"1"}},{"base_weights":[6.6892795E-2,-1.400279E0,1.9264219E0,-4.000584E0,-5.8132637E-2,1.124728E0,9.081466E0,-5.6907672E-2,3.196511E-3,7.845642E-3,-6.4853765E-2,-9.808296E-3,3.482338E-2,-4.603198E-2,1.0773419E-1],"categories":[],"categories_nodes":[],"categories_segments":[],"categories_sizes":[],"default_left":[0,0,0,0,0,0,0,0,0,0,0,0,0,0,0],"id":76,"left_children":[1,3,5,7,9,11,13,-1,-1,-1,-1,-1,-1,-1,-1],"loss_changes":[4.2538667E3,3.0409739E3,3.893213E3,2.003291E3,3.0264202E3,2.9759915E3,1.57948E3,0E0,0E0,0E0,0E0,0E0,0E0,0E0,0E0],"parents":[2147483647,0,0,1,1,2,2,3,3,4,4,5,5,6,6],"right_children":[2,4,6,8,10,12,14,-1,-1,-1,-1,-1,-1,-1,-1],"split_conditions":[8.1026E1,7.84E1,9.06E1,8.0298E1,4.3E0,-4.18E-1,7.18E1,-5.6907672E-2,3.196511E-3,7.845642E-3,-6.4853765E-2,-9.808296E-3,3.482338E-2,-4.603198E-2,1.0773419E-1],"split_indices":[16,14,15,16,5,23,14,0,0,0,0,0,0,0,0],"split_type":[0,0,0,0,0,0,0,0,0,0,0,0,0,0,0],"sum_hessian":[1.5493E3,8.667E2,6.826E2,2.917E2,5.75E2,6.19E2,6.36E1,2.132E2,7.85E1,5.121E2,6.29E1,3.248E2,2.942E2,5.1E0,5.85E1],"tree_param":{"num_deleted":"0","num_feature":"27","num_nodes":"15","size_leaf_vector":"1"}},{"base_weights":[4.1524938E-1,-3.4717134E-1,2.50261E0,4.689884E-1,-4.3684053E0,1.62981E0,1.3207598E1,1.8540816E-2,-2.1302504E-2,-4.037939E-3,-6.0435764E-2,-7.029442E-2,2.26356E-2,1.451017E-3,1.5119135E-1],"categories":[],"categories_nodes":[],"categories_segments":[],"categories_sizes":[],"default_left":[0,0,0,0,0,0,0,0,0,0,0,0,0,0,0],"id":77,"left_children":[1,3,5,7,9,11,13,-1,-1,-1,-1,-1,-1,-1,-1],"loss_changes":[2.5316604E3,3.8421384E3,3.8682466E3,3.3564873E3,1.1935928E3,2.0475051E3,6.301997E2,0E0,0E0,0E0,0E0,0E0,0E0,0E0,0E0],"parents":[2147483647,0,0,1,1,2,2,3,3,4,4,5,5,6,6],"right_children":[2,4,6,8,10,12,14,-1,-1,-1,-1,-1,-1,-1,-1],"split_conditions":[1.167E-1,3E-1,2.9094E2,4.38E0,-1.92E-2,-7.2E0,-6E-1,1.8540816E-2,-2.1302504E-2,-4.037939E-3,-6.0435764E-2,-7.029442E-2,2.26356E-2,1.451017E-3,1.5119135E-1],"split_indices":[26,11,1,19,4,7,2,0,0,0,0,0,0,0,0],"split_type":[0,0,0,0,0,0,0,0,0,0,0,0,0,0,0],"sum_hessian":[1.5831E3,1.1626E3,4.205E2,9.701E2,1.925E2,3.941E2,2.64E1,6.365E2,3.336E2,5.54E1,1.371E2,2.18E1,3.723E2,3.4E0,2.3E1],"tree_param":{"num_deleted":"0","num_feature":"27","num_nodes":"15","size_leaf_vector":"1"}},{"base_weights":[3.0341414E-1,-8.938909E-1,3.2291234E0,-3.1882658E0,2.1555182E-1,9.525498E0,1.7698365E0,-4.781987E-3,-6.1034378E-2,-9.365015E-4,1.3052745E-1,-3.866742E-2,1.4006175E-1,-6.576094E-2,2.782204E-2],"categories":[],"categories_nodes":[],"categories_segments":[],"categories_sizes":[],"default_left":[0,0,0,0,0,0,0,0,0,0,0,0,0,0,0],"id":78,"left_children":[1,3,5,7,9,11,13,-1,-1,-1,-1,-1,-1,-1,-1],"loss_changes":[5.425654E3,2.8036365E3,4.047833E3,2.6954082E3,2.8779204E3,4.8739736E3,2.9707625E3,0E0,0E0,0E0,0E0,0E0,0E0,0E0,0E0],"parents":[2147483647,0,0,1,1,2,2,3,3,4,4,5,5,6,6],"right_children":[2,4,6,8,10,12,14,-1,-1,-1,-1,-1,-1,-1,-1],"split_conditions":[8.52E1,7.88E1,-3.824E0,-5.718E0,1.16E1,-6.48E-1,7.5E1,-4.781987E-3,-6.1034378E-2,-9.365015E-4,1.3052745E-1,-3.866742E-2,1.4006175E-1,-6.576094E-2,2.782204E-2],"split_indices":[12,14,19,23,2,23,15,0,0,0,0,0,0,0,0],"split_type":[0,0,0,0,0,0,0,0,0,0,0,0,0,0,0],"sum_hessian":[1.5398E3,1.0951E3,4.447E2,3.539E2,7.412E2,7.85E1,3.662E2,1.816E2,1.723E2,7.283E2,1.29E1,1.88E1,5.97E1,3.5E1,3.312E2],"tree_param":{"num_deleted":"0","num_feature":"27","num_nodes":"15","size_leaf_vector":"1"}},{"base_weights":[-5.4629236E-2,-6.7104834E-1,5.9555135E0,-3.5179033E0,2.7484357E-1,3.901122E0,1.51852E1,-4.4566795E-2,2.6848111E-2,-6.488184E-3,3.5040714E-2,5.608628E-2,-3.574667E-2,1.9345254E-1,1.0278928E-2],"categories":[],"categories_nodes":[],"categories_segments":[],"categories_sizes":[],"default_left":[0,0,0,0,0,0,0,0,0,0,0,0,0,0,0],"id":79,"left_children":[1,3,5,7,9,11,13,-1,-1,-1,-1,-1,-1,-1,-1],"loss_changes":[5.7736523E3,3.809964E3,2.4542158E3,1.8677798E3,3.0584758E3,1.5568385E3,1.2050615E3,0E0,0E0,0E0,0E0,0E0,0E0,0E0,0E0],"parents":[2147483647,0,0,1,1,2,2,3,3,4,4,5,5,6,6],"right_children":[2,4,6,8,10,12,14,-1,-1,-1,-1,-1,-1,-1,-1],"split_conditions":[8.291E1,7.9452E1,9.02E1,8.68E1,1.417E-1,2.583E-1,1.268E1,-4.4566795E-2,2.6848111E-2,-6.488184E-3,3.5040714E-2,5.608628E-2,-3.574667E-2,1.9345254E-1,1.0278928E-2],"split_indices":[16,16,14,15,26,26,1,0,0,0,0,0,0,0,0],"split_type":[0,0,0,0,0,0,0,0,0,0,0,0,0,0,0],"sum_hessian":[1.5481E3,1.4081E3,1.4E2,3.478E2,1.0603E3,1.203E2,1.97E1,3.074E2,4.04E1,8.259E2,2.344E2,1.002E2,2.01E1,1.43E1,5.4E0],"tree_param":{"num_deleted":"0","num_feature":"27","num_nodes":"15","size_leaf_vector":"1"}},{"base_weights":[-3.4762248E-1,-2.7730615E0,1.2644044E0,-5.022792E0,7.663345E-2,6.0521946E0,6.354673E-1,-6.586086E-2,-1.0367928E-2,1.8511502E-2,-6.477006E-2,2.666309E-2,1.9430052E-1,-1.5911447E-2,2.4352219E-2],"categories":[],"categories_nodes":[],"categories_segments":[],"categories_sizes":[],"default_left":[0,0,0,0,0,0,0,0,0,0,0,0,0,0,0],"id":80,"left_children":[1,3,5,7,9,11,13,-1,-1,-1,-1,-1,-1,-1,-1],"loss_changes":[6.06357E3,3.9701934E3,2.7884443E3,1.9256035E3,3.1399148E3,4.553454E3,3.1863247E3,0E0,0E0,0E0,0E0,0E0,0E0,0E0,0E0],"parents":[2147483647,0,0,1,1,2,2,3,3,4,4,5,5,6,6],"right_children":[2,4,6,8,10,12,14,-1,-1,-1,-1,-1,-1,-1,-1],"split_conditions":[8.0356E1,8.14E1,-2.2608E2,1.7E-2,6.6E0,2E0,-8.3E-3,-6.586086E-2,-1.0367928E-2,1.8511502E-2,-6.477006E-2,2.666309E-2,1.9430052E-1,-1.5911447E-2,2.4352219E-2],"split_indices":[16,14,1,4,20,18,26,0,0,0,0,0,0,0,0],"split_type":[0,0,0,0,0,0,0,0,0,0,0,0,0,0,0],"sum_hessian":[1.5414E3,6.14E2,9.274E2,3.41E2,2.73E2,1.027E2,8.247E2,2.5E2,9.1E1,2.177E2,5.53E1,8.58E1,1.69E1,3.658E2,4.589E2],"tree_param":{"num_deleted":"0","num_feature":"27","num_nodes":"15","size_leaf_vector":"1"}},{"base_weights":[1.9132397E-1,-1.2728305E0,2.2814744E0,-3.573415E0,6.270772E-2,2.8172321E0,-4.563136E0,-2.174192E-2,-8.0120265E-2,9.551659E-3,-5.762657E-2,2.1769874E-2,8.7266E-2,-6.2358435E-2,7.108069E-2],"categories":[],"categories_nodes":[],"categories_segments":[],"categories_sizes":[],"default_left":[0,0,0,0,0,0,0,0,0,0,0,0,0,0,0],"id":81,"left_children":[1,3,5,7,9,11,13,-1,-1,-1,-1,-1,-1,-1,-1],"loss_changes":[4.737028E3,2.7991826E3,2.4015972E3,1.9800562E3,2.9052542E3,2.251954E3,1.0579614E3,0E0,0E0,0E0,0E0,0E0,0E0,0E0,0E0],"parents":[2147483647,0,0,1,1,2,2,3,3,4,4,5,5,6,6],"right_children":[2,4,6,8,10,12,14,-1,-1,-1,-1,-1,-1,-1,-1],"split_conditions":[8.28E1,7.96E1,9.67E-2,1.88E0,3.46E-2,9.04E1,4.4E0,-2.174192E-2,-8.0120265E-2,9.551659E-3,-5.762657E-2,2.1769874E-2,8.7266E-2,-6.2358435E-2,7.108069E-2],"split_indices":[12,14,3,17,3,14,7,0,0,0,0,0,0,0,0],"split_type":[0,0,0,0,0,0,0,0,0,0,0,0,0,0,0],"sum_hessian":[1.5382E3,9.057E2,6.325E2,3.296E2,5.761E2,5.893E2,4.32E1,2.514E2,7.82E1,5.033E2,7.28E1,5.318E2,5.75E1,4.02E1,3E0],"tree_param":{"num_deleted":"0","num_feature":"27","num_nodes":"15","size_leaf_vector":"1"}},{"base_weights":[-5.0827194E-2,-2.0237129E0,2.2934647E0,-2.8301911E0,2.0666337E0,3.62906E0,-1.6625686E0,-5.13663E-2,-1.418435E-2,-5.006457E-2,3.9961208E-2,1.9933097E-2,7.2683394E-2,-5.1848587E-2,3.8146563E-2],"categories":[],"categories_nodes":[],"categories_segments":[],"categories_sizes":[],"default_left":[0,0,0,0,0,0,0,0,0,0,0,0,0,0,0],"id":82,"left_children":[1,3,5,7,9,11,13,-1,-1,-1,-1,-1,-1,-1,-1],"loss_changes":[7.4683257E3,2.9213777E3,3.9292207E3,2.286664E3,1.9776238E3,3.1614028E3,3.5721228E3,0E0,0E0,0E0,0E0,0E0,0E0,0E0,0E0],"parents":[2147483647,0,0,1,1,2,2,3,3,4,4,5,5,6,6],"right_children":[2,4,6,8,10,12,14,-1,-1,-1,-1,-1,-1,-1,-1],"split_conditions":[8.0954E1,8.66E1,7.526E0,7.94E1,7.62E1,1E0,1.084E-1,-5.13663E-2,-1.418435E-2,-5.006457E-2,3.9961208E-2,1.9933097E-2,7.2683394E-2,-5.1848587E-2,3.8146563E-2],"split_indices":[16,13,19,14,12,18,26,0,0,0,0,0,0,0,0],"split_type":[0,0,0,0,0,0,0,0,0,0,0,0,0,0,0],"sum_hessian":[1.6048E3,8.718E2,7.33E2,7.295E2,1.423E2,5.483E2,1.847E2,2.852E2,4.443E2,2.8E1,1.143E2,3.746E2,1.737E2,1.134E2,7.13E1],"tree_param":{"num_deleted":"0","num_feature":"27","num_nodes":"15","size_leaf_vector":"1"}},{"base_weights":[1.7721108E-1,-2.977073E0,1.3286273E0,-4.800618E0,1.2273809E0,-2.14587E-1,3.0345654E0,-7.999764E-2,-2.8302921E-2,-2.4653744E-2,5.2419838E-2,-2.2134904E-2,1.5203036E-2,1.0977578E-2,5.979303E-2],"categories":[],"categories_nodes":[],"categories_segments":[],"categories_sizes":[],"default_left":[0,0,0,0,0,0,0,0,0,0,0,0,0,0,0],"id":83,"left_children":[1,3,5,7,9,11,13,-1,-1,-1,-1,-1,-1,-1,-1],"loss_changes":[5.73255E3,3.2661296E3,3.0459668E3,1.7056987E3,1.9254686E3,2.0405592E3,2.9938618E3,0E0,0E0,0E0,0E0,0E0,0E0,0E0,0E0],"parents":[2147483647,0,0,1,1,2,2,3,3,4,4,5,5,6,6],"right_children":[2,4,6,8,10,12,14,-1,-1,-1,-1,-1,-1,-1,-1],"split_conditions":[7.966E1,8.3E1,8.26E1,7.82E1,8.04E1,8.1082E1,3.34E-2,-7.999764E-2,-2.8302921E-2,-2.4653744E-2,5.2419838E-2,-2.2134904E-2,1.5203036E-2,1.0977578E-2,5.979303E-2],"split_indices":[16,12,14,14,13,16,26,0,0,0,0,0,0,0,0],"split_type":[0,0,0,0,0,0,0,0,0,0,0,0,0,0,0],"sum_hessian":[1.568E3,4.172E2,1.1508E3,2.905E2,1.267E2,6.065E2,5.443E2,1.114E2,1.791E2,6.65E1,6.02E1,2.82E2,3.245E2,3.244E2,2.199E2],"tree_param":{"num_deleted":"0","num_feature":"27","num_nodes":"15","size_leaf_vector":"1"}},{"base_weights":[3.5143632E-1,-1.5083435E0,2.6923602E0,-1.8460181E0,1.0954931E1,6.287954E-1,5.3275895E0,-3.2627918E-2,-1.0225242E-4,1.475467E-1,6.5249517E-3,2.7556585E-2,-2.4019627E-2,-3.1542496E-3,6.920051E-2],"categories":[],"categories_nodes":[],"categories_segments":[],"categories_sizes":[],"default_left":[0,0,0,0,0,0,0,0,0,0,0,0,0,0,0],"id":84,"left_children":[1,3,5,7,9,11,13,-1,-1,-1,-1,-1,-1,-1,-1],"loss_changes":[6.823901E3,3.7791562E3,3.7555068E3,2.10642E3,8.028345E2,2.4543418E3,2.4649834E3,0E0,0E0,0E0,0E0,0E0,0E0,0E0,0E0],"parents":[2147483647,0,0,1,1,2,2,3,3,4,4,5,5,6,6],"right_children":[2,4,6,8,10,12,14,-1,-1,-1,-1,-1,-1,-1,-1],"split_conditions":[8.26E1,9.52E1,8.32E1,8.26E1,-4E-1,-7E-1,7.62E1,-3.2627918E-2,-1.0225242E-4,1.475467E-1,6.5249517E-3,2.7556585E-2,-2.4019627E-2,-3.1542496E-3,6.920051E-2],"split_indices":[14,13,12,13,7,20,15,0,0,0,0,0,0,0,0],"split_type":[0,0,0,0,0,0,0,0,0,0,0,0,0,0,0],"sum_hessian":[1.5578E3,8.691E2,6.887E2,8.503E2,1.88E1,3.897E2,2.99E2,4.892E2,3.611E2,1.26E1,6.2000003E0,2.304E2,1.593E2,6.14E1,2.376E2],"tree_param":{"num_deleted":"0","num_feature":"27","num_nodes":"15","size_leaf_vector":"1"}},{"base_weights":[-3.8884205E-1,-3.92431E0,8.837095E-1,-5.773803E0,-5.5448353E-2,-2.2449462E-1,3.7012982E0,-7.827599E-2,-3.111998E-2,-2.1728726E-2,6.54842E-2,5.265565E-2,-8.433768E-3,-2.3771198E-2,5.7158496E-2],"categories":[],"categories_nodes":[],"categories_segments":[],"categories_sizes":[],"default_left":[0,0,0,0,0,0,0,0,0,0,0,0,0,0,0],"id":85,"left_children":[1,3,5,7,9,11,13,-1,-1,-1,-1,-1,-1,-1,-1],"loss_changes":[6.9367E3,2.9176348E3,3.5480532E3,1.2975088E3,1.8947721E3,2.6575713E3,3.7011494E3,0E0,0E0,0E0,0E0,0E0,0E0,0E0,0E0],"parents":[2147483647,0,0,1,1,2,2,3,3,4,4,5,5,6,6],"right_children":[2,4,6,8,10,12,14,-1,-1,-1,-1,-1,-1,-1,-1],"split_conditions":[7.9686E1,8.18E1,1.167E-1,8.04E1,2.182E0,-2.541E2,-2.7E-2,-7.827599E-2,-3.111998E-2,-2.1728726E-2,6.54842E-2,5.265565E-2,-8.433768E-3,-2.3771198E-2,